{"sizes": [784, 30, 30, 10, 10], "weights": [[[-0.004022608522988879, -0.006099224617574249, -0.011316878328775306, -0.0004726903998016447, 0.01917537805368982, -0.012036181923092405, 0.02078569426904568, 0.002451933376425164, -0.0004197299468352042, -0.01892510269675712, -0.0006761619236716168, -0.008564656852254077, 0.0014199472520587714, -0.00781978273148233, 0.003535980692045506, 0.006529374588348108, 0.0097294220625608, -0.0017721273040192968, -0.01602225971779248, -0.0009064383823484609, -0.0031704998008656544, 0.0010363345212771045, 0.006773237698881583, -0.0025257404561774654, -0.007099562639021413, -1.5904842378062662e-05, -0.014880589087614561, -0.0017098023250314398, 0.005070997285910191, -0.011258840063337536, -0.012895925436357286, 0.008078003708079963, 0.0040467636324086, -0.010376548890322019, 0.0082704802861665, -0.013392587519283435, -0.0026578201725007463, -0.01178418450960124, -0.003336102802390172, 0.009098044850797389, -0.0017850185532200446, -0.0047683888092980966, 0.015291143892402258, -0.0007952026481850957, 0.01833747013078986, 0.02259759489535751, -0.01660118444423516, -0.006176395950707715, 0.0033648772117463675, 2.3394555166327935e-05, 0.00231417472237887, -0.0003813564793702031, 0.002604253311428587, -0.004851253115902121, 0.0015497011202306116, 0.00858262217435806, -0.007618990947592557, 0.01175771930534601, 0.00088152082160749, 0.0010024931597895181, -0.010290543074555973, 0.009906114613505681, -0.0050930098611091015, -0.0070883429792161666, -0.04009168992722955, -0.05124229208212247, -0.00985808942314298, -0.0235729436062642, -0.04451891738635554, -0.09147799882432193, -0.05487423829020208, -0.025273823214082683, 0.06732667702537642, 0.006472367016559875, -0.05331742112920361, -0.036578134073395614, -0.09657588726134905, -0.06751775884910315, -0.01314209868524867, -0.00409498373919672, -0.017386465320090878, -0.012456626423535283, 0.01056730488038506, -0.004116948470469323, 0.0009315242331833457, 0.001954625399843915, -0.0009295128350181076, 0.0044258273031827534, 0.00040624784918305074, -0.02635840856802061, -0.023811924549087763, -0.04608807985616512, -0.04269351917752582, -0.11011002709517176, -0.1980317674545208, -0.19637065803394996, -0.11467848846486696, -0.229404401431958, -0.25468080803294246, -0.009927517547089025, 0.06230675102891114, -0.1766764837945029, -0.40862048140516916, -0.32692469905315796, -0.11612877809963787, -0.16155364280660103, -0.14259893211422608, -0.13965863062230333, -0.12083811804604608, 0.04639552306258592, 0.00893649387641922, -0.0017979485415800754, 0.006243630123318599, -0.009851870234943215, -0.008268244458496164, 0.01101382117346932, -0.015212078370248478, -0.058535253281460434, -0.04900483793495598, -0.12799959581683013, -0.147775540250432, -0.28099462047720336, -0.37921519639084056, -0.30198049733930254, -0.23993889150798298, -0.1710960528604028, -0.21072267810808434, 0.17902785829499537, -0.003995867501941897, 0.12339585028614146, 0.11426484290209789, -0.14113627784569024, -0.19112980936978194, -0.24930586325337828, -0.35107980394184013, -0.2040816732446078, -0.15766594975809825, -0.10143484296456959, -0.04606914811881852, -0.011410453396221001, -0.004575773644882365, 0.01517456846626035, -0.003962337412959938, 0.002099881935659219, -0.02573948930244144, -0.03648973685847568, -0.11329949169660322, -0.18618796854484218, -0.30713187190786906, -0.349992361524363, -0.38798500846538786, -0.3517207676843724, -0.08873734472209661, -0.041427594854110794, -0.21855929387886108, -0.18647375094370663, -0.29440984813376264, -0.23723333193343454, -0.40050724289180845, -0.43701799768631566, -0.4441463846154515, -0.3894481135441115, -0.23811634205134852, -0.2002147741046245, -0.21396817092344456, -0.03182577741580418, 0.010777096202452634, 0.009680519273482832, 0.004998507431065892, -0.008672190675161026, -0.014527061314363522, 0.001131872427650805, -0.03016851414263287, -0.07331541352703665, -0.06492792721939626, -0.19120793257708749, -0.39296303503761054, -0.349062586869541, -0.19899017522133391, -0.1046846068049915, -0.274462599267669, 0.04527148264205253, -0.2785732769220781, -0.4348438720705135, -0.35918015888335436, -0.29261756928494104, -0.3791665149585939, -0.204980669531759, -0.18643653660442772, -0.11506074475785547, 0.06663922960780322, -0.1077337640583298, -0.06214267981500056, -0.08597053820840762, 0.04934653128538013, -0.007038818676682699, -0.0075521736961350165, -0.020325097062311604, -0.01213477159476945, -0.028690973722994697, -0.11819474647784427, -0.06938908773332705, -0.019512494921629934, -0.15412205150040106, -0.2745185875655058, -0.14620358699776548, 0.13457693568402243, 0.04306596206597869, 0.1755893325584455, 0.20729477315664993, -0.03335362525369723, 0.06349296943866482, 0.35396275278250927, 0.22096875143156128, 0.1724965845326168, 0.21699979701983818, 0.20680243893936204, -0.07856297283746283, -0.03334414929000443, 0.1708104351807302, 0.07511682912328105, 0.14879241273372115, -0.0008394763697110483, 0.030709629038980675, 0.009915190930905603, 0.0045921330200074705, -0.01292308031747504, 0.033986593261082734, -0.0038626303227055985, 0.09985334094121064, 0.08540440777044661, -0.059218375689101946, -0.19912189599060828, -0.08360393830584414, -0.6218622241958809, -0.12866745787991982, 0.3829477244767499, 0.21583473834489114, 0.16153201410715887, 0.3289235640531092, 0.8133093841802441, 0.6264074188361367, 0.5128835503649481, 0.029182414805002718, 0.30253903832152046, -0.006355508944188629, 0.18492540340106448, 0.15785080872675242, 0.2901535321762993, 0.13068336511839848, -0.12290395039664856, 9.176053141846702e-06, 0.005488821624839665, 0.0026539251586848293, 0.07029633301072592, 0.10744353394371266, -0.08524690346129461, -0.1283796859799606, -0.022079932300107307, 0.1291473176700442, -0.07699468873599402, -0.04368553261107893, -0.12246655730998736, 0.3630088183880926, 0.28070930490446894, 0.16211226640973742, 0.025451497795143198, 0.3707622140069825, 0.4122416854402456, 0.3647990540850076, 0.4139629867349676, 0.3917214797704592, 0.454607432207993, -0.15115459974463613, 0.10966886939013681, 0.04919028516559452, 0.18285228188891822, 0.30549060123775235, 0.03990275216765474, -0.01601264080333248, -0.0008359331953446155, -0.005006936048387473, 0.11007731069189261, 0.17846200642537463, 0.027827815737016894, -0.018982666721100338, 0.19564522510569335, 0.11451987810754075, 0.04846409073171809, -0.04571539265049228, 0.07311108227984674, 0.3514987936450621, 0.2727098122205775, 0.671911110831437, 0.4521840106541041, 0.09917235236684141, 0.1309753576420187, 0.0020862181006368555, 0.2106746666428946, 0.2524963887569429, 0.43055452382752807, 0.3078939975287681, 0.13439936649823242, 0.21040197499540056, 0.2206146397529615, 0.41570425271850725, 0.010016853496443039, -0.008046808864703556, 0.0007023702725039738, -0.007519287866168057, 0.028019588713834684, 0.030226242431391475, 0.09672293178257359, 0.09290709535495097, 0.13945398715199556, 0.030929695929818413, 0.050792700755871154, -0.17546306281417495, -0.1417754453930515, 0.07514046559539328, 0.1582370825572214, 0.37110916484498907, 0.007782980879474336, -0.10341711876946376, -0.3579443783224501, -0.051270174318001224, -0.010720403303827336, 0.13026501015197578, 0.30436607637169394, 0.19281082783785514, 0.09347924285067828, 0.3110702439782941, 0.35721254890331267, 0.14719099039775602, 0.028714582238548718, -0.010728408142966786, -0.007281680852942342, 0.008711571724925172, 0.012837018311416346, 0.02305613999972045, 0.2568069804658413, 0.004572126853570368, 0.05912619202119151, 0.07987110083581456, -0.002343409445104929, 0.34561392731564117, 0.15736806637051823, 0.06311568942939616, 0.250844856323342, 0.5083786614867358, 0.11952665782303745, 0.06070862791172745, -0.26534391609010094, -0.1332485569419062, -0.31690012124598055, 0.018170702487946395, 0.31459892735843104, -0.14049183488027744, -0.04545605757740251, 0.1670065764944942, 0.0937824041723993, 0.03332450874591766, -0.01580974599991041, -0.009614419902319689, -0.01284499109742512, 0.01669072912199144, 0.00023003054184324133, 0.025110892284328848, 0.20451629971413382, 0.1633993158551294, 0.009786453126019426, 0.21690317801163825, 0.10493884136616774, 0.1627889271897272, 0.1473494796942137, 0.027383992695200324, 0.3260666661094607, 0.07576217126126522, -0.2646185639152834, -0.15630521827006752, -0.373535725250295, -0.49376491504467734, -0.13144447629027062, -0.06865814235869652, -0.17039683079837767, -0.1543707982841882, -0.08863924496994174, 0.07317619312298776, 0.1369956346638385, -0.005111858289602015, -0.08595195620106386, -0.08150647140382843, 0.0029356762299845925, 0.014037321939048065, 0.012082935025321201, 0.03727813321954192, 0.06043721852718507, 0.1847477911845188, 0.10511529442638268, 0.13074836784950958, 0.10878776062755019, -0.015236290681829457, 0.11601040319081217, 0.1661017816729239, -0.1100682072876584, 0.01638577006743385, -0.42561304348303514, -0.3110957970871945, -0.4769227612692796, -0.047136811631400315, 0.056710027367322606, -0.08272520733091045, 0.062491445768852336, -0.13169251656984685, -0.04156031192859991, -0.005371235890069838, 0.2171377387484523, -0.1013155032947218, -0.07537297606352905, -0.00509986694492859, -0.008234318434984138, 0.006291210325167404, -0.014825445946208299, -0.01999391585366965, -0.04332065596319613, 0.10292063039481392, 0.1541635964215843, 0.4079243190939932, 0.25151665203657886, 0.208078636255399, 0.0990394949892404, -0.009388693218636168, 0.26921295266779927, -0.6049872925205492, -0.46658775782743006, -0.1653987144185123, -0.049407061422769606, 0.1002786642293694, 0.12337035982462466, -0.13353791137774593, -0.08353517409327775, -0.1226687646885036, -0.3168830446934572, -0.013700121874157067, 0.11652306676853498, -0.2357529377638747, -0.14606050773292392, -0.01020792461836073, 0.01803586008455666, 0.0026628148373994878, -0.03533036520477145, -0.028910469401444927, -0.1657778314704016, 0.093559829783688, 0.18971093659225344, 0.050293515351956065, 0.32970541259398534, -0.12946238862876913, -0.3323326987982886, -0.05274887039971432, -0.24351898107477374, -0.7968889040941939, -0.40629089479072344, -0.33102451492175966, -0.008923570612596408, 0.0881538571183372, -0.19803448301582305, -0.15153084309712297, -0.16908587924247054, -0.41098883590354146, -0.43650599518185434, -0.16276404981969034, -0.16106932795532677, -0.3447517252369287, -0.1630007784375548, 0.01769610063115463, -0.00400734004319584, 0.00016478066986412554, -0.03463152212129907, -0.13189183217642503, -0.18204911659487116, -0.10753194307668226, 0.01741018285126313, -0.08733296299807254, 0.007148423332435142, -0.08058964749633503, 0.1900453805695769, -0.16508205025951203, -0.3964475238654221, -0.5791924950949694, 0.1032730882746609, 0.08721826626356101, 0.04249692817833003, 0.29461950247801155, -0.33882936098177646, -0.1756003521969418, -0.0028532621531320505, -0.43724813996742257, -0.3967607285476, -0.23943709791332515, -0.3145233389534363, -0.27219601908673685, -0.03936541151541021, 0.04470217230703908, -0.009413955650001493, 0.008342514162139483, -0.03545718348242627, -0.21614890319835134, -0.37683865392648813, -0.256770393618707, -0.3296316822942014, -0.061283240616954414, -0.1129856396879762, -0.26150221784618566, -0.0913737500557394, -0.12233029852342842, -0.5731650382164623, -0.2717922872682119, 0.04312874787806069, -0.1706614496838248, 0.04394298293352675, 0.03575049710817086, -0.28574886393887655, -0.028021285130975546, 0.16201702198935128, -0.4522322907875177, -0.09140931242606111, -0.27576284676047835, -0.3812118183403868, -0.22735791741902428, -0.009869496487117874, -0.0017878964923095408, 0.013114493880376285, -0.0023837292150818523, -0.044566786497037665, -0.1253866480922484, -0.2915715670132301, -0.23768220001203688, -0.01942462203254518, 0.2757262154217214, 0.13564745468036601, -0.48528680161492277, -0.10200203568414612, 0.002259782602915503, 0.12908750607380584, 0.07911220865825808, 0.06711692130487595, -0.31765364771398347, -0.23408748161531076, -0.12161538936416373, -0.08029352053874564, -0.27531473916042065, -0.04659882300266584, 0.02216117330999169, 0.121190783983751, -0.14524004264219087, -0.23196419668371557, -0.1444425206338173, -0.04105936592639931, 0.007606048562037017, 0.005361999794767755, 0.001306191947480492, -0.033988002246716394, -0.15146162914488687, -0.1073511219451738, -0.058546331428796644, 0.041411479687107476, -0.24329275387216687, -0.019188699583836056, -0.06951613205725243, -0.17948431840195206, 0.10905436289343394, -0.11948282655887137, 0.07769079663314274, -0.2617627886961014, -0.2969327861113232, -0.33213211984906, 0.04117421586982189, -0.19077239005222654, -0.305720499296286, -0.0236454954453188, -0.09034683732334474, 0.027815418313830036, 0.014537031718854582, -0.11132030099065308, -0.035625434548777195, -0.007200675734034162, -0.01098187197939542, -0.0025707642947327743, -0.0009782482012709924, -0.01569660870045567, -0.07439291439603736, -0.04087180490522217, -0.04876335917067962, -0.06875452544367398, -0.34370686506597903, -0.40671776272677834, -0.08135446244827992, 0.07327684213204805, 0.09630826930620899, -0.20734295472925607, -0.21768540546060103, -0.4404737886038392, -0.1075136685545084, -0.2949821042073999, -0.17476840268464944, -0.2786805965801085, -0.07741386686293811, -0.10534926570557858, -0.20918774392250025, 0.01818789727131545, -0.01849407247203844, -0.13655706333826326, -0.0010123151543763285, 0.04935518132218942, -0.007770388871348308, 0.0002948575509274863, -0.0012139596342871791, -0.012761881238629952, -0.030079173388997914, -0.2038601435433316, -0.15491976128732934, -0.019513353614196958, 0.0873081701865849, 0.07552925894657075, -0.09168083265214617, 0.013713726608433499, -0.2631217373866343, -0.08850228025079442, -0.1324293947660331, -0.0694441117042803, -0.2779971543875702, -0.2680919623154515, -0.24856381506138, -0.5557571261061276, -0.44521865554601203, -0.28984504920648985, -0.1345633406989979, 0.1228820572198342, 0.022519972751725018, -0.012473375135619285, -0.0037815311615804867, -0.0010555096263446392, 0.0026551807390178053, -0.0019405049808861377, 0.0012459018797749786, 0.011020646085592544, -0.0007740233804691437, -0.08540468948834684, 0.020024623356724575, -0.042908823760814604, 0.20541140089792542, 0.4365957038217992, 0.07193447272020236, 0.2068441253702883, 0.014122316657401626, -0.10668648232234343, -0.39187513437841853, -0.18811350691677095, -0.3009940396040968, -0.1438340046055881, -0.342956021462192, -0.3874134965356961, -0.2014671613821164, -0.13484795151323647, -0.1968273515432378, 0.06648392093894549, 0.006884469218577416, -0.052939268250927755, -0.024716736628602187, 0.0004284284784715622, -0.004027939032631361, 0.009530668589765943, -0.0011787099064077219, 0.013354486316847169, 0.00621853184579672, 0.046990111452720244, 0.18803219263537782, -0.09740050840715817, -0.05100499679752816, -0.035061709821101295, -0.18359171638609462, -0.17956482632565204, -0.23748812111521517, -0.015451862373252787, -0.3351971875556415, -0.36055689000822544, -0.13559199256978685, 0.08057928616571232, 0.10713993595303446, 0.16636684959962467, 0.11435702822755174, 0.05130382621712439, -0.05405207166600881, 0.10192056046077298, 0.07821217449620493, 0.03499979095405382, -0.008904970170671168, 0.0034379497212080837, -0.003138058472945626, -0.009482253486283307, 0.0029560725295321023, -0.0015831641330105526, 0.0053022743972537915, 0.021294321494069766, 0.042987312975826295, -0.010025221829112214, -0.017714830082029676, 0.02173916710210677, 0.03504415794740765, -0.16001994959123875, -0.10336058656157242, 0.042196998254044, 0.16393016253513168, 0.13288566980044783, 0.12355538710278384, 0.12617521457954722, 0.202235138229114, 0.23829570165364955, 0.21184913886896398, 0.14083190280608163, 0.17562164089286408, 0.14774231297694831, 0.046541482545849985, 0.019232248552273918, -0.00022575043013015872, 0.006185579011906838, 0.006970510723985266, 0.016961017813053397, -0.0023098895398041205, -0.0065148626430978135, 0.0026562959883261457, 0.01924133357735699, 0.09100033520481539, 0.10005401523023616, 0.036391144924192126, 0.038695823238766726, 0.06352600076150944, 0.028963616918872656, 0.009590950741543995, 0.1878902291789731, 0.2653826884866185, 0.1985052912992292, 0.1994285315246347, 0.07524458103778525, 0.0727968416450581, 0.07058230715337785, 0.05795065803144035, 0.06762839359227649, 0.04658051043529312, 0.04463358533180659, 0.010547045055991095, -0.016173387921141015, 0.0001391634640986509, 0.008631989826176927, 0.0024064438270334286, 0.0093577005636212, -0.00684376012530472, 0.004689691561834651, 0.00668330139304175, 0.0016006506676067903, 0.018491213622827997, 0.004007793462761774, 0.00701371295168243, 0.005527033329523016, -0.005427060107224831, -0.007145519334495737, -0.017617150850902312, 0.001963596051340192, -0.004819677970731049, -0.004568704269002146, 0.009573624709402713, 0.010919451063565322, 0.00732325902038325, 0.03335745479736448, 0.010665808597592688, 0.012430250157129775, 0.0015772421373350194, 0.009073117565654843, -0.0011309212057358199, 0.00701273256528056, 0.0017012041004235718, -0.005066667566988451, 0.00412163267995092], [-0.009832167379479508, 0.000885206578431397, 0.0026996692131464215, -0.0006026046998503063, 0.013245458557461193, -0.0020170164376464603, -0.0013756876695664314, 0.0022314387659151664, 0.004530494341007622, -0.008589334858221867, -0.0044458714436744155, 0.014565298029643669, 0.00017233617111955498, -0.007556873679873007, 0.002734104935339755, -0.01195282941175492, -0.01148220132385383, -0.00013917994038107064, -0.01564823109809071, -0.0009194377376511076, 0.002777719756389804, 0.009708604644388618, 0.01681282311708962, 0.009248594263874418, 8.150041042200991e-05, -0.004365393104633103, -0.007291004092847684, 0.0008719937689953054, 0.007574201789530069, -0.00027123755848993823, -0.0022085028317844874, -0.014899625701747937, 0.004013576728731585, -0.0002776850707345262, 0.0011610365185614803, 0.001138862963614546, -0.003916587982490255, 0.002013303469837038, -0.004890568326105048, -0.022471346557954283, -0.049031623578524405, -0.019559413641713888, 0.0011587345295443485, 0.008917447261509146, -0.014225798995267174, 0.000698400522916174, -0.0030625234964075975, -0.0059915586192239466, 0.013027509620751951, -0.007524119358720218, 0.0025575714514543754, -1.6538900512011767e-05, -0.010394735119811467, 0.005239952665140065, 0.00903724047580631, 0.010711969158085371, 0.0003394809184141542, 0.01496785364566836, 0.017543076062225996, -0.02382889233323428, 0.008024334404413313, 0.0016755008817973237, -0.003822298909944575, -0.014903489284855955, -0.0036624162227228358, -0.013730055801639636, -0.015220181918344898, -0.003793891027469503, -0.045291200640340194, 0.011770685709293086, 0.11161530800277786, 0.23046839817920145, 0.18485040944888959, 0.10837011267767874, 0.027483798022602618, 0.030569486791714943, -0.0022132319708713403, -0.013247195207260788, -0.018744869989461645, 0.01069158359480441, 0.0017902001104625575, -0.012476294193826116, -0.015622689073862129, -0.01644923860875494, 0.008674035128004704, -0.0018072823649275126, -0.010015678151918075, -0.010792727317210335, -0.020708612142221805, 0.003322219977700747, -0.01788574019739607, -0.004377280160656312, -0.015200667315538183, -0.1010374020013382, -0.15148222807799944, -0.13247065583223275, 0.07386726982485896, -0.03790852869228269, 0.05448729736001808, 0.1323058738512237, 0.42730978581802903, 0.4063749540598442, 0.15090996363418294, -0.02860811222896262, 0.07991195439940132, 0.02383236050293138, 0.03146478301736473, 0.024086642926457968, 0.00751775291493065, -0.0004120485042206032, 0.009847317332396278, -0.009080531235232019, -7.66060081282639e-05, -0.009459021092202913, -0.004689445172588903, 0.00879335520243236, 0.025199062589712332, 0.04508840629549354, 0.0346328888059343, -0.04305634820479902, -0.07695233798749533, -0.264229154248231, -0.2914761602765908, -0.2134008020150285, 0.11841325656357557, 0.21021419641242134, 0.27314614788987207, -0.028410517710775858, 0.3371749201800506, -0.030004047645101836, 0.018723958754678416, 0.04566082459717182, 0.09609489982565461, 0.04673044793443677, -0.05968094078935874, 0.05598078338449852, 0.14556360852228015, 0.15512513275890127, 0.01974811412251049, -0.023854446225866233, 0.0022854132379926746, 0.000224197195772963, 0.003935153717521624, 0.008360687462832021, 0.06614211621978022, 0.06925088664156442, 0.028638174473132657, -0.026878309811205706, -0.143233013647313, 0.16552744016020685, -0.2618360286581136, -0.4213366826542737, -0.16931904095385736, 0.013857416875519113, -0.06592330819178811, -0.026535449988318374, 0.08747223434827164, -0.34200592303904653, -0.2872530698587647, -0.15663110477155576, -0.14946296265931994, -0.17397305424298964, -0.1428466813388357, -0.03902737870961764, 0.10308483270954849, 0.08279862374814027, -0.06721388151316048, -0.024635365886228527, -0.012303223339697994, -0.014355552573266142, -0.0036596608994230733, 0.01929758463071351, 0.01258054510507715, -0.02890035374313683, -0.04727096662210062, -0.18099059047691005, -0.08362085133019626, 0.23511421599116436, 0.020849918375156415, -0.032717148802777235, -0.05247091896938246, -0.28236587530266516, -0.2908205073416674, -0.14436491659632744, -0.21849390757993783, -0.13117916047011624, -0.13561338171917434, 0.10300975063886358, 0.1509829300748753, -0.30437647575252225, -0.16425814917921303, 0.1363940001428122, -0.019628138515951472, 0.08755034499194755, 0.014498491871245876, -0.011264865800471193, -0.002711617941794897, 0.0018899254611780922, -0.021379074860603496, 0.04261284605826844, 0.04953599673352477, -0.012268970322801474, -0.01884084042748253, -0.1060716640805364, 0.07439562121229398, 0.053492769856954746, 0.23661383403201697, -0.07127356679233145, -0.04931005041504407, -0.17745102192253184, -0.372946824756422, -0.14866110039283348, -0.22649513793776763, -0.20957355559344706, -0.3533181139702811, 0.26310013222935763, 0.38917072968080235, 0.11620998681362393, -0.030940838817706078, 0.16167673338479893, 0.09236944274659525, 0.09565790711363632, 0.04669567058840995, 0.0037714124910766494, 0.01049176257426009, -0.0023758093132733808, 0.029879382234179814, 0.065527941565257, 0.0026166956247623964, 0.026033015479536056, 0.16515553976605815, 0.21732899613417223, 0.20455509132094357, 0.4430974082852489, 0.12193811155679561, 0.2838124095336913, -0.058613329148115, -0.16673701504608604, -0.4743987517213772, -0.047405374971386784, -0.2832254487150203, -0.1024819661648701, 0.24015124998422108, 0.1720073046057228, 0.1605398142993457, 0.08779705336460684, 0.1513021654623927, -0.14036972145264107, 0.02145893187843134, 0.07451589813941267, 0.08150850207316306, -0.0015360659446235418, -0.005929390423383157, -0.002659544556549173, -0.01656462403701064, 0.07051515206612965, 0.05353734103661199, 0.04374638851837338, 0.23395770386565737, 0.1346347671340034, 0.3081380138839369, 0.14920505022689054, 0.06514439749290574, 0.12645654152163086, -0.01102258187400996, -0.3710517854928605, -0.022590604662310342, -0.07858985038931204, -0.04208785576663461, 0.30162484262630357, 0.31612732817258393, 0.28582245708022286, 0.2948241684503876, 0.03788268162218325, -0.08286128198868185, -0.25057652766244964, -0.20676809378717387, 0.13528010950988975, 0.06595341867362768, -0.005530980678986643, 0.002860416176858081, -0.002797678707270399, -0.08363293715509271, -0.01624497819185332, 0.048587517578513484, 0.012645968405299777, 0.041626986640168076, 0.00038109002836894944, -0.08262846021284498, -0.1676603455653084, -0.1424932815379558, -0.10366347132894607, -0.059450773578427575, -0.5548686686814754, -0.5568788380777684, -0.27566250937646974, -0.16842754737060547, -0.0796706190118075, -0.20696268014967248, 0.10525270532126768, -0.12666741506805265, -0.2406397703467679, -0.10677554638461244, -0.14829654458571018, -0.2986677237291513, 0.0663780443302591, -0.01308979247296539, -0.010557874714282569, -0.01244662324887322, -0.001998479017491784, -0.001663538899277149, -0.012800269855468411, 0.14932492980239467, 0.20509292858019418, -0.05905719773554306, -0.07240743018456454, -0.028903560682890773, 0.013879141299896019, 0.3227695418372285, -0.04929727697002564, -0.07240210267825793, -0.1791905069436808, -0.13986358365388463, -0.3616831631498181, -0.2651582052676951, -0.23850268133316815, -0.42071614686312175, -0.4589941535376859, 0.10171415107852688, -0.18685779591989352, 0.01604565881198791, 0.14952266983761983, -0.03537717399250249, 0.006978690977844559, -0.07707522679551668, 0.007227418352993238, 0.004763754534605974, 0.0032002231528871685, -0.00699039327768043, -0.020081476298982978, 0.04127586922670015, 0.13199747684493932, 0.17542903729399273, -0.0011322747305891935, 0.1444222566677325, -0.3231008201657984, -0.05260913591764849, 0.04644764372250818, 0.22802995250739963, 0.4085701409414362, 0.37613194808573186, 0.44200992354857926, 0.544556328938372, -0.2537043538876764, -0.01700125156455444, -0.0425588323640057, -0.0013181820876326498, 0.0017883674378994401, -0.035387811986310545, 0.013264605382506754, -0.07161068503747023, 0.013584739821362645, 0.006701696846991548, -0.012720258725164784, -0.005947839806586644, -0.012193647099293294, 0.0014897882631020268, -0.023296486823066145, 0.08820145138733189, 0.06293758107223292, 0.1029841374026513, -0.0035714853038936027, 0.23854055070923014, -0.31531108277928266, -0.07074581004437058, 0.4235064168240919, 0.37239258360081784, 0.7042128407958387, 0.6448776437397465, 0.9131632799668873, 0.9331788798046872, 0.3172672540956908, 0.1982036421585551, 0.14338683017464454, 0.20264808954750144, -0.047850106787919275, -0.15252135858115046, -0.2863729484474969, -0.12939239365726363, -0.0045264739152435, 0.007721207487079819, -0.00970239170271794, -0.0039247186968631, 0.009008343303806489, -0.0030029566321069486, -0.006328056222900965, 0.09216734993556704, -0.08882041834419808, 0.17486019703768693, 0.10858286591728637, 0.16563636571682086, 0.0901917942679469, -0.12013860304605924, 0.08575858918666418, 0.2107202617718069, 0.2675533556447336, 0.34553042698166564, 0.3493476658739381, 0.6053808660986884, 0.4294455678646824, 0.3324988807710321, 0.672757350587491, 0.026787683306351177, -0.3168324895783835, -0.3442584738121026, -0.3461875668989808, -0.15908244080380357, 0.07138312782420482, -0.0006667994579600451, -0.023755831292438013, 0.004474662252731286, -0.016838213102630156, -0.005461279949786958, -0.003620464273623729, 0.12453470320678443, -0.11573548771489339, 0.23025302065972827, 0.07027935699943468, 0.33619686546124256, -0.012120211056490752, -0.21175258130501798, -0.25966612625803576, -0.10501594003994284, 0.34739660222313123, 0.36597419430497335, 0.49517052523272914, 0.5694748587564377, 0.25057600261455737, 0.232900546481956, 0.32109465389482733, -0.10598293540185148, -0.3493138448361085, 0.03707019961787707, -0.4954146693257548, -0.20190602619722947, 0.11854728813931392, 0.007652439827411813, -0.004472862533082516, 0.0069749029705349404, 0.002676179043677788, 0.0007219510742212039, 0.005613909147984177, 0.00845385106178899, -0.24007268142668778, 0.14371184027753137, -0.024634770688589956, -0.11664636712963046, -0.4526253055306595, -0.41279815861326113, -0.01865346349494788, -0.08241782776515787, 0.3927960812310044, 0.29726127929258894, 0.5474664051096513, 0.602925937060006, 0.20047747474997368, -0.16131246787761402, -0.07671664165290154, -0.2295291479819358, 0.2188811827106172, 0.08929419788438844, -0.1502270925019533, -0.0055283385513875734, 0.05286158206714164, -0.010280952784516151, -0.007500614787548624, 0.012120877425381472, 0.006634819480367336, 0.007488474637202243, 0.021640611371594353, 0.032355831649928966, -0.29440603250783653, 0.1586175178338659, 0.10437248905759208, -0.07075725996206375, -0.1642878482249461, -0.45026880250213314, -0.061863427134488724, -0.34787715152353216, 0.14292112612882077, 0.26181381266609993, 0.06948457944884014, 0.15563516740665378, 0.18531471754608037, 0.10000569474457202, -0.001384772378292706, -0.06645292553823094, 0.22780268720414928, 0.08665636609931435, 0.04044320105517475, 0.15768487765755176, 0.08249601264958437, 0.01398430004774704, -0.007260527966574135, 0.0017381443247048518, 0.0077181111637582315, 0.021359300743308777, -0.0033430206404439005, -0.1566456840187109, -0.12580407807150273, -0.014109718969792392, 0.02662926157657236, -0.065398938895279, -0.277091092922842, -0.3468743039607266, -0.0435170499724301, -0.140310797253599, 0.08766676703129862, 0.2993509837578009, -0.4557729845734955, -0.28125607743011877, 0.46937711368286894, 0.24763023101859574, 0.29301965581460565, 0.14983809748701837, -0.17497380083193023, 0.003203616699414632, 0.14893495133108825, 0.16197183738526508, 0.13943742440243156, 0.032108583350240555, 0.008332923715149982, -0.005999543244270024, -0.0012054265620526096, 0.004132397565616698, -0.05307842706686332, -0.1897678666602933, 0.0034319347346458613, 0.06338510981821197, -0.055948373172881496, -0.20170729772065354, -0.043960522505734775, -0.15407882498964773, -0.07652088664660726, -0.2327900448561341, -0.07322156741711976, -0.027908891891059585, -0.3196030234694586, 0.08899839330615536, 0.3778723191109511, 0.06638675971624299, 0.11430074032198885, 0.06720647724021256, -0.2237645566582885, -0.09655624197561846, 0.20750862750498858, 0.11443755324508069, 0.14367049289294176, 0.0236034302473881, 0.01617217300384539, 0.017362346796871455, -0.04373482210087797, -0.029232227489107088, -0.13878274178739047, -0.39968226533605594, -0.4395846755118476, -0.029224252118641204, -0.29627149943536074, -0.2617069782692905, -0.2712765564528074, -0.6381340243975742, -0.2783874305930471, -0.4703392454011752, -0.2810985539898749, 0.06496343840869952, -0.2862507589018683, -0.03170216962409459, 0.14333931990946946, 0.056615474250254566, -0.08162458657611016, 0.2544445933205662, 0.030817294528502757, -0.09957577846129986, 0.23166081152408458, 0.1701940154488598, 0.06433325821184362, 0.01255051401052135, -0.0011512642704821637, -0.00800554374258569, -0.010402773645891435, -0.03353544606796784, -0.18298894343650882, -0.2577130191584059, -0.22575606571414839, -0.04704429083059892, -0.04436785162389625, -0.2699851363813883, -0.6192151891251783, -0.30591305379437694, -0.4030590396627041, -0.19262767036173742, -0.040768434183493574, -0.03946068063531178, -0.4683262308633922, 0.04685598066716895, 0.2453946840044418, 0.3384091382696262, 0.29626534058708565, 0.3578811982620074, 0.11310319088857697, -0.0758409956214107, 0.06078260841653236, 0.11260464202600526, -0.020282110043569963, -0.019187926783993663, 0.0023801280393891686, -0.010923495337281555, -0.0031185747129715167, -0.01382996804901127, -0.1450419961680858, 0.02890190444975745, 0.047843816369412866, 0.043789120765942824, -0.20053891502435875, -0.0734991406273777, -0.1145253003550893, -0.020922625473038196, -0.2016219942153142, -0.4378533527380179, -0.4781141662209631, 0.032094658324842235, -0.15066563942848768, -0.3086916517244934, -0.020147040182859382, -0.03442350166503852, 0.09842831731857378, -0.048693510460764526, -0.018054040976766387, 0.015182805875158835, 0.1406415466969544, 0.04053529436362754, 0.001687529735380937, -0.007395576730535096, 0.005582409164075761, -0.013984119981209658, -0.0018360070670042064, -0.006351967831346663, -0.038868707782161345, 0.05824059535063205, -0.06865014229318304, -0.18432216576536717, 0.016450099596010657, -0.272750616888431, -0.24377515122781857, -0.36529440036442745, -0.2791898756869956, -0.11885416287547261, 0.010891588108328869, -0.24513102785091748, -0.22521520254938818, -0.1271081467562192, -0.17040298327617676, -0.28008682537556084, -0.1454005253950259, -0.15996925123176314, -0.04729500655611371, -0.12020820956395192, 0.02973127442331105, 0.038336770728889594, 0.008362775924909341, 0.003355722442573191, -0.0067267237496133276, 0.007894088132295071, 0.009942475448854708, 0.030088125428011706, 0.07689568877942539, 0.15973719491277533, 0.09294038886149016, 0.01643774803908073, -0.04195697762428548, -0.06858151395419199, -0.24047668985758347, 0.13508575811865775, 0.22854792185585598, -0.30492480325871296, -0.3083955353544614, -0.27798944967878053, -0.24068616659554026, -0.08109390402988065, -0.06653530203309731, -0.07687112078523599, 0.05459017119690273, 0.06570122630735788, 0.21032226864580153, 0.062159090269020445, 0.034486518644224425, -0.007701401462449827, 0.004686243669494016, -0.005216159854308931, -0.006791321979796182, -0.0073173756416783945, 0.012626888196249627, -0.0058069977189988175, 0.00560887930787874, 0.03914734050526495, 0.13666747221019634, 0.10632258101730992, 0.1355435815000436, 0.22431662864543733, 0.17513965130597495, -0.08532636910245928, -0.0644555831793975, 0.1424496765892422, -0.0016421796082574146, 0.25746816827230073, 0.3360647767246378, 0.30395944465184643, 0.15767397486683649, 0.10445321968435334, 0.07367033833478022, 0.2033844009210045, 0.21227725730260297, 0.0659530147045161, 0.03798831426247611, 0.008979046219395756, -0.008326044643372955, -0.002364045130001984, 0.0029509489531715895, -0.009797050175205439, 2.8611908017697694e-05, -0.007791004934229261, -0.009525705328637057, -0.003131992426745987, -0.010585846576395568, 0.015857647810012247, 0.08302022889094031, 0.08394046105868744, 0.03924464416041872, -0.03156174073467718, -0.17089979901610342, -0.2096411106826507, -0.1891989355416514, -0.07158674134693294, -0.013309817607522688, 0.05786797694037425, 0.042543924597449365, 0.029478786181904162, 0.009813604463795924, 0.050775687930576706, 0.09020165861951371, 0.04053643034995281, -0.008163999150848781, -0.0016841517509609924, 0.007323304933638521, 0.015230633720556438, 0.004459410774208933, -0.004684894837296148, 0.009898500803706764, 0.0025841252889990283, 0.0036555115603965167, 0.004048925659212733, 0.010739412492243349, 0.012300346326056465, 0.006629014676788115, 0.014848465031322363, -0.0033484224637994916, 0.009624619936677247, 0.0060641891851727974, 0.009272632126081764, 0.005785753374413536, 0.0009409851387712804, 0.0025114951699118345, 0.0030426797236247803, 0.0030238291193441583, 0.004257623602005413, 0.0004985319253008022, -0.0024578120898044093, 0.04053168994310092, 0.0421653530337282, 0.003437123715115083, 0.0058327219209138225, -0.02244434541660038, -0.0064079522823882965, -0.016777367067785445], [-0.00902676314732589, -0.010047575443206178, 0.0009288240798040841, 0.007592748477983299, -0.003744936341328897, -0.0005745522337980098, 0.0008357911437966253, -0.003892441512861393, -0.009699022492600915, -0.006028013249804099, 0.0011769126983850221, 0.003583956383274674, -0.022731626368310776, -0.009462070075689395, 0.0070420699133669894, 0.008027547451150538, 0.011815840677611638, 0.005751356028843621, -0.014203925978947048, -0.004049127298930125, -0.006212046853885948, 0.0027153147453122767, 0.0010143668856102985, -0.018518036729271253, -0.002826270026532384, -0.0009741158549041555, -0.007856731493980947, 0.0019481662546341127, 0.00905458202868703, 0.004158168962059968, -0.0032470284788106802, 0.006619250236781142, 0.006753591312663803, 0.006479599029724765, 0.00928899328000218, 0.00010587129403183892, -0.012096705001343489, -0.0241821483337205, -0.008984799074309062, 0.006774039765445211, -0.009093268253321355, -0.03511457413942088, -0.0269329808324286, -0.031841799332250016, -0.04177382549781304, -0.019906413103682425, -0.012852401598128064, -0.005435953529961699, -0.012462600666965471, -0.01022712505560319, -0.011043622139359022, -0.01056847881641831, 0.003043435870955449, 0.0053728177710945044, -0.011346570078974168, -0.006402414332782808, -0.0025218376834023988, -0.0063371868423523076, -0.0001547425862820335, 0.001668362389937258, -0.007411738529359728, 0.0008295339460441898, 0.010204815954677099, -0.02471157785743426, -0.009095068441535351, 0.010171666651612201, -0.029087309067640694, -0.037628293191326524, -0.04493920474352138, -0.06439865108379379, -0.12534812787242647, -0.2316259070975079, -0.24207687813167245, -0.21480278094113467, -0.13928776636428666, -0.06917054406999967, 0.0015262754054341473, -0.0047792714425213345, -0.0343279545971344, -0.004247787545138392, -0.0070312834449656894, 0.00227125825565937, 0.011347491643762178, 0.014162175050268328, -0.009462931407375832, 0.010043108288737747, -0.002452664189810953, -0.0031902041093046125, 0.0009029927411762569, 0.044858389830527715, 0.015156910453761878, 0.005668684384879215, -0.026538736350228603, 0.025101049412475745, 0.07573855569209945, 0.03290867362757065, -0.03601781596900349, 0.03907390041541833, 0.12206081340849625, 0.03016596127101594, -0.060873459331945406, 0.11120545379797742, 0.2010875904373843, 0.04574000612410877, 0.0566863860028028, -0.09483687236204899, -0.05408301289967698, -0.02921486939023585, -0.024432772283528918, -0.02282586857279832, -0.007220897199498587, 0.004137763102079975, 0.01306806268519992, -0.014990208429665947, 0.007350836396384968, -0.0058201877737668415, -0.00082805630251566, 0.04345024523788864, 0.00951393778642626, 0.042762303156732656, 0.08460465986413182, 0.11723503096234221, 0.11636380284511792, 0.162684285966124, 0.11036174262523236, 0.0635475015640243, 0.12736862725544168, -0.051668294188889165, 0.33871115972800425, 0.46546167495122304, 0.034514909959083885, -0.11961210652984947, -0.10851084248712575, -0.12560718015832636, -0.15822990454062175, -0.2530606958746114, -0.07011111206950627, 0.08238049167795064, 0.06319087985722292, 0.002960317011279867, 0.010336022239205376, -0.005700052358005458, -0.00042326831076877657, 0.004970833348110695, 0.0024594309664415495, -0.026176353642946106, -0.003042672421190264, 0.012376849610247098, 0.01573318461997132, -0.07335404312902796, -0.23534977737685678, -0.288396119912603, -0.2565760332822551, -0.26434688403235235, -0.10465153848281292, -0.2715492327393534, 0.31947506830015904, 0.36670430399304416, 0.2613222994712815, 0.13234866473357593, -0.09123748308749553, 0.03104227694098067, -0.05344976581773817, -0.2383609884670688, -0.10275108547642395, 0.09542665578313621, 0.03626366672400083, 0.014756152350849022, 0.023476951913761233, -0.0014593365227435807, -0.044567888147309526, -0.009684718906561316, 0.030109449068109865, 0.013311086952551562, 0.043490168913980075, -0.07492139754360785, 0.005187948674411252, -0.12191469416516312, -0.1795045158793262, -0.3022224260844632, -0.1980230520645153, 0.009495879690228118, -0.20577397372996586, 0.029175893883117043, -0.11853062171828858, 0.43431691918144455, -0.17726494217784491, -0.048052541748021545, 0.050157290273935416, 0.3831300062198425, 0.10826750163134084, -0.04789750082808422, -0.26107198983038565, -0.1519829794836521, -0.06766754507780058, 0.010834766716556839, 0.005769898103027713, 0.026253876998163117, -0.002115235404243587, 0.04521934215016688, 0.20217413565508552, 0.1857748000302324, 0.1173279935334169, 0.11066919594875531, 0.07953064643718473, 0.16828055347376236, -0.011220989061648798, -0.1362979020896046, -0.25228943039999635, -0.2554449031911024, -0.3510394096873137, -0.04550266609651819, 0.032740337806097156, 0.3023340329152147, 0.4298174058706677, 0.43531714101197105, 0.12196806455627839, 0.32298319954970733, 0.11724538286382927, -0.13328702714663657, -0.45147143449660726, -0.17366778926965107, -0.01682040183964444, -0.008579017531049142, -0.005074372645178935, 0.0022266589427832723, 0.006501776351134471, 0.018230949952398514, 0.19436767131582428, 0.07953163476064787, 0.27555271001137516, 0.3197303097861511, -0.025755726133892577, -0.03158062649195459, 0.0072907257143391985, -0.11168355268041526, -0.01007523018376249, -0.5502998425351511, -0.5428878540676054, 0.07915741105735272, 0.4768727672275728, 0.2843119809999441, 0.10613241897007689, 0.20037832289684965, 0.04807210730993093, -0.011771476751072991, 0.1973273179642774, -0.08674774207280521, -0.5516444457574049, -0.2227635921017147, 0.0010365587695122286, 0.012333586813391594, 0.008051835401621922, 0.0009572136903821882, -0.007264856675033869, 0.013247214667540527, 0.2693892641621831, 0.09981387619827427, 0.23114436488130263, 0.09360752474084792, -0.0346310093492053, -0.06498287208895653, -0.13356053415740773, -0.22941515510977137, -0.608306992439347, -0.5843159775725434, -0.006237816179939251, 0.13967308872608278, 0.3440968412194862, 0.3603672657612308, 0.0695391912208788, 0.11324745085034643, 0.27281640731206913, 0.232929804232694, 0.3026359445581758, 0.17360889075920813, -0.32132204134130304, -0.2600459551165004, -0.036631397731185907, -0.011460086318528972, 0.014932756368728867, 0.00812123049954392, 0.01564238212053772, -0.09694512129998245, 0.014344899870670108, 0.12058594963885069, 0.06911242587504562, -0.04732649933401138, -0.09681551526436387, -0.1390788283689041, -0.16656877312165894, -0.37209076366431404, -0.8163570661257015, -0.26982139759119667, 0.43392751779304206, 0.10399209950562133, 0.2639635511716248, 0.043172040204407874, 0.10371772415907303, 0.27668900419227793, 0.23633960546348792, 0.27681359756627494, 0.31515650649865884, 0.3289522864490355, -0.21245234141940372, -0.311841418603184, -0.0322246664679658, 0.012105155239231958, -0.013172527518523205, -0.006671624618162549, -0.028784153611810574, -0.06406622648648631, -0.20782098762690848, -0.2557889843335652, -0.3461260988329578, -0.009711065552380185, -0.16616388422469372, 0.01703153933939326, -0.2005331526025366, -0.5592861976823498, -0.1365923597294311, 0.5486085240211775, 0.823426112631159, 0.09220701582440474, -0.24182384032007656, -0.09409231169537763, -0.05498067775682664, 0.20366242479454746, 0.04333759876385729, 0.09828401578850628, 0.21616563585350845, 0.2710433451476403, 0.03528237867710589, -0.045408139366099894, -0.013115153519327781, -0.0004651373935415643, -0.0013418689883763553, -0.014423781127237039, -0.034054156518227865, -0.06578023904647551, -0.2910443018008786, -0.3656309378652602, -0.4158049843228482, -0.030549538375391358, -0.02704883882362241, -0.3064150943143857, -0.5546240420530579, -0.3354064426967928, 0.2704366830584434, 0.6809269894344868, 0.3612607328871174, 0.006974497376105513, -0.07500904978678764, -0.06265546183122338, -0.06955775425175274, 0.01974364137010057, -0.1340647086817233, -0.07888817718628316, -0.08654512794444373, 0.13313027507455705, 0.23891812892916217, 0.14996422469779724, 0.05532666282290064, 0.008612429547017205, 0.008474164894744502, -0.02488629990488318, 0.017931069550018892, -0.07603753961617679, -0.39790283388779707, -0.3448881818934589, -0.36015306030766514, -0.473122729639823, -0.33144672155187266, -0.5373265140893779, -0.3122868903940122, 0.10095856266519516, 0.32845949587597123, 0.3465288554555056, 0.20803501339137268, 0.2691395728290034, -0.12839959948691754, -0.30589787454162504, -0.06652456721446842, -0.1282002944228708, 0.12044542334379033, -0.06982333501886558, -0.22798837192230653, -0.12288416734476323, 0.23214283465728008, 0.12316324067908502, 0.07921669031102074, 0.023318189082443864, 0.0047026290758573645, -0.015417839845591393, -0.010736632050487053, -0.12222636444625105, -0.3587990845272564, -0.1344323163141439, -0.0855962454804585, -0.18186603343788005, -0.3161609917477908, -0.13821614663006762, -0.11017203371756906, 0.27148544593165896, 0.6257478247101912, 0.2920247824168188, 0.3191397717453744, 0.04572770530129324, -0.07059880058571108, -0.1923840975249051, 0.031061085835436823, 0.16218062753993673, 0.12279581638644885, 0.05288361799660601, -0.16002514297054984, -0.17911011439067304, -0.030305696721462282, 0.04914108055867081, 0.05628884335102837, -0.004189868343589539, -0.008352538009974646, 0.002273822302503964, -0.014832987354749305, -0.06878101094713299, -0.16706567365398228, -0.02562729980621065, -0.17668893829437826, -0.2533887391561022, -0.153188199634337, -0.14837238780931436, -0.04851441320527165, 0.42937651268683624, 0.1466646914970361, 0.24925769254431612, 0.4087383763186528, 0.3114893662896065, 0.008347532293652754, -0.08750187937209965, -0.08431345682354412, 0.08524754826716303, 0.11641574211472841, -0.14609559387756568, -0.12287450449926245, -0.11563386751831915, 0.038795766689744215, 0.05825027098248415, -0.008487957710819906, 0.0031033042462420093, -0.004767694687687069, 0.005008127227236973, 0.03691924363037315, 0.04275630290828061, 0.037363300296052004, -0.11068411777391252, -0.021163473630300658, -0.15585763897043514, -0.28558993186490167, 0.1996097602761965, 0.08999829673871572, 0.5655557035786085, 0.6337972589256916, 0.7790031809970779, 0.26713247748171653, 0.31849110955303, 0.06016671951170549, 0.4059266224774718, -0.024944213925130913, 0.20997392795863956, -0.056063965811782766, 0.17455899355144128, -0.0874333092307374, -0.05089920583332768, 0.034232026502501754, 0.10188011717363533, 0.08279370810796986, 0.007312868182916834, -0.0016439275629294495, 0.007682269865403584, 0.047912622223567194, 0.039967863601576545, 0.23150132490563496, 0.10376525534686781, -0.08167653786245943, -0.03108915093040577, -0.06867886221103348, 0.11670386913847036, 0.13508045732411275, 0.29261909082266246, 0.43771977846171306, 0.6476801875877864, 0.06671834267353628, -0.06009376828548101, 0.31424773877424833, -0.2541368562928954, -0.0077029785221714876, -0.06610453050098, -0.06598466843994995, -0.047389847201072505, 0.09278104407034128, 0.0362105959236238, 0.12653184290870856, 0.09583896093318993, 0.03586215168632214, 0.005222468892263205, 0.007015884733069707, 0.012914534697655996, 0.04188528304362857, -0.045656026720854906, 0.21875054561072904, 0.2993030782633513, 0.12646234511411747, -0.07068096937245705, 0.021345338688976753, 0.15829190870360949, 0.13430396438461872, 0.26507455752585357, 0.9696255494901852, 0.5830111873592738, -0.24406934821976337, -0.2884718194732643, -0.24273996320856783, -0.18665433885235444, -0.0931777397745937, -0.08664754953927577, -0.2773207464314076, 0.02240323576428841, 0.19409806317729578, 0.2303422777497255, 0.2798757866554304, 0.054239885521474955, 0.010525612037840651, 0.004394000859182764, 0.0038220037398333235, -0.0068134005020030145, -0.006019595177467132, -0.04165095202978735, 0.06131506610336357, 0.11217527151312341, 0.1713798939914971, 0.1097231340518275, -0.019589088891363557, 0.2071720077372442, 0.008262199380903428, 0.1967684105916266, 0.5283427184199322, 0.30590295524085187, -0.8042309003826257, -0.24632730051814938, -0.42721833606044757, 0.023782009321998376, -0.22928573038959058, -0.062067234768177444, -0.20447804744414963, 0.12214594060521863, -0.03423617710882942, 0.09967247875017925, 0.02002536849520535, -0.008493043538535831, 0.01359463543967149, -0.007938424592619495, -0.011236879083906661, -0.006252353687218644, 0.0024208638026891062, 0.10976332758758232, 0.13115245846473592, 0.08334012078965196, 0.2797146895668524, 0.243752985127114, 0.1200982367175449, 0.017007233187045088, 0.2822223771064178, 0.09929867905641214, 0.17104808089064222, -0.2773039822589446, -0.4049622385585119, -0.21597214661011022, -0.37810215604777264, -0.1291260895946076, -0.1896151889791228, -0.012903246046948374, 0.10388922225834493, 0.015380488645358044, -0.12264330744269948, 0.023471988368302086, -0.1119001085371941, -0.06250341971549564, 0.01093913210809301, 0.006970938437972461, -0.011271122392437482, 0.005841121289131972, 0.047766383305702355, 0.10391101635353074, -0.02164511174687863, -0.10110448670754049, -0.010204693600152939, 0.12122228476730335, 0.023865140934653847, 0.20267692845685123, 0.27194836416746104, 0.030056993549326727, 0.07276864155158337, 0.26337883705167026, -0.12913993243679453, -0.31040051437895627, -0.2231915763337342, 0.061445722903249754, -0.33091470589648664, -0.016327980270369157, -0.09551114067800295, -0.044420235142626975, 0.12111778363960896, 0.040595589147049464, -0.16263685595724625, -0.129326595312728, 0.010636472115322282, 0.016383330336908444, 0.004707507492793706, -0.011361309531246803, 0.03107095199008644, 0.04503359207118659, 0.03987870774297087, -0.10310376387734582, 0.07939773731486259, 0.3890702505878453, 0.29469238464178477, 0.5050260012431551, 0.31803275769975364, -0.17139454732687956, 0.06422734556214249, -0.05076365724896887, -0.1819344641110573, -0.025482429223821722, -0.321915666079182, -0.25373021408106866, -0.3741794220686144, 0.037071752390496204, 0.004602192021139751, 0.07446531780781922, -0.04402920587820208, -0.1478751623130838, -0.151045314976551, -0.11159253206616437, 0.004990928692642292, 0.002756499991513592, 0.00048438445481619033, 0.01980700615407499, 0.005948679358770896, -0.01846619849073245, -0.0007109718836938561, 0.0044923665736621736, 0.0411706064539841, 0.31023171158940926, 0.15841119808553447, 0.24779527325156323, 0.057066228858532735, 0.177152201251997, 0.0205788815247339, 0.1568931775025421, -0.12883951253347234, -0.3337376467898672, -0.05077271182667233, -0.1049587177084984, 0.031392409456984814, 0.02341198953446361, -0.16027773720922125, -0.1189143236320455, -0.2377726259592048, -0.21907428289869343, -0.14624296881066343, -0.08145021317627309, -0.0056889964863821715, -0.009207972613835063, -0.003961382371810784, -0.0013227218618047723, -0.02111393271591419, -0.006204090215469007, -0.013258122210452175, -0.05669993713899998, 0.12494035053688768, 0.23992629006915223, 0.14137558414237694, -0.06741656627426751, -0.20469680257543874, -0.28086233399047716, 0.08715732009378763, 0.19495978827554422, 0.34502701460508345, 0.16572229409294417, -0.011221324758826473, -0.213337280956973, -0.264360992685294, -0.37639261442804534, -0.30351220551727537, -0.25640738856214146, -0.27238893164876393, -0.22639107702210295, -0.04578406748787869, 0.01447521679286197, 0.004596561636874461, 0.005322907285536443, -0.008702286168408577, 0.0009446786174986253, -0.003968865933130775, -0.00026326101103847464, 0.0151593014571065, 0.07616008689792801, 0.09196997122862982, 0.12794228741026642, 0.05418483540016671, -0.36630305031835697, -0.46504652893415205, -0.32615435475766535, -0.12017713358639237, -0.1591853582970611, 0.0461662501482253, 0.26605029604316593, 0.05636450915816394, -0.12093226444250366, -0.26023458498492336, -0.2175607944390622, -0.07320688290212418, -0.14322549683155217, -0.1388704626269123, -0.0774581884242241, -0.03810746995141218, 0.006811513546622289, 0.015985112986955465, 0.007063501853714038, 0.0008988094554999986, 0.0032703896328905168, -0.005575061738734035, -0.0036760429572489754, 0.01819432024748885, -0.0036722526128837992, -0.0411185664195827, -0.061417490755450124, -0.10585987271032178, -0.21303964743878298, -0.2926684771249319, -0.16706611519188824, -0.14428658886968282, -0.03972091873055767, -0.04070628425975956, -0.13211925441067668, -0.1447259780105675, -0.09634807036042932, -0.08549413305862842, -0.03665093203876999, -0.06463203776945825, -0.09052508308241847, -0.04862330240955434, -0.0010330560183724666, -0.009433645114612277, 0.004052457419870841, -0.015958738862170124, 0.006160507009104028, -0.007775067556839148, 0.00059342211339244, 0.0016794980258422777, 0.006047224205045756, -0.0030472324362361804, -0.00035065310519050163, 0.007734065677893426, 0.002826734843625812, -0.0008345841149792527, -0.001409720340760232, -0.05779608611757096, -0.04332519791988296, -0.01605752457773541, 0.003767042040587398, -0.00641894030768243, 0.0004524989116519171, -0.00019046023595563114, 0.0031402060811672843, -0.03313048757126879, 0.0011002017280137616, -0.0169183724912923, -0.01113499848355577, -0.020181820837265857, -0.0016702729475433704, -0.0030994051602129115, -0.004786836345660452, 0.001295231216827757, 0.002471399082917166], [-0.004806834900204679, 0.00431449956249535, -0.022227616853146226, 0.003152077213829927, 0.004793664398780038, -0.00026689533719827577, 0.005246809453094234, 0.004823683307613329, -0.0036637182435629054, -0.009582252611169796, 0.0027195310373663135, -0.0074983208946022405, 0.006778402009038379, -0.0037340158780436805, -0.0038990229795108707, 0.0011860718447820836, -0.023938082935127055, -0.002220320681501239, 0.00637353973921917, -0.0049811526786188035, -0.0010719328759810185, 0.010895726352045214, 0.0022800651466775303, 0.010844248138692976, -0.010615856081810525, -0.004976392524703227, -0.005479147444675486, -0.002037599193377832, 0.0065378002332555935, -0.00619219140487905, 0.007825293614586509, -0.002175614707293311, -0.009332520699496144, 0.006383343547022305, 0.004727425870765849, -0.0009325215916293798, 0.000699146208975374, -0.0060117237787116135, -0.00029375270897149353, 0.0073432216100436515, -0.0013936074958263757, 0.0018355053580903246, 0.011661564758707402, 0.023785150379697344, 0.07612901743148613, 0.03242570293493643, 0.004872967357233404, 0.004626277987538418, -0.002386221318942053, -0.003673988120531808, 0.006788204666778393, 0.005599282922523552, -0.006925292753465779, 0.011751448656623755, 0.014366373543357914, 0.0007762687529614997, -0.005721179805552803, -0.012033255507231177, -0.003244930352375721, -0.00041158480106907766, 0.0008938077646989229, 0.008645380074753968, 0.016460322859659485, 0.04540899704686046, 0.043778812760955924, 0.06070575728942684, 0.0865335214702085, 0.10969974588744649, 0.11288235682613594, 0.12235628786365725, 0.12677792984207187, 0.05441515762484863, 0.06114068826666159, 0.036600335737037845, -0.008564596054128593, -0.03492341309781878, -0.004527130712073177, 0.020866695436396427, 0.0184239740365053, -0.011622208198045148, -0.0021229993238646616, 0.008641347845539432, 0.006328893528810049, 0.001757092695369415, 0.005466105261809769, -0.006513863186688362, -0.010029785078575456, -0.006350905318603858, 0.01317256862058253, 0.026455705145327683, 0.07350265446449196, 0.10125953043119766, 0.10238786797942027, 0.2042641326739542, 0.14638980531922544, 0.1763917203437966, 0.17896690955944847, 0.430229202726496, 0.46876992242046067, 0.37324310339148403, 0.39876948832020187, 0.23275927509165514, 0.07791835871226178, 0.10567782018047249, 0.08735132261044343, 0.10450911704442388, 0.13985352169562293, 0.09539317361574107, 0.09521794336491544, 0.006612317488776169, 0.024497383711012906, 0.00015603903630756222, -0.008466601197794283, -0.002420784176847067, 0.003070371582888128, 0.010209483578764358, -0.008146223948071468, 0.004376525415484833, 0.029594126524151994, -0.04256796663388183, 0.035921512952441295, 0.0822269242953373, 0.09478655031926567, -0.05062866828682826, 0.13524895540928106, 0.023388573923608987, 0.005794406965988246, -0.007157475634894124, -0.27842175372016553, -0.06962967523939279, -0.23841073025083379, 0.027881893696769328, -0.04335292644415529, 0.1204179330136664, 0.2718099941924958, -0.03422354609410022, -0.13106132462868972, -0.06886907774405752, 0.015814230149065148, 0.036698941816439554, -0.0006821620603873051, -0.013116573273758531, -0.012479469457349223, 0.0029596316528495243, -0.021855695907820494, -0.04495004082499995, -0.13598008621133092, -0.12568492903961642, 0.02007720224466909, -0.003345605633191545, 0.40328488823194614, 0.0904016789327801, 0.15755875623943305, 0.10654734324637638, 0.24398585277273513, 0.3679405881184247, 0.0434486847599854, -0.35646014981048024, 0.19855912081352547, 0.38899211502114067, -0.030250705534006665, 0.07620048322613167, -0.0814447924243271, 0.3091559825358058, 0.0373030805078735, -0.03244289570334661, 0.1194259498745899, 0.05732856682007853, 0.004888107068227274, -0.005867301545467784, 0.01361849768663175, -0.020840819850847687, -0.12460391784469288, -0.13966111157465658, -0.2029646851631553, -0.22764262890211337, -0.1261660003281101, -0.01939870142430738, -0.18839144299982558, -0.5693453238308351, -0.03302842586655498, -0.15963416706654265, -0.013314891642015077, 0.13530800400393728, 0.12561061006276797, 0.16598326147954115, 0.2947933952125145, 0.14438950584262356, 0.03192205843149856, 0.3380857271565768, -0.29249821424185274, -0.0340807820603914, 0.1532251752225765, -0.08638253274489754, -0.08012829870388666, -0.008579964953116994, 0.003665701573482466, -0.0179123936832071, 0.05375722790751574, -0.1192776512817897, -0.32966870071178883, -0.050878162217311104, -0.26755987175312285, -0.409547065532304, -0.23769548183229608, -0.009605988964174512, -0.10531114599911545, -0.17523806066075842, -0.2055307857731298, 0.02936123230740862, 0.3306479116327444, 0.11263558446240816, 0.19996173047492063, 0.10950777027597727, -0.18527511875139688, -0.01765722716653869, 0.0011082122479753273, -0.16342211612276594, -0.08232503873960924, 0.058289839970061916, -0.061732727160696534, -0.1936639151928462, -0.16555394388777583, -0.029572142215054886, -0.0032830537405582126, 0.006767634490668962, 0.03412900900991737, -0.11663890616010882, -0.2671378964633202, -0.11908604830304305, -0.3850734371323552, -0.2102951460243472, 0.07370274831731756, 0.12601067654834816, 0.3439607479413456, 0.1140400846082448, 0.030044122908644916, 0.1614302095476797, 0.08830278919261322, 0.019631900877629213, 0.1644500010500334, -0.04634908811888031, -0.46133414743944007, -0.20972957497230252, -0.011749279615750641, -0.07720756228933498, 0.07968051246106592, 0.0677601696502621, -0.30471526442883917, -0.24616225746200457, -0.12260743439998631, -0.036448286117261496, -0.00044132861456772527, -0.0002595837642284331, 0.0040902333346088905, -0.10701815587993659, -0.15286349538516947, 0.06593806085695544, -0.2795298987726045, -0.395338869189438, -0.37959544265111816, -0.03631586478035281, 0.3385360125815546, 0.010919457834435833, 0.034481211587983826, 0.0992945564827612, 0.24897309835960504, 0.3188678258409642, -0.23295525953057405, -0.29803067798607186, -0.024304349450870188, -0.1013821551009827, 0.1278809079130382, -0.36394544939745155, -0.2388162455840976, -0.06510591396151019, -0.35940720253996467, -0.23111040492632948, -0.07895872580986114, -0.0051476439157096855, -0.008561201200104278, 0.0003264770773783511, 0.02176872128943923, -0.16726066060298392, -0.15072845738465565, 0.04106120675369615, -0.1597367685452084, -0.24294554628572754, -0.27542233610182537, -0.1309211555511738, -0.034510841270261945, -0.030248285695248567, -0.07066398706087688, -0.15361053964611557, 0.5034334990928635, -0.16427100442824438, -0.3933793710470728, -0.0590474431904646, 0.01005372279909731, -0.08737724485272007, -0.08853630146376158, -0.047343070135852254, -0.09973182994819985, -0.05487863853714487, 0.047300322220914036, -0.17445464973794061, -0.04925940469289811, 0.006479919737680784, 0.006306722215153142, -0.0006678888998882103, -0.013484858133846579, -0.08342710589706824, -0.17488718508773252, 0.07832603136415978, 0.027199396903095776, -0.3699879681892119, -0.3214594589103123, -0.46208699372266676, -0.18466417289831433, -0.37736115873059917, -0.37695829726199803, -0.14490403456119197, 0.17556062667029199, 0.040089409294539635, 0.02663742841436429, -0.4264357019791048, -0.08913854156781534, -0.05074761348218321, -0.15524319112329363, 0.20463488395121418, -0.17410409990137216, -0.1147887216137278, -0.1801214959182068, -0.19623291996204545, -0.04596265714513554, 0.011124376230873766, -0.006840005136903259, -0.002933093792918635, 0.004421456513205844, -0.02368488450725075, -0.09559260520154574, -0.11382798501538706, -0.12946034123151867, -0.4699920891535285, -0.24918133680233473, -0.35294449447392195, -0.46102121113458977, -0.5522295970885414, -0.576798928043354, -0.3853741456453274, -0.3752209019306746, 0.02278547071916842, 0.23885185199238956, -0.12318747530467562, -0.1031111147245169, -0.30400485552919043, -0.16388944347066356, -0.19287642293390897, -0.27230278660371715, -0.22929864265899794, 0.074044098032988, -0.0676992449428867, -0.06250329865190153, -0.005135041355060858, 0.010389834840773042, 0.01662472443030273, 0.0059711991477906555, -0.026950956295034436, -0.14482482840275498, -0.254063984145087, -0.20510317868635686, -0.4633352010700771, -0.6120312554113754, -0.514346179798223, -0.19173762412817583, -0.4729659614238246, -0.40572315141336834, -0.2935954745971016, -0.318003981038528, -0.24016835567983422, 0.2142040613582645, 0.02925859895509373, -0.045102398999555086, -0.15715792604100795, -0.6206112124762112, -0.20773492476345895, -0.14250256388941593, 0.02119406989091416, 0.16144117337116728, 0.0013980270609474125, 0.004764610809109994, 0.025879818519113747, -0.0066264719690033135, -0.00596854528983427, -0.0023771271744244624, 0.022531706082753008, -0.022882582973685915, -0.0890706682207946, -0.09581301216916074, -0.035299828914726855, -0.5558320008200694, -0.49604691135907564, -0.3589707846737162, -0.12697769529286607, -0.5572432811705277, -0.2869368908181471, -0.32937589153037056, -0.5316986426188669, 0.06150863054842482, -0.26329871506573577, 0.075140453356867, -0.013406649627706685, -0.19373405646216907, 0.031337739589812015, 0.11061838266383725, 0.12214740307700518, -0.0043370410072946786, 0.02546181856405229, 0.02362744021461723, -0.0025790378945932356, 0.00940953478342309, -0.013331011122765773, 0.03198075430977726, 0.13908080658726846, 0.19442349361835987, 0.21823392343798786, 0.39704263249714317, 0.20415210377067203, 0.014772095753785717, -0.19068922148016065, -0.3896600536103503, -0.6906834633544793, -0.6735589598284819, -0.46511751213449176, -0.6552675863633278, -0.3841872003627016, -0.40161668321384236, -0.41253668903426655, 0.055970520740410576, 0.06927009215235419, 0.08077691349076985, -0.10514448962642212, -0.057329366571285616, 0.24860852774739364, 0.04709893720717295, 0.21360491489729286, 0.07907389451411877, 0.011056662230600322, 8.480844521853507e-05, 0.0067112267513506725, -0.01833574573089211, 0.12321005446569853, 0.30308027223762196, 0.31953318665254177, 0.6421437453601744, 0.5833829345438858, 0.19660506249626006, 0.1764799382316247, -0.006823938093598809, -0.08786307191948405, -0.19804317267484922, -0.3489838850473328, -0.6465216171439272, -0.33096743199222384, -0.13475863012055905, 0.037300824233075514, 0.36306045229519973, 0.8278140081965496, 0.6341062123956164, 0.24596443147237518, 0.15881131127233633, 0.29914822985588074, 0.07965024548706093, 0.2558710740559431, 0.09718479200299099, 0.0039381993034300015, -0.020456775090763026, -0.006111908175899628, -0.02151764314039003, 0.09804976503721152, 0.35179185813088315, 0.5445333125477663, 0.6931120676934908, 0.46578839203737976, 0.45936486961670453, 0.3924910101501685, 0.5408730476462635, 0.10692000564012537, -0.06872409097250191, -0.32094385453646795, -0.29181257355327206, -0.12791874375634807, 0.4181798780619459, 0.7797691215343743, 0.7102461180480837, 0.7274006346203644, 0.3140307698328484, 0.002607638253813857, 0.11954972733659361, 0.0561218474673062, -0.007811290718846405, 0.14539040159734348, 0.02786498977064284, 0.007622530009553886, 0.014019631816636154, -0.003996807620647154, -0.0021654469195466312, 0.06677768928181146, 0.421375290552792, 0.43034441255202605, 0.3984093229753089, 0.5585328229657238, 0.858640906690812, 0.8174437855133774, 0.6966800349514269, 0.3094836283979715, 0.014068530188389335, -0.20081467120414304, -0.1427620150784612, 0.386159691508927, 0.4245308570619681, 0.4273011860749864, 0.3051858472387598, 0.49463461051320384, 0.2039805259190815, 0.16997600394339066, 0.14832036977905372, 0.0824139948463098, 0.1464801077722441, 0.058744006864971735, -0.027031459910229625, -0.018146006854382852, -0.010882992303347437, -0.008921192245467738, -0.026307065383908264, -0.07225589541495794, 0.20542784452617352, 0.1929316339478957, 0.2047666772955212, 0.354311254144131, 0.5720171806690438, 0.4814013355678255, 0.35220005215026706, 1.1615480395184774, 0.8763347952311181, 0.5504179647876954, 0.3776302683474153, 0.2080022728850782, 0.20432011052729498, 0.15974025590365964, -0.05112119756455907, 0.277087584596858, 0.2445635030897189, 0.3231515821592815, 0.1857356360467911, 0.06466850197115159, 0.12569624384369213, -0.05014199044016864, -0.011008392960916857, -0.017086697698997365, -0.007209516948452447, 0.0011746764915916657, -0.03712546997243, -0.1294600828929771, -0.0489107056258128, 0.17875327453828002, 0.26986319643318324, 0.19604442851537335, 0.2679083409293988, -0.0160589819316994, 0.0629325434132685, 0.0018645270035568481, 0.46925747884424707, 0.3141603055450584, 0.22587283862292887, -0.07361031778711609, 0.06920439775185486, 0.006146319776849551, 0.029475996414084764, 0.208025701519612, 0.18630397612760924, -0.028367107425989732, -0.3565824038342861, -0.13353153402538231, 0.13631265254030933, -0.05043447082326816, -0.004275489088581816, -0.003307565931125581, 0.009426615800833317, 0.0021834644580892605, -0.0307987066350182, -0.09173545501817436, -0.09952318188168131, -0.037754115414136764, -0.14385675081613522, -0.1532670238345207, 0.09300894028505981, -0.08504970490091553, -0.04591982388874649, -0.18788895630267488, 0.313806263197745, 0.4067551872797783, 0.1934578156695422, 0.06127476442608992, 0.015243672167587421, 0.29910676853152396, 0.22503283464777582, 0.5235353004574618, 0.31466332865650437, -0.050549172392285596, -0.09554124010567937, 0.34099395576535824, 0.18383441423613536, 0.03871358843171713, -0.008094924253535056, -0.005282794144816202, 0.0028211289228564475, 0.004960430210511036, -0.022444306232574696, -0.053355781538118645, -0.3167987444506019, 0.02754279311433248, -0.42050878017627596, -0.40865976564957324, -0.18002040675960682, -0.10706854676131812, 0.1551591499569139, -0.2087401769271126, 0.03551858727388051, 0.03564931467466856, 0.18905606798054977, 0.10761915795255637, 0.6449537417214956, 0.11929807535549218, -0.17235542951321797, -0.14986352935358882, 0.21672257324440494, 0.11960111415826631, -0.032158521890262776, 0.24800025949568044, 0.16766800661335995, 0.021924049236073533, -0.007489033544885279, -0.0006010853427505881, 0.007749552970218642, -0.011204336737158926, -0.0005002457539443515, -0.05326908673322683, -0.19377476050023681, -0.1377013205143195, -0.13172111137646522, -0.28112640913803505, 0.048068631681243826, 0.07570935936638354, -0.03570916112784281, -0.17335153728578293, -0.05606755093122182, -0.15512842451526657, -0.03468137293945535, 0.15372805055014713, -0.10978116992173426, -0.20675739890284522, 0.07901778495118333, 0.4289176604574999, 0.47205354928649834, 0.39174430889202494, 0.19863121820692645, 0.10314914073878285, 0.12755918775287484, 0.049010190457539994, 0.008717265468751519, -0.01011618540118702, 0.003860018901173019, 0.0026957815120669287, -0.03717581558924577, -0.06150625173712278, -0.09556551192428203, -0.028819636255799454, -0.13072080652716642, -0.1876370580727104, -0.005432682454794102, 0.005202534037905222, -0.2673113811546506, -0.07319709338317099, 0.3508830303859901, 0.12614497446629336, 0.14214143328352466, 0.5125064184513801, 0.35619680873304327, 0.33397743275813185, 0.5021099988936158, 0.2661534021906647, 0.22010147954984324, 0.2551621188999361, 0.15702685140369255, 0.06879772396506416, 0.10228849804384028, 0.054418166824948815, -0.003612220438444048, 0.006940351028684394, 0.007220543521921227, 0.002323467807361758, -0.0051424141734086725, -0.008422603081481822, -0.02488347606909625, -0.05632370826668823, -0.131000067757105, -0.17243959482303128, -0.07449746696602326, -0.19515835456009736, -0.2859605754366405, -0.2454956587430131, -0.06847709337380514, -0.19176488889000542, -0.007304017475428717, 0.2981056676206697, 0.13052407126740045, -0.021584376061511455, 0.08331338263820615, -0.15571273128647514, -0.21349578763086466, -0.12977902611888267, -0.04382412369232538, -0.004543230165337986, 0.00485735281548202, 0.008322016633145779, 0.012538275952914523, -0.00498841676808987, 0.000820691969184567, -0.0035322691225168645, 0.005428278270964023, -0.0020107313438022622, -0.0015963430348829716, -0.042763045371695445, -0.045253690984291293, -0.014674110434272185, -0.0066015968317556075, -0.024109119279099166, 0.006883908904259609, 0.011667672420265385, 0.003304061777009966, 0.022294909506547084, -0.008644182298654018, -0.07111503656607308, -0.08185078294268679, -0.07054908708915321, 0.04324847099455135, 0.03679382253721721, -0.04566520142144864, -0.035708500392033674, -0.015598039867202504, 0.0037323659374042125, 0.0029054820041646986, 0.0008857423652807115, -0.008020304120171174, -0.0095295020438075, 0.0060374553578882596, -0.017552933269374814, 0.002320703967097416, 0.008641485846428985, -0.00838952601179197, 0.003063440533737409, 0.00472524061473324, 0.002476259065642372, 0.0008668590768811555, -0.01761810853073371, -0.004076675693877117, 0.020447778147537878, -0.013213511571135858, -0.00025387088610194107, 0.005902729263219509, 0.005959309103286377, -0.003757532924226602, -0.0024657800897649987, -0.006572835150875667, 0.00986476580778995, -0.0038343041008288676, -0.010484030217117857, -0.026220710120307227, 0.00012382874915521668, 0.013041940537021105, -0.010691614198094872, -0.0176542565595535, 0.003719924899818843], [0.0016265466539622947, 0.004511594863036108, -0.0029048334394691797, -0.006447048860691572, -0.008183067632209322, 0.0006588324556309782, -0.01949562033559438, 0.0008296404538633628, -0.00959042254105652, 0.0018011892600162005, -0.010412809264925844, 0.006956865726129264, -0.007426015265113987, -0.0013943593874286443, 0.013688726749192002, 0.003513378625962583, 0.0007209631896695732, 0.005240235132196141, -0.0004966051522531433, 0.0007476289900625592, 0.010538745131692034, -0.012005001805983408, 0.0026819170188345, -0.013056051149508467, 0.00788482364384493, 0.007965633778314168, -0.0037465965031403376, 0.012093797576058534, 0.004733466454156788, -0.0007580269548673347, 0.006626526762785719, 0.0011194688917715472, -0.0033300544947295237, -0.0024011934186248603, -0.008170048549958763, 0.001425531502504321, 0.010142076348680371, 0.011078720935622205, -0.004384927105132802, 0.008959810861557435, -0.009615852933286586, 0.00823879547153103, 0.0015793756117688446, 0.05180362402630508, 0.10451000727503629, 0.04352752341243585, 0.006883594615176663, 0.009914444687231207, 0.015096098462949703, 0.009389974469631003, 0.008795483571610365, 0.0033285783207687523, 0.014377208196141572, 0.007761556989518059, 0.0068574555128756605, 0.005209343922549691, -0.0056447948862754106, 0.005777121486536759, 0.005423793809847235, 0.00871056768043967, 0.013688097152891236, 0.005825068585423753, 0.024656129078534973, 0.06727532344794498, 0.09807680426692897, 0.10216722621395669, 0.11608937038317806, 0.11552530270644874, 0.08935543455995786, 0.060759076272928994, 0.03518787120531204, 0.04024092648873628, 0.1460343154713842, 0.09416388153823128, 0.049740625243139984, 0.05507114655725775, 0.14072220047086773, 0.09482212821953964, 0.0035139519496751705, 0.023944631080610627, -0.0004575653808377942, 0.0031932350695044417, 0.004300663208702649, -0.0019825008740677686, 0.009107848776261898, -0.0030718391780442983, 0.014155055161915535, 0.018634454793428276, 0.02880876674649732, 0.022704769850176647, 0.14793909276663672, 0.143205049948356, 0.2078030908476643, 0.17055045814327857, 0.19255156908925883, 0.20417188397603575, 0.2960607504093683, 0.4851808895177466, 0.1450293829596888, -0.1401992700036657, 0.04643517645407702, -0.10916092311290758, -0.263250210193997, 0.14014886340899652, 0.22815225793722144, 0.24591835986247898, -0.020086237711295096, -0.08826057437299664, -0.05122522368752479, -0.0005874560013265504, 0.0029493157591918705, -0.0035492623703396774, -0.009480295436191508, -0.02295257451230915, -0.00631527988591622, 0.003658651417001241, 0.034369401499061904, 0.009790616146814219, 0.03345039227218396, 0.18214569673197126, 0.25787420805806793, 0.2186582828640376, 0.6978240458979093, 0.2586444721692593, -0.08956535805067448, -0.329703098010961, -0.2371944268568672, -0.6044940177213901, -0.2491364533121798, 0.13330989368327495, -0.21330454586299627, -0.07085566912421906, -0.0231799260044124, -0.1528827145963465, -0.2898468651593662, -0.2919388254649397, -0.21603682841416968, -0.03627720925884413, 0.012831099834056732, 0.011142161870452012, -0.011563074278858792, -0.009266867023678165, 0.006045375938342663, -0.011047513891256784, 0.035584845394571706, -0.13496798505837082, 0.0071863475102322254, 0.135445555907956, 0.12435655531755117, 0.02438774878591374, 0.15980424739303742, 0.08820717121501137, -0.014420074246755371, 0.13365058949106998, -0.34056231635570133, -0.4452632702239254, -0.027255438088360236, 0.1448875198467991, -0.009442737836781206, 0.07115377634191535, -0.030797787992556454, -0.07528954428398577, -0.31534060173450995, -0.3020241816196443, -0.1983193004546519, -0.063730559221268, -0.009128942615957062, 0.009799882972323787, 0.0015757035753615996, -0.011203406320918525, 0.006503343852211115, 0.0016037135973455228, 0.08298031255594614, -0.10227141430786088, -0.040264394753278206, 0.13872366290986385, -0.16113694032024126, -0.027138052296929414, -0.2802688311201652, 0.26530105127271353, -0.324608334953729, 0.09337562357979984, -0.17124961390239157, 0.087037115494063, 0.13942211166853793, -0.13243514377348228, -0.05261726353075521, -0.2610544854039727, -0.45930814597630765, -0.2161213175908047, -0.2352844516385423, -0.3945149061679286, -0.2915499083015675, -0.09793465192486568, -0.045936624799571515, -0.017832543019492157, 0.004013027732737205, 0.01494040720832934, 0.015870168695063535, -0.04963631820479672, 0.09526417847064653, -0.2314434674571347, -0.23059406993943285, -0.052260750539656516, -0.10672590209062777, -0.1779586900312254, -0.05621128951762824, 0.1426387169479105, -0.08860871711109337, -0.14865920032346516, 0.014575317192103622, -0.012739635002811632, -0.06602928180453799, 0.003108657310168735, -0.24489201642908043, -0.4177984522493398, -0.3746212290862114, -0.23488349619497692, -0.23818981301594494, -0.561975294510489, -0.3046387763081171, 0.003440331161548235, -0.04439655607492525, -0.010814897701979643, -0.0063036333736845845, 0.003447838627538, 0.0037109812422369986, -0.08645975284604386, -0.03594422742433718, -0.30041747461064433, -0.3906731422122449, -0.1920823816590222, -0.09935758176006743, -0.3748802020092386, 0.3088805491027575, -0.07850666258827335, 0.003217324223120455, 0.20295837371187497, -0.0018238849617087704, -0.0700989628276684, -0.22218670820770273, -0.34382708643508814, -0.21339666285493403, 0.1591886622590581, 0.16114806870598142, -0.040793561762206984, -0.2423511593820031, -0.28048520031778623, -0.24442873929926676, 0.013519128994551018, -0.06917614525919039, -0.005843466945507045, -0.0001494156807002571, -0.005330481956188566, 0.010595500129067924, -0.049026297233798526, -0.03372496011594439, -0.2890412242297155, -0.3612009175294532, -0.23011883849506787, -0.35757718741286143, -0.24012871060814253, 0.03500032217076522, -0.08661395179910825, -0.03546792366698487, 0.2621280048872094, 0.1480997347359917, 0.021595751863284177, -0.33983764842468744, -0.3700114946176042, -0.04651707009057482, -0.10547832721318996, 0.06635093181314597, 0.0029591644777186743, 0.018099879935863532, -0.4744384945199451, -0.18349938314747968, -0.23369438125529482, -0.02130891750167024, 0.0016334998371125126, 0.0008097033198165183, -0.002066363037296897, -0.04529672317414609, -0.07737885185458142, -0.01680650284138306, 0.15888069358239082, 0.0012479466459511916, 0.11746311128222563, 0.008717581202598752, 0.08625050966389386, 0.1882258742563275, 0.2873169859179612, -0.17317409646090767, 0.03385216912115761, 0.13996174286617244, 0.14744475850146846, -0.17004386173627797, 0.09172807770827059, -0.19444505582943156, -0.3605713193138474, -0.19381023658101987, -0.021789363704161884, -0.2536920200795578, -0.2410133660085052, -0.01451794536164221, -0.18541000949764092, 0.04181640990163617, -0.012166142839901485, -0.002896886407655242, -0.002316927873543451, -0.07489613398530362, -0.04784731358698269, -0.05993508208895, -0.03747027443857967, -0.16660821397367911, 0.030947869531433282, -0.017596593520305594, -0.14618139064032207, -0.19183185942883274, 0.14400520664914998, -0.04154374624441672, -0.12841513172259866, -0.14489651548259147, -0.3154136339865784, -0.0774690190191493, -0.04797861495058274, -0.008456163642605074, -0.01270620493889588, 0.09736651823779811, 0.2646876275121558, -0.011515327337365433, -0.052906305423701915, -0.027220691364560293, 0.0024668199404944305, 0.02126101391550364, -0.015948134502548797, -0.007273426066910281, 0.006674961024782872, -0.05264490103198472, -0.046722324575530806, 0.01831165953860024, -0.004238574215639838, -0.15281893411213632, -0.23854739511080567, -0.3657807827815388, -0.6970840759084609, -0.23907465418698606, -0.04295677039216916, 0.0007469475238700655, -0.08373583761204954, 0.016058266505203773, -0.2554727556928131, 0.09588001210646288, 0.09505238350294064, 0.1899651697263766, 0.23901350225423787, 0.24414549911024164, 0.28587830547941173, 0.12507800223979437, 0.30366675463582027, -0.02291843190820148, 0.1299514106135102, -0.021361487538267075, -0.00870832993082381, 0.002535012808103062, -0.015591614785388256, -0.0243371074999695, -0.041354194213524, -0.1591095159690009, -0.06610001911629383, -0.20253206655366582, -0.11951432540737607, -0.1903411626775213, -0.34623658678897656, -0.1169561976988391, 0.15748626697366142, 0.12474685599384276, 0.3008378427862783, -0.0593514037850771, 0.01253643931028559, 0.13424918604715136, -0.20990820322697737, 0.2254199610528139, 0.04786354945769241, -0.0744254807688229, 0.23936651016222818, 0.1276178538974465, 0.4196728747782519, 0.10401390084502422, 0.058358589375262816, 0.17017163138941352, 0.13857749626702834, 0.0066107329208668795, -0.010477269118466337, -0.02354289955479463, 0.007494990942414351, -0.20822303873270817, -0.06533672187303786, 0.02635868976176205, 0.09698084364837387, 0.076184354511608, 0.2340679110876426, -0.08691246597408196, -0.16031151836141957, -0.11420466635387831, 0.3239937616180587, 0.4944585235506355, 0.4221782231934004, -0.07604191796463534, -0.4275259313029424, 0.24403714115450115, -0.010127521962873752, -0.08041151927292955, 0.02645562452362598, 0.19016627475290745, 0.23747956629745487, 0.1336213507179246, 0.13039609634066981, 0.15744056778251722, 0.027470905861477147, 0.012317424592624788, -0.005473740974270094, -0.01632357692679318, 0.1046150788515921, 0.0960747777696309, 0.2074127864622019, 0.0086064192204686, -0.1148064035113889, 0.05626105757856104, 0.14813894246517945, -0.008079587190250488, -0.08500012293840416, -0.1964900691191124, 0.6229630397672122, 0.32226912900704957, 0.019994429925189672, 0.014544637891200725, -0.1171464548253308, -0.10072122847564623, 0.2512686692838892, 0.10251241177712596, -0.035354872511077294, 0.019426939721741747, 0.03376032947708026, 0.3420871185174621, 0.39445918948202635, 0.07372286802923124, 0.04709328897308866, 0.007137793467829628, -0.005269583613005285, -0.02419775217021481, 0.1821090666015038, 0.2440968849076781, 0.03400886046254894, 0.08109556613594829, -0.11543763546566208, -0.34269204222990485, 0.06940324997957767, 0.2060053051371593, -0.01308539938286857, -0.6243563506890973, -0.24338125701748836, 0.4802910801519374, 0.3223484330537864, 0.48757350471797756, 0.4879166096355832, 0.05957969800323477, 0.03547723741030739, -0.272855281200766, 0.13886740524752897, 0.075985152810917, 0.03401465105401112, 0.2702877612932639, 0.4671899866963757, 0.22587658368795477, 0.0008403763774945395, 0.0007875922653965521, -0.003371156783126431, -0.02874010241089241, 0.17179949875341666, 0.30945582229516466, 0.02360944798783071, 0.1406777218674788, -0.1476983167847684, -0.1859440664550412, -0.07460306952012752, 0.030571360734137732, 0.05101209836809804, -0.3069714533255012, -0.08280768508862908, 0.3770602076513807, 0.36752506317920763, 0.24765923496910255, 0.3148847080880622, 0.09307532469818, -0.1988502847442327, -0.18110500545805702, 0.15268543273477436, -0.21293297986012621, -0.1359292868901778, -0.05132058923416723, 0.42856011391000387, 0.03963026275093499, -0.049612121869087915, -0.00714782373738965, 0.014722448720636723, -0.0030892828262007173, 0.08629497762095993, 0.3947902822089441, 0.20122242102563762, 0.008689819891253671, 0.016978556635468114, 0.08212409566133524, -0.13083046199781753, 0.11083149469107377, 0.0159689960696512, -0.17820276206677696, -0.36452196154802424, 0.34674625904796313, 0.4177895801168723, 0.2866281276481643, 0.3978217376497129, 0.2637532207253351, 0.1650735222920717, -0.19196641585132504, 0.08257294162912669, -0.014068001032378269, 0.31383930114569175, 0.5265611591804974, 0.45194277323682663, -0.01760571819888391, 0.003561329447809914, 0.009669142635255312, 0.011641380451853126, -0.02410009672381301, -0.030638478517435824, 0.32020431170124075, 0.17836105755227025, 0.015201994317920272, -0.1783484961847079, -0.20858757091379593, 0.12581286631987443, 0.19163649874183442, 0.3095596746304426, -0.15321011149518615, -0.4078450869047352, 0.3254575699749247, 0.6010017251743266, 0.35983107373724554, 0.36149730678818315, 0.1870047973171021, -0.04951244640400132, 0.06361277989275835, -0.2068825028650604, 0.08536115515741109, 0.11550875633734733, 0.26202847799697626, 0.2169029418002555, 0.09668730743403531, 0.0025352369159310447, 0.00042777136718557033, 0.006560074269845651, 0.03036751020371842, 0.07798739119080217, 0.19960945447085618, 0.4024128802137956, 0.06624358584114241, -0.1530233894335058, 0.04488702390293917, -0.12725817957428484, 0.29210430076944316, 0.5315958921490893, 0.318951886215671, 0.16498683972218142, -0.16049442542890688, -0.03645661978766568, -0.046031601929766665, -0.10331572813481348, 0.24237743275561513, -0.19199699198586395, 0.019057434935699943, -0.10395623860755343, -0.06266816379264832, -0.22488971490062826, -0.10701328569802394, -0.03704718858035006, 0.03193450012510407, 0.007361167824163653, -0.0014908564626746393, 0.029793012974024043, 0.07210562835312061, 0.13385796862301205, 0.07006023749889242, -0.08833845465602956, -0.11739106034324064, -0.43393846485371157, -0.43704970433775175, -0.11432632353153692, 0.3222492185529495, -0.12182623116219556, -0.14358862239704248, -0.3405208305679943, -0.5637538058292036, -0.4612354421003284, -0.3589653859162531, -0.4089137434290346, -0.37993213115155167, -0.49745134363422433, -0.26992557483898244, -0.20278252777008476, -0.4101552270216259, -0.18942481321769478, -0.11491290833579405, -0.00027212264690150336, 0.05445449967160924, -0.011627892259914738, 0.0006455235636500063, -0.0011532097744901082, -0.0027428563652479704, 0.048776052440872006, 0.04508298657283476, 0.0673407232667386, -0.28506877375825296, -0.45104768538932555, -0.5233631463729301, -0.4350584659068205, -0.1803361344333237, -0.6879755636105332, -0.45070757467557837, -0.4456346276308654, -0.6031115247836409, -0.48760838480230784, -0.9350902888075578, -0.9077750861609326, -0.4616861926062996, -0.5878269325746874, -0.20313925534097474, -0.3014837169944036, -0.48072305238281626, -0.2946912525970136, -0.1978406370459327, 0.011474778860417105, 0.007763375350319663, 0.007672753715331527, 0.002384551531624882, 0.008109578202974942, 0.004990645268141479, -0.011653580134881873, -0.09596382741560702, -0.08460328215574493, -0.21914929788148516, -0.4159327866596172, -0.55889641944244, -0.7169074787954435, -0.5542540154772392, -0.534756059133296, -0.6536134705908306, -0.8961736580018349, -0.8604335592191701, -0.7445097417789005, -0.6202140716624756, -0.8412991419244746, -0.6007537443879697, -0.38362551338543494, -0.18256188996872544, 0.03408118143123309, -0.20899698474387496, -0.24628353898479272, -0.087956831314955, 0.007321012311792496, 0.005690509879471681, 0.009553410340215498, -0.0063834687548003375, 0.00988365516857165, -0.02281780060240252, -0.04778568161411718, -0.12259196044741176, -0.19663577121739467, -0.2618975456019227, -0.40915805383576553, -0.45697046929421603, -0.5300669250925726, -0.581519685353373, -0.5925279724163739, -0.4926835711956489, -0.6349094650796555, -0.6133856238535751, -0.33743268550990047, -0.19427089502069295, -0.2195039977381483, -0.3437315113865357, -0.24772895363839958, -0.14885753961468184, 0.09015002432017948, -0.07091491045466292, -0.1439429422124988, -0.0047411558283964985, 0.02696793393450984, 0.02007876655497918, 0.0097769037874562, -0.005235874040554023, -0.011724960608279192, 0.001612329685041329, -0.02889823872108047, -0.046788874462070265, -0.06941160321122743, -0.07957702273321947, -0.11973234381004111, -0.20629789107753008, -0.21192737741361745, -0.11071854961712212, -0.17512491035013747, -0.19341742206025841, -0.2969513160367706, -0.24486856335931143, -0.13901737339612286, -0.04209703795330119, -0.11618036420306593, -0.16758396073420612, -0.16249251930744424, -0.19283998656286866, -0.0676128420058462, -0.05834365669772379, -0.0062479691120477755, 0.034069684469934386, 0.017557796049762864, 0.024169179526938957, 0.014181662361584543, 0.005250148584940917, -0.01159505673303098, -0.0036192482007751134, -0.010121008128908917, -0.009528695541703616, -0.07135489925582324, -0.08209061493860258, -0.044275389206150415, -0.02768350728348078, -0.08697930236345897, -0.026228534000576592, -0.013995922521046722, -0.020844319959565403, 0.028266614680212635, 0.045079026540064106, 0.06376338277315488, 0.055748803503562205, 0.013542323726969195, 0.011939830929519788, 0.02214926716598394, -0.04731349176008433, -0.04986278254737931, -0.03942425306173109, -0.006021024158803507, -0.0012679893298088542, 0.001782967247396437, -0.004750951397600874, 0.012522079363270442, -0.009402138177018068, 0.004652757417927424, -0.008877733252543766, 0.005338311752278329, 0.00951241259706076, -0.00042684063696558325, 0.014103187418231938, -0.009187065930971789, 0.006582540243426797, -0.0017038676266789834, -0.009846356649935053, -0.009954642900750106, -0.00946440341881112, -0.003576143997667656, 0.005336950100898693, -0.0019195799727969231, 0.012170898777030264, 0.005139072370758865, -0.0018950488106244715, -0.002341465497281986, 0.020400971228113317, 0.006128884354240104, -0.0057284319502385736, 0.004627192956302963, 0.022868297854523136, -0.005931348985184002, -0.002976838366981609, 0.0042433816688200975], [0.016357750284468786, -0.010175044889836204, 0.004740504350422873, 0.009836126492627327, -0.0007343175837420561, -0.00973524860165011, 0.009633439753906181, -0.012137422921141817, -0.007465532010766957, 0.0017143480716903517, 0.0012828212967763446, 0.004146848123277867, -0.004067695699181866, -0.003260998570023174, -0.0002143168957546066, -0.0012602846850581046, -0.003089906794508903, 0.004073292912713004, -0.0014723024280707262, 0.005735411849039097, 0.0007440635527689997, 0.003357258159376806, 0.009047021992553741, 0.002825934997847835, 0.016696277022822475, -0.009562505385631363, -0.006222522908377942, 0.018589203621286333, -0.003085391393200312, -0.004587287161574974, -0.005802575796652484, 0.005328330289312031, 0.0008372172001089964, 0.013425669966580898, 0.004421909375271035, -0.00390135680963379, -0.011452299787863815, -0.006028370778709181, -0.0033966679733783145, -0.0013653176677918696, -0.009421503886449589, -0.027505944709280437, -0.0019163576879272105, -0.000819401834460164, -0.01768292145215402, -0.009091678554775339, -0.005413205824672272, -0.003590712014973428, -0.004362402516414871, -0.003753212095896897, -0.016287634518381965, 0.0073986833449451025, -0.013147341936137605, -0.009867997460717185, -0.0021404732587234324, 0.0013232467631279729, -0.00251599920752269, 0.005896710003923587, -0.0019001793269481037, 0.008191482484673461, -0.013314661351272261, -0.012932849326311505, -0.005917838706035524, -0.042121611652217526, -0.01921229228584134, -0.04874687851592724, -0.07428448600673963, -0.10824176998841992, -0.11423853522061325, -0.12712341682817832, -0.0922012359255246, -0.10439040827798082, -0.1900289249146452, -0.20026141933201352, -0.14686443813652322, -0.11188135011834437, -0.08229282343263765, -0.050960029330230174, -0.03648197601932002, -0.02254236857795608, -0.0057300846303688984, -0.014253067604827864, -0.017424687586332387, 0.006764374161200841, 0.001208796824404595, -0.005346275001241791, -0.009736218130865601, -0.014928755758995771, -0.001978589362287107, -0.011508188656691782, -0.019352572253904878, -0.07489010384881907, -0.2849892820235837, -0.27094339136794515, -0.17981568026133574, -0.2262244005115773, -0.33297902276638, -0.38356096194418854, -0.48498339263514595, -0.5174299218741024, -0.5031040772385765, -0.39335416668792084, -0.2634157903863457, -0.2294814644126954, -0.11799240431142936, -0.037822314243937685, -0.022246633280126323, -0.02326388676417479, -0.015084715879283679, -0.010723896489691253, -0.0057211940346470905, 0.005289012094406275, -0.010154635621002675, 0.005202156653929386, -0.004772739417344051, 0.009639045080565567, -0.018699176596387677, -0.04572410456889448, -0.023603006064077354, -0.1552838715700872, -0.2692088799450495, -0.3367331438843508, -0.3755313840683718, -0.32028127946468427, -0.30646734498134115, -0.384458605070358, -0.41552362424219647, -0.4564635034321498, -0.39908787975877397, -0.4141436459289782, -0.2668912354540517, -0.32051180073558105, -0.07659188318377337, 0.2624488309422037, 0.2693255807331611, -0.008091179036535135, -0.057242439400868, -0.06948933960503227, -0.03730568738095225, -0.00506369647034399, -0.014593133148281512, -0.0018774449644571403, -0.006958143573577587, -0.016754096015759036, 0.002039584386082281, 0.11969995702582534, 0.3201415312145563, -0.1970266847580129, -0.19146887546931735, -0.006893519241611923, -0.027192581159093256, -0.3558945027461959, -0.38359858417524584, -0.005100168950651623, -0.2306686579603607, -0.13225277116192602, -0.254791982175621, -0.09661368068644619, -0.195957067899586, -0.3912648055743626, -0.30654852142259215, -0.17778457547904314, -0.016684339429444243, -0.13120653226567963, -0.05650186218872846, -0.05824546703567535, -0.010791375583728216, -0.0010944200198089594, -0.0010955089791484574, -0.0271607854991017, -0.0019875966633526427, 0.0032792986422661677, -0.051543065919359275, 0.07877392890847043, 0.5336704256817812, 0.28881189186669326, 0.2384711999281686, 0.07503770558070853, -0.17025795188672702, 0.015684771551523577, 0.19942389032171798, -0.31203169973499667, -0.3339764647369929, -0.026112786239632244, 0.1581231185688475, 0.3752874901193705, 0.018563483792858264, -0.23994048377572091, -0.1859214783935618, 0.03764435879310794, -0.18257453244786154, -0.23538343721169402, -0.21526249256646846, -0.1626493057318979, -0.020966267418988414, -0.002806151562382936, 0.0026713571771963857, 0.016043834444788872, 0.02586879964869599, 0.15073211125558478, -0.029615930081517222, -0.3652024817681843, 0.1962110730062823, 0.12580853210903536, -0.3024488690378947, -0.058842712757485316, -0.008046776814917242, -0.018699139143586892, -0.37401954564607764, -0.15906192394983104, -0.18031570803184988, 0.3043123726098306, 0.19738003658626557, 0.06907395090108495, -0.09990517118733132, 0.15258753825071586, 0.0052839744587695305, -0.15010078829325535, -0.06550707533429223, 0.029411073082579797, -0.2187228043671184, -0.22269801451693857, 0.015093978507617066, 0.0024730719634536635, -0.011699709056507392, 0.015321612425641114, 0.08848533952621869, 0.12311510970033065, -0.05599772997825508, -0.17307518423773632, 0.09651521332050474, -0.05797669322661684, 0.14541846826806415, 0.029912224943065238, -0.1908435370417554, 0.059976663391504426, -0.042938955880712504, -0.045892081787061674, 0.04667048091672277, 0.19273609890994392, -0.39406905868882514, -0.014107679140755978, 0.29331158330680485, -0.24516226570898567, 0.09577263546114885, 0.006712153937513464, -0.2657112991410309, 0.0026115085798624716, 0.10552910301990676, -0.02739242250829741, -0.016252275809617703, -0.013126669502678314, -0.0009038747127509226, 0.006031319969081128, -0.015390086805058016, 0.16781206168004278, -0.024229284446106964, 0.07125874308712904, -0.09492262272886373, -0.2582415970132367, -0.05050432267280344, 0.09600395718712883, 0.026470659621707984, -0.04469706722423572, 0.1795916285579444, 0.018914407034930008, 0.0637323360860027, -0.10388479750669077, 0.0035500608984066306, 0.0517524597221921, 0.33235325226685114, 0.16549126703861228, -0.09212630137787219, 0.17881152686732854, -0.16683909573020161, -0.2824670169597526, -0.09122161784700725, -0.08837515341239004, -0.002127387681775326, 0.04644075186460748, -0.004768541958342589, 0.023441759063316723, -0.07539166324314533, 0.09078202251714447, -0.05204305492169212, 0.13488953814865287, -0.09823290918601418, -0.13636116547704358, -0.5134870356469183, 0.17557887353137178, -0.18367913514367545, 0.009024114056297468, 0.48986312452169634, 0.29936466797239175, -0.2784522225079943, -0.2153615684830431, 0.3758885763982923, 0.07512636521067184, -0.06454126820118325, 0.31091810804007075, 0.1086081089145368, -0.25392331108315663, -0.05597364752345681, -0.24818109760540624, -0.24881469725014338, 0.07630150594347815, -0.03286674577858008, 0.023706536221801217, -0.0024817642340192875, -0.005834910737512847, 0.0834262720054493, 0.12656799177282876, -0.018460923590631183, 0.06427617883808084, 0.461884192475042, 0.2585467372373589, -0.1823661472065398, 0.26072307735774486, 0.18522802488224577, 0.399542963584966, 0.033111325929259916, 0.04401389407719726, 0.14940504536569693, 0.0831050394223317, 0.019689699233012364, 0.3985260311723414, -0.03106687009058335, 0.09363762467155325, 0.1764804004232419, 0.2538375631746189, 0.06745897599661371, 0.08724424618194473, -0.2809128172902874, -0.14127238179932194, -0.09311435291659728, 0.01050054049408738, 0.007397631389013234, 0.012125119552631064, 0.08105135088579417, -0.09840246747652491, 0.044579693276854175, 0.26463959959412087, 0.07065536084491049, 0.17646870758966998, 0.1570007388468914, -0.13800666939855824, 0.1871630376555296, -0.0053900799612647265, -0.2415040152281778, -0.4412725050114611, -0.27147670665493057, 0.1179437749528453, 0.10890723862741633, 0.24918378173597966, 0.1739654755938919, 0.03681744110841469, 0.29614120101396835, 0.13735063690361535, -0.12245021191079168, -0.1746230862200445, -0.3068678443435892, -0.13640103976511236, 0.0438800124454194, 0.03530618453667115, -0.011083088979638698, 0.005672403365009423, 0.06234041089010191, -0.09414786882302469, 0.28183463250024277, 0.2752493194150765, 0.11272536978503024, 0.1256731933286803, -0.2370995611889189, -0.2424830341882601, 0.31051122671109216, -0.33978724743635186, -0.28325822642130666, -0.7538160706728676, -0.014021558515156046, 0.09266211230055989, 0.5022044727835073, 0.5261974689976026, 0.06287530116400523, 0.2768826912066654, 0.23955215116719253, 0.15624839700717222, -0.04194135140420025, -0.16509831841467848, -0.08374050516550983, -0.1461338148455299, -0.04754122727530331, -0.02498053192520968, 0.005614858144084236, -0.01852948206864624, 0.03790403516370353, 0.05434227007303148, 0.19099866922667103, 0.08620672999485621, -0.0935754785915896, 0.056143300586820453, 0.13046331407466935, -0.0072377815093212965, 0.002355864809553412, -0.26221627464544367, -0.4003180247920504, -0.3427791046293283, 0.013774422587503655, 0.25509653672064203, 0.20701461551236128, 0.12764071449140907, 0.4039256551774014, 0.6018706635834098, 0.5631854219741737, 0.2473422306700037, 0.4119321081221185, 0.27229031245356894, -0.013060085413404853, -0.02762349684150989, 0.0024616219281394175, -0.013237340661970002, 0.0065302128487939775, -0.00017995560282486547, 0.006774238673843797, 0.14431297522517755, 0.2227001650456348, -0.15961489619455063, -0.4891804626250489, -0.023990034867036353, 0.012489528000390682, -0.14852045746599352, 0.16135385732051927, -0.01410309061730443, -0.15476155920349063, 0.06328772911770432, 0.1440136152544262, 0.15867164869835884, 0.0605193949245037, 0.35669582290738866, 0.3512776227503454, 0.5414679877135644, 0.5764992573320484, 0.44155582967693574, 0.744212661791657, 0.06924411330883462, -0.2287324849934333, -0.11824307051239, 0.07740734749226098, -0.0037478731629691548, -0.0014617393824660982, -0.014422909758513723, -0.0027830575492820402, 0.05519362943153479, 0.4294315807926587, 0.033743726038933095, 0.0863792453425526, 0.38316003227069495, 0.3587007601182746, -0.09925267378552868, 0.2109672590985229, 0.3136926654718578, -0.1515602291684302, -0.2961384630217092, -0.17027008560918053, -0.0023849106906508118, -0.07229905494383099, 0.34871221517025525, 0.35186071188965, 0.21363769677737673, 0.3581521165612063, 0.26148937283688356, 0.16236209987517441, -0.4498368041166909, -0.4592102925299356, -0.1551938237069951, -0.08205249938959379, 0.003992341661657651, 0.017410712051473914, -0.00582083774511474, 0.0029816551831025858, -0.1245350635110029, 0.23605562453846135, 0.028627708408832164, 0.06229424842433743, 0.15242246238015042, 0.2517474729816129, -0.07351096501895958, -0.16770192331601835, 0.33962248102173676, 0.10501827851947408, -0.3238153117170076, 0.029813669977518692, 0.7079738496355639, 0.573431142421967, 0.43602694607180537, 0.5782837651706549, -0.06859161082495648, -0.2099065205438098, 0.07686854721287473, -0.053983673580785096, -0.5194672380500426, -0.36407425832177914, -0.07594689657871435, -0.056539095382275736, 0.005234208097243507, -0.01337518353335609, -0.002004697521274506, 0.014820551004216304, -0.11970850574174763, 0.07662025367987396, 0.002709360199251377, -0.12720826046459618, 0.21142937549864108, 0.2598209501242789, 0.10960280885348431, 0.12712090871571197, 0.20325912343477712, 0.25708265896376115, 0.40848952044194164, 0.7715625509876803, 0.6171540797363285, 0.29368749686898427, 0.36115502836341556, 0.2763991190146835, -0.06255053551503927, 0.09760025070543307, 0.15665400529288342, -0.22817877510597695, -0.6252354697712124, -0.3695421328658558, -0.0920596866808435, -5.090459816653018e-05, 0.008254757097606764, 0.003816919652956678, -0.01642211151752966, 0.010506391754557573, -0.12141038737995245, 0.08488444394318607, -0.16658112879282674, -0.2971598859676726, -0.07623212955271931, 0.18265638123472117, -0.12198659145242809, -0.10890020060995245, 0.16422655509356449, 0.2588299176402967, 0.091489860588258, 0.48739939030164425, 0.12877256726392558, -0.08249294243792073, -0.247480799754718, -0.2618446915761769, 0.2190988851706296, 0.032620209784693356, -0.1355719357113632, -0.44254375897958675, -0.5222044282681297, -0.25200378082115693, -0.05810615975795611, -0.02690834687503738, 0.016860611710378164, -0.0014950241355051557, -0.02708963853795429, -0.022523526146856692, -0.1553135515392525, -0.11581994407017732, -0.153658623151837, -0.46861752724107325, -0.41776037348337014, -0.668714241334915, -0.462318633414611, -0.43816327294256835, -0.23548090644158465, -0.3574664984772529, -0.3259104262110635, -0.351888026850071, -0.5643090596239096, -0.16754538330434907, -0.3154204537278706, -0.28597274993877436, -0.018573339545575038, -0.2443682230813337, -0.3633171029712347, -0.5332688683284365, -0.49554824923242946, -0.1974904287176113, -0.07876457846138116, -0.013276031413447914, 0.0053946056480048184, -0.010172119732942778, 0.002573834504167155, -0.02542363540183237, -0.19527949347410498, -0.16232796809528352, -0.05687742126604397, -0.4370509175884872, -0.7813013778876671, -0.7389307011368109, -0.7053202097243237, -0.8486047128870704, -0.818941116782674, -0.784359535826866, -0.7891717637525908, -0.7191155549098833, -0.7534091492961213, -0.1350455485353446, -0.7725008764564958, -0.5787363311003811, -0.282059106283829, -0.34565596871096427, -0.25159183335550817, -0.2525071013870722, -0.401206356242952, -0.10576657700657825, -0.04177621861322098, -0.001911200157350669, 0.0068032684702938615, 0.008290389262268445, -0.004126624345756983, -0.029838863785402105, -0.09887970693361788, -0.04950262021904451, -0.1554895442532719, -0.1344644485051633, -0.2959787310140035, -0.1253570049962398, -0.24850383915327082, -0.4321848095209291, -0.21346117152549193, -0.362172939385377, -0.2741894340149435, -0.20281608891492658, -0.0815379366882611, -0.36364381107820476, -0.14708221716186384, -0.24610372467072933, -0.23791311534009704, -0.049788601680162366, -0.262303400515621, -0.10809605149001876, -0.2653729509122467, -0.1328814367940323, 0.006116379596625956, -0.0003063454875507924, -0.004555298386341767, -0.003392659049663225, 0.00917594800570949, -0.032754619086347685, -0.05716637580115709, -0.012392232767072468, -0.16263268450636117, 0.04724303949732608, -0.03871007857061449, -0.27876202601804145, -0.2690917033640136, -0.0831950148698805, -0.15025301880879552, -0.179193345246663, -0.1771686379307462, -0.08269078326192235, -0.25460997099534455, -0.4321355752280782, 0.049716931968742384, -0.2973877767414195, -0.37254858104895694, -0.19290158277885075, -0.21124900067312347, -0.22214527072614068, -0.32902913566704195, -0.09154491312015708, -0.01610301047718677, 0.002150496695444525, -0.002664775865221663, 0.013139356174814326, -0.0013978638871812484, 0.036425659440464914, 0.06601900319518511, 0.21943918839356016, 0.1263413750718946, 0.29749491929504657, 0.13789425857338686, -0.061147633435522986, 