{"weights": [[[-0.061451345682144165, -0.03821010887622833, -0.017966419458389282, 0.08472152799367905, 0.08025587350130081, 0.03004002571105957, -0.05182572826743126, -0.03404935076832771, 0.02023182064294815, 0.022081710398197174, 0.019210807979106903, 0.06963624805212021, -0.17972415685653687, -0.09585321694612503, 0.1454748660326004, -0.06728794425725937, 0.022471390664577484, 0.044514305889606476, 0.06344778090715408, -0.03465691953897476, -0.04785322770476341, 0.052655212581157684, 0.05715075880289078, -0.009494513273239136, 0.03221110254526138, 0.05228810757398605, 0.06673983484506607, -0.052554067224264145, 0.002406984567642212, -0.0029227957129478455, 0.035455383360385895, -0.056309062987565994, -0.159433513879776, -0.2591615319252014, -0.32148265838623047, -0.5800865292549133, -0.13418826460838318, -0.3354963958263397, -0.4512714147567749, 0.08330897241830826, -0.9118499755859375, -0.7187578082084656, 1.0275403261184692, 1.8240125179290771, 1.4989644289016724, 0.6614493727684021, -2.949716091156006, -2.4889211654663086, -1.8182153701782227, -1.8636806011199951, -0.6930357813835144, -0.5056701898574829, -0.04633266106247902, 0.04018174856901169, 0.01452396810054779, -0.03761928156018257, -0.05514409393072128, 0.05733681470155716, -0.49139901995658875, 0.38292378187179565, -0.649385929107666, -0.910423994064331, -0.8882656097412109, -1.8928557634353638, -2.032402276992798, -0.5437930822372437, -0.7644724249839783, -0.603640615940094, -0.9135198593139648, -1.8811265230178833, -2.742856502532959, -2.4127230644226074, -1.5869466066360474, -1.112816333770752, -0.6734360456466675, -1.4578416347503662, -0.1865340769290924, -1.370894432067871, 0.298422634601593, 0.2887113094329834, -1.1655020713806152, -0.4477912187576294, -0.06097377836704254, 0.08195153623819351, 0.04244684427976608, 0.01868337392807007, 0.3929722309112549, -0.8733539581298828, -0.3130136728286743, -2.263546943664551, -2.536120653152466, 0.2013283520936966, 0.2999834716320038, -0.8126721978187561, -0.29741528630256653, -0.5075943470001221, -0.8945096135139465, -0.36007797718048096, -0.6426289677619934, 0.5493782758712769, -0.9152821898460388, -1.1864475011825562, -0.24571029841899872, 0.9013248682022095, 0.570618212223053, -0.6907673478126526, -0.7486741542816162, 0.7397522330284119, -1.1847003698349, -0.5816196203231812, -0.24413183331489563, 0.05875986069440842, 0.08472683280706406, 0.07292317599058151, 0.9722102284431458, -0.6311166882514954, -0.1932661533355713, -0.5803500413894653, 0.04436757415533066, 0.49413982033729553, 0.6002940535545349, -0.4680277109146118, -0.6071355938911438, -0.5063883066177368, -0.2694571018218994, 0.09461692720651627, 0.11384981125593185, 0.4293719232082367, 0.41701391339302063, -0.22353628277778625, -0.023414049297571182, 0.47345659136772156, 0.3576382100582123, 0.18521176278591156, -0.823747992515564, 0.8170760273933411, 0.8440176844596863, 0.728082001209259, 1.048534870147705, 0.2942923903465271, -0.06051772087812424, 0.0683717206120491, 0.4168132245540619, 0.7686223983764648, -0.04787155240774155, -0.6744630932807922, 0.7491198778152466, 0.5006904006004333, -0.46106085181236267, -0.4016646444797516, -0.3133043050765991, -0.005610475316643715, 0.477723091840744, 1.3807798624038696, 0.9605441689491272, -0.23257781565189362, -0.21457087993621826, 0.3645704984664917, 0.6252292990684509, 0.7188383936882019, -0.5267022252082825, 0.7487781047821045, 1.424302339553833, 1.7759183645248413, 0.6018615961074829, 1.0081778764724731, 0.5820260047912598, -0.575062096118927, 0.05237417668104172, 0.020397238433361053, 0.1750306487083435, 1.6331980228424072, 0.005521243438124657, 0.7458525896072388, -0.4473536014556885, -0.9673233032226562, -0.32887643575668335, -0.6799613833427429, 0.15165464580059052, 0.33165013790130615, 0.9474277496337891, 0.9167601466178894, 0.584172248840332, -0.006971037946641445, 0.10865972191095352, -0.052607640624046326, 1.017227292060852, 0.9309073686599731, 0.9635215997695923, 0.6627525687217712, 0.4879108965396881, 0.33059021830558777, -0.5115906596183777, 1.5924586057662964, -0.25008296966552734, -0.13366171717643738, -0.0435020811855793, -0.1620236337184906, -0.5800207257270813, 0.8752756714820862, -0.8451054692268372, 0.11089052259922028, 0.17300309240818024, -0.13827799260616302, -0.31039726734161377, -1.1606217622756958, -0.5763893723487854, -0.549231231212616, 0.3354153037071228, 0.7681636810302734, 0.02869737707078457, 0.18056067824363708, 0.45903393626213074, -0.19273075461387634, 0.282397985458374, 1.0076111555099487, 0.7011862993240356, 0.5027916431427002, -0.5723519921302795, -0.2574346661567688, 0.09372208267450333, -0.03304583206772804, -0.0697348564863205, -0.17369788885116577, -0.20261603593826294, 1.57114839553833, -1.5973448753356934, -0.3173852264881134, -0.15282286703586578, 0.16647933423519135, 0.2576408088207245, -0.08874383568763733, -0.7285981774330139, -0.9034000039100647, -0.36774739623069763, -0.30943575501441956, -0.02627878449857235, 1.039387822151184, -0.14084628224372864, 0.1579364687204361, 0.595029354095459, 0.8842823505401611, 0.580325186252594, 0.9961307048797607, 0.0508897490799427, -1.0843303203582764, -0.3910415768623352, -0.9199321866035461, -0.08336666971445084, 0.02448740229010582, 0.22118331491947174, 1.2184537649154663, 0.3325203061103821, 0.030030855908989906, 0.6578951478004456, -0.08234613388776779, -0.20078514516353607, 0.7709556818008423, 0.5110114812850952, 0.2937927842140198, -0.9616973400115967, 0.013387047685682774, 0.1049378290772438, -0.08653423190116882, 0.783810555934906, 0.8411945700645447, -0.0444844588637352, 0.10064725577831268, 0.04784379154443741, 0.8324422240257263, 0.2192145437002182, -0.36887460947036743, -0.2827289402484894, -0.7789537906646729, -0.2720402181148529, -0.34928637742996216, -1.1068013906478882, 0.5208336114883423, 0.40872302651405334, -0.0053167990408837795, 0.25028470158576965, -0.09547615051269531, 1.6826834678649902, -0.07531669735908508, 7.24479032214731e-05, 0.0025172680616378784, 0.052094995975494385, 0.08425863087177277, 0.044925011694431305, -0.01779181696474552, -0.07731951028108597, 0.19906696677207947, 0.6179956793785095, 0.42698583006858826, 0.2278866171836853, 0.17355459928512573, 0.31870341300964355, 0.6395204663276672, 0.3358018398284912, 0.23622192442417145, -0.110531747341156, -0.5323018431663513, -0.42703235149383545, 0.0005832494935020804, -0.04650918021798134, -0.8070205450057983, -0.1519782841205597, -0.3004780411720276, 0.11734627932310104, 0.31809717416763306, 0.3106861114501953, 0.459757536649704, 1.5000042915344238, -0.2451319396495819, 0.5628827214241028, 0.9068619012832642, 0.46473804116249084, -0.02358643338084221, 0.06498199701309204, 0.45900049805641174, 0.180209219455719, -0.3254484534263611, -0.12526102364063263, -0.4686078131198883, -0.38182735443115234, 0.19294264912605286, 0.1829594075679779, -0.0992710068821907, -0.29486632347106934, -0.626680314540863, -0.6029902100563049, -0.9260892271995544, 0.3525623679161072, -0.9025874137878418, 0.6852977275848389, -0.6489299535751343, 0.014179014600813389, 0.2632506787776947, 0.6094678044319153, 2.2170770168304443, 1.6024059057235718, 1.1036410331726074, 0.3478761613368988, 0.7022597789764404, -0.2978586256504059, -0.004681323654949665, 0.06594890356063843, 0.27729934453964233, -0.24421744048595428, -0.8027878999710083, -0.2548941671848297, -1.2485387325286865, -0.5124173760414124, -0.11845644563436508, 0.02993529476225376, -0.7096470594406128, -0.33767226338386536, -0.6322064399719238, -0.3503158688545227, -0.2388371378183365, -0.029100582003593445, -0.1696968823671341, -0.01685534231364727, -0.41888290643692017, -0.15533345937728882, 0.12902137637138367, 1.1211568117141724, 1.8546591997146606, 1.8306418657302856, 0.16222096979618073, 0.2998233437538147, -0.5875046253204346, 0.03772665932774544, -0.024087941274046898, 0.40571531653404236, 0.793411910533905, -0.12897583842277527, -0.23874251544475555, -0.46061208844184875, -1.1406455039978027, -0.6418875455856323, 0.21111652255058289, -0.36454230546951294, -0.8271510601043701, -0.7068719267845154, -0.7279629707336426, 0.15769457817077637, -0.4167460501194, 0.5677802562713623, 0.6244295835494995, 0.10828497260808945, 0.2871551215648651, -0.17720331251621246, 0.06441742926836014, 0.845943808555603, 0.33358490467071533, 1.4886935949325562, 0.3479115962982178, 0.7763159275054932, -0.11108706146478653, 0.27150192856788635, 0.5571592450141907, 1.0211390256881714, 0.9070589542388916, 0.3093821406364441, -0.23133963346481323, -0.748622477054596, -0.8346004486083984, -0.8007963299751282, 0.3174940347671509, -0.32513627409935, -0.7141801118850708, -1.2238849401474, -0.15308718383312225, -0.6696646809577942, -0.8011536598205566, 0.041533078998327255, 0.6961415410041809, 1.0366007089614868, 0.432228147983551, -0.10821777582168579, 0.11804796755313873, 0.23426873981952667, 0.5611296892166138, 0.8627305626869202, 0.9072689414024353, 0.5120768547058105, 0.5345728397369385, 0.4020555317401886, 0.40685421228408813, 0.3987170159816742, 0.6770287156105042, 0.1969134509563446, 0.10063862800598145, -0.19926203787326813, -0.5132849812507629, 0.27250388264656067, 0.5248605012893677, 0.009156177751719952, -0.644955039024353, -0.6102426052093506, 0.028367219492793083, -0.16700856387615204, -0.35114026069641113, 1.0200461149215698, 0.9207599759101868, 0.030309488996863365, 0.2219356894493103, 0.21174775063991547, -0.1479334980249405, 0.24368277192115784, 1.068520426750183, 0.5011767148971558, 0.15666642785072327, -0.1840909719467163, 0.23895911872386932, -0.06274651736021042, -0.42484283447265625, 0.007907040417194366, -0.47932034730911255, -0.3216286897659302, -0.23424255847930908, 0.05229010805487633, -0.18277405202388763, 0.36681780219078064, 0.6254248023033142, 0.6341398358345032, 0.7125899791717529, 0.19346870481967926, 0.26277825236320496, 0.688701868057251, 0.46730905771255493, -0.1490272730588913, 0.4837610125541687, 0.7297159433364868, 1.0628372430801392, -0.006880231201648712, -0.04631119221448898, 0.9859705567359924, 1.2292048931121826, 0.5719682574272156, 0.2181682139635086, -0.23963871598243713, 0.977310061454773, 0.3463987112045288, 0.12002140283584595, -0.4678148031234741, -0.6538386940956116, -0.009852121584117413, 0.05945785343647003, -0.11682520061731339, 0.32898664474487305, 0.10329370200634003, 0.2495630979537964, 0.12189199775457382, -0.025319887325167656, -0.20164144039154053, -0.5306221842765808, 1.0017595291137695, 0.6384691596031189, -0.2856147289276123, 0.28624337911605835, 0.751908540725708, 1.2166633605957031, 0.7277902960777283, -0.05408235639333725, 1.4176486730575562, 1.3504693508148193, 0.9019011855125427, -0.1040864884853363, 0.7818788886070251, 1.2752605676651, 0.3423967659473419, 0.13118904829025269, 0.01364521961659193, -0.1693250834941864, -0.6866698861122131, -0.3478148579597473, -0.4183599352836609, 0.3896987736225128, -0.052452899515628815, 0.1427653729915619, 0.019712863489985466, 0.5773361921310425, 0.8445435166358948, -0.43222811818122864, -0.39072084426879883, -0.024602549150586128, -0.4631943106651306, -0.44625890254974365, -0.8591037392616272, -0.06924624741077423, -0.37207022309303284, 0.2265956848859787, 1.2583611011505127, 0.6046353578567505, 0.5779356956481934, 0.822089672088623, 0.2924287021160126, 0.8373288512229919, 0.7482296228408813, 0.19236570596694946, 0.03524244576692581, -0.7961804270744324, -0.28522172570228577, -0.7088027596473694, -0.6305795907974243, 0.1695517897605896, -0.05907426029443741, 0.10613346099853516, 0.20034196972846985, 1.0689196586608887, 0.11928485333919525, -0.08960794657468796, 0.10186836868524551, -0.40264660120010376, 0.9281096458435059, 0.39766615629196167, -0.6005987524986267, -0.2623171806335449, 0.005968689918518066, -0.6099149584770203, 0.525586724281311, 0.6273146867752075, 1.1941698789596558, 0.17884017527103424, 0.6724682450294495, 0.5628572106361389, 0.878206193447113, 0.7694514393806458, -0.24231958389282227, 0.418527215719223, -0.32022976875305176, -0.4981723725795746, -0.1543157696723938, 0.04657025262713432, -0.008480480872094631, -0.09417734295129776, -0.0006969582755118608, 0.9451268315315247, 0.2216695249080658, 0.917232871055603, 1.393314003944397, 0.29635190963745117, 1.1290955543518066, 0.8107394576072693, 0.3921956717967987, -0.13193432986736298, -0.19384382665157318, -0.05015050992369652, 0.7557510137557983, 2.0637686252593994, 0.9415973424911499, -0.5359712839126587, 0.31331348419189453, 0.9756207466125488, -0.00894682202488184, -0.34326839447021484, 0.013842852786183357, 0.22032833099365234, -0.5910407900810242, -0.8570424914360046, -0.23497292399406433, 0.19081547856330872, -0.21077513694763184, 0.16744233667850494, 0.6510908603668213, 0.6071393489837646, 0.428363561630249, 1.7399053573608398, 1.491693139076233, 0.6840829253196716, -0.04159950837492943, 1.0483052730560303, 0.5395928025245667, -0.07935520261526108, -0.14203713834285736, -0.15657882392406464, 0.6919538378715515, 0.5491721630096436, 1.1732454299926758, -0.1630033254623413, -0.2964819371700287, 0.4434610903263092, 1.127928614616394, 0.7497891783714294, -0.21798934042453766, 0.4328940510749817, 0.12562942504882812, 0.009152266196906567, 0.49794140458106995, 0.3391216993331909, 0.1815875768661499, 0.9353818297386169, 1.4237805604934692, 0.2917572855949402, 0.6678491234779358, 0.8196324706077576, 0.03907494619488716, -0.43511316180229187, -0.07098270952701569, 0.9929385781288147, -0.6517371535301208, 0.0843973234295845, -0.059842824935913086, 0.07156295329332352, 0.5891755819320679, 0.47629764676094055, 1.0148388147354126, 0.2747652530670166, -0.5756454467773438, 0.6167723536491394, 0.431689977645874, 0.5997526049613953, 0.0031619654037058353, 1.012624740600586, -0.10607825219631195, 0.29083260893821716, 0.1868780106306076, 0.9236046671867371, 0.6158168911933899, 0.9611812233924866, 1.1070060729980469, 0.20130746066570282, 0.34296151995658875, -0.3558969795703888, -0.557239294052124, -0.7088267803192139, -0.232756108045578, 0.5580752491950989, -1.0060360431671143, -0.08027151972055435, -0.07106895744800568, 0.00551103800535202, -0.8743405342102051, -0.7082339525222778, 0.42443642020225525, -0.518662691116333, 0.1816297173500061, -0.17398549616336823, 0.035571757704019547, -0.21879710257053375, 0.2517530024051666, -0.12021426111459732, -0.6771263480186462, -0.19062617421150208, -0.08410260081291199, 0.6306513547897339, -0.03826874494552612, -0.5246831774711609, -0.09539008140563965, -0.700226902961731, -0.638196587562561, 0.7839793562889099, -0.5867563486099243, -0.019024090841412544, 0.7317593693733215, -0.6767598986625671, -0.7821089625358582, 0.024894215166568756, -0.01610104739665985, 0.040849559009075165, 0.16721336543560028, -0.641976535320282, 0.11516935378313065, 0.8645741939544678, -0.3729660212993622, 1.5668140649795532, 0.7207199335098267, 0.4752589464187622, -0.19019217789173126, -0.12989404797554016, 0.17117992043495178, -0.21275019645690918, -0.21420127153396606, -0.528778612613678, -0.8048440217971802, -0.15177839994430542, -0.1704646795988083, -0.13061349093914032, 0.07334817945957184, -0.5887735486030579, -0.493834525346756, -1.1687822341918945, -0.691676914691925, 0.04277648404240608, -0.05005957558751106, 0.06604134291410446, -0.010629802942276001, -0.07033310830593109, 0.043257080018520355, 0.2017146348953247, 0.20985212922096252, 0.09541068971157074, 0.5438188314437866, 0.42475152015686035, 0.49075087904930115, 0.9819467067718506, 1.7612882852554321, 1.854161024093628, 0.39236414432525635, 0.4906463027000427, 0.3734215199947357, 1.1443814039230347, 0.1344311386346817, 0.06703237444162369, 1.2083954811096191, 0.5532317757606506, 1.2656290531158447, 1.295259952545166, 0.4354948401451111, 0.8215245008468628, -0.060813307762145996, -0.07901529967784882, 0.05392570048570633, 0.008114166557788849, 0.044485606253147125, 0.06696461886167526, 0.08552851527929306, -0.01471032202243805, -0.30611905455589294, 0.13618133962154388, 0.624177098274231, 0.5973299145698547, 1.3878512382507324, 0.1580963432788849, 0.1617000252008438, 0.8923165798187256, 1.0585178136825562, 1.2644530534744263, 2.2729415893554688, 1.2545576095581055, 0.5150858163833618, -0.18839865922927856, 0.7062638401985168, -0.07296812534332275, -1.128722906112671, -0.9686383008956909, -1.0272551774978638, 0.12474600225687027, -0.037292610853910446, -0.06789776682853699, -0.051356878131628036, -0.021332435309886932], [0.07378543168306351, -0.008016012609004974, -0.07079903036355972, 0.0010107755661010742, -0.018851876258850098, 0.0036690831184387207, -0.06643456220626831, 0.04808277636766434, 0.06060033291578293, 0.0008965805172920227, -0.06357798725366592, 0.01662985235452652, -0.3117794990539551, -0.21576444804668427, 0.1413317173719406, -0.0739186480641365, 0.06887718290090561, -0.08223903179168701, 0.03377410024404526, 0.036107808351516724, 0.08550605922937393, 0.030729778110980988, -0.03445028141140938, -0.07388048619031906, -0.0423898808658123, -0.02241595834493637, 0.01995169371366501, -0.05522848665714264, 0.037620775401592255, 0.06578125804662704, -0.07929690927267075, -0.06828918308019638, 0.01709701493382454, -0.07012353092432022, -0.9802972078323364, -1.8135411739349365, -3.2006025314331055, -4.4558491706848145, -4.8287553787231445, -3.800508499145508, -4.079113960266113, -2.848996877670288, -0.47674256563186646, -3.3980915546417236, -2.5457100868225098, -2.5590672492980957, -1.5536444187164307, -0.3009187579154968, -0.7209251523017883, -0.6017782092094421, -1.2731975317001343, -0.7331374883651733, -0.040149759501218796, 0.01537013053894043, -0.02584763988852501, -0.0850883200764656, 0.03086448460817337, -0.02873571589589119, 0.3423035144805908, -0.9182666540145874, -1.0592806339263916, 0.23149918019771576, -0.9360166788101196, -4.171854496002197, -0.8128764629364014, 0.08654417097568512, -0.583804726600647, -2.5692129135131836, -0.8249921202659607, -1.1085832118988037, -1.1952331066131592, -0.35210171341896057, -0.40057820081710815, -0.8605638742446899, -0.6463708281517029, 0.2194916307926178, 0.44872555136680603, 0.720217227935791, -0.15999287366867065, -0.479250431060791, 0.3116956949234009, -0.4411097466945648, 0.0692107304930687, 0.015084847807884216, -0.03625565394759178, -0.08225460350513458, 0.4122222661972046, -1.2428158521652222, -0.4266720712184906, 0.3009471595287323, 0.5473511815071106, 0.5834483504295349, -1.1973873376846313, -0.8716261982917786, -1.2649754285812378, -0.7012845277786255, -0.1790226548910141, -0.958827555179596, -0.8975860476493835, -0.8714057803153992, -0.8410810232162476, -0.7107353806495667, 0.39735907316207886, 0.2628735303878784, -0.03449057415127754, 0.30261945724487305, 0.6580687761306763, 0.688974916934967, -0.7174791097640991, 0.9687530994415283, 0.1987924575805664, 0.012793533504009247, 0.017661258578300476, -0.010261943563818932, 0.5309171080589294, -0.24419936537742615, -0.7669005393981934, -0.013660608790814877, 0.1254882514476776, 0.11986099183559418, -0.5296734571456909, -0.17487242817878723, -0.3154451549053192, -0.29885923862457275, 0.03798834607005119, 0.1826205551624298, 0.3809654116630554, -0.2337082028388977, 0.33130016922950745, 0.7406909465789795, 0.7490078210830688, 0.31257736682891846, 0.38238853216171265, -0.6659131050109863, -0.16966739296913147, 0.4483797252178192, 0.3189515471458435, 0.8547749519348145, -1.2348724603652954, -0.4742325246334076, 0.0683361366391182, 0.04023898392915726, 0.263858824968338, -0.037174466997385025, -0.17835243046283722, 1.1679445505142212, 0.08648359030485153, 0.0732911080121994, 0.9592497944831848, 0.2118183672428131, -0.5721085667610168, -0.7091540694236755, -0.5959033370018005, -0.4378928244113922, -0.8097824454307556, -0.14691346883773804, 0.08402442932128906, -0.07053472846746445, 0.2845548689365387, 0.18051359057426453, 0.3824651539325714, -0.3176927864551544, -0.2875168025493622, 0.07343532145023346, -0.9765332341194153, -0.612652599811554, -1.0041605234146118, 0.42176172137260437, -0.06247663497924805, -0.0461285300552845, -0.1387827843427658, 0.7611203193664551, -0.1947474330663681, 0.45859628915786743, 0.771266758441925, 0.34632787108421326, -0.11542494595050812, -0.04083234444260597, 0.2674185037612915, -0.05668461695313454, -0.5155938863754272, -0.7298792004585266, -0.5415917634963989, -0.39737868309020996, 0.005903755314648151, 0.5121998190879822, 0.31552428007125854, 0.20879162847995758, 0.1584288775920868, 0.4557090997695923, -0.4502170979976654, -0.37919744849205017, -0.4686776101589203, -0.33483025431632996, 0.2494094967842102, -0.39390623569488525, 0.3535669147968292, 0.21274743974208832, 0.6840537786483765, 0.49287211894989014, 0.43245020508766174, 0.06731496751308441, 0.7909203767776489, 0.5980627536773682, -0.03139829263091087, -0.24656465649604797, -0.15044662356376648, -0.2987790107727051, -0.38798758387565613, -0.572894811630249, -0.400224894285202, 0.16669154167175293, -0.1353018432855606, 0.24019476771354675, 0.4465752840042114, 0.7029270529747009, -0.3272562026977539, -0.3417094945907593, 0.8072797060012817, 0.24901729822158813, 0.7218303680419922, -0.012335879728198051, -0.18461334705352783, -0.4259324371814728, 0.11697126179933548, 0.4856416583061218, 0.04000919312238693, 0.26586252450942993, 0.0806705504655838, -0.09153857082128525, 0.48865723609924316, 0.3227616846561432, 0.10523267090320587, 0.2374764233827591, 0.07810871303081512, -0.2087090015411377, -0.4943985641002655, -0.6975631713867188, -0.5975582003593445, -0.3961811661720276, -0.17663414776325226, 0.07586117088794708, 0.5428758859634399, 0.3265828788280487, 0.17005155980587006, 0.3108599781990051, -0.4157445728778839, 0.03386444225907326, 0.14729298651218414, -0.5487568378448486, -0.4616265296936035, 0.30114567279815674, 0.46506279706954956, 1.1764609813690186, -0.05881671607494354, -0.41773438453674316, 0.36025986075401306, -0.049474332481622696, 0.1094062477350235, 0.022970624268054962, -0.08385976403951645, 0.22402913868427277, 0.14259636402130127, -0.13692432641983032, -0.5511921644210815, -0.2163228988647461, -0.6638032793998718, -1.3764814138412476, -0.7486412525177002, 0.8144479393959045, 0.8761913180351257, 0.2461947500705719, -0.011658316478133202, 0.3825242519378662, 0.17212116718292236, -0.4269350469112396, -0.08503613620996475, -1.206154704093933, -1.136204719543457, -0.2229195088148117, 0.5746707320213318, 1.5801844596862793, 0.8501353859901428, 0.3397771120071411, -0.5210726857185364, 0.21754246950149536, 0.2635044753551483, 0.529412031173706, -0.33524271845817566, 0.11591922491788864, 0.05842794477939606, 0.45323193073272705, -0.17079533636569977, -0.6009842157363892, -1.3271522521972656, -1.7157059907913208, 0.05411229655146599, 0.743933916091919, 0.42101508378982544, 0.412727415561676, -0.16151823103427887, 0.6619742512702942, -0.10446994006633759, -0.003445172216743231, -0.8324159979820251, -0.7740132212638855, -1.5871247053146362, -0.9383227229118347, 1.0436773300170898, -0.637122631072998, 0.9518134593963623, -0.3991170823574066, -0.7593050003051758, 0.20665016770362854, 0.15660548210144043, 0.4095681309700012, 0.29854828119277954, 0.2602548599243164, 0.023435283452272415, -0.15403321385383606, 0.12652036547660828, -0.3854798674583435, -0.6006268858909607, -0.9012873768806458, -0.14196738600730896, 0.179507315158844, 0.4873570203781128, 0.27932459115982056, 0.5710065960884094, 0.37304288148880005, 0.002527800854295492, 0.5732651352882385, -0.7318207621574402, -0.33685076236724854, -0.27833595871925354, -0.5816978216171265, 0.7021128535270691, 0.8538902401924133, 0.5995846390724182, -0.4734359681606293, 0.19776491820812225, -0.09575331956148148, 0.3827110230922699, -0.6055969595909119, -0.18880970776081085, -0.5387856364250183, 0.07574966549873352, 0.0396287627518177, 0.06821627914905548, -0.2171168029308319, -0.46701404452323914, -1.3023779392242432, -0.49834129214286804, 0.03744648024439812, 0.3869515061378479, 0.14572958648204803, 0.08345339447259903, -0.3035188317298889, 0.15607650578022003, 0.07021138817071915, 0.033220238983631134, -0.4385388195514679, -1.5502549409866333, -0.45560598373413086, -0.10962103307247162, -0.6668531894683838, 0.31497976183891296, -0.6721882224082947, 0.47802451252937317, 0.3099210560321808, 0.2679155170917511, 0.03054281324148178, 0.02586141973733902, -0.20037655532360077, -0.003042725846171379, 0.23347321152687073, -0.1640484482049942, -0.9870157241821289, -1.0708897113800049, -1.1577732563018799, -0.22133436799049377, 0.20900128781795502, 0.4672276973724365, 0.208642840385437, 0.1347547322511673, 0.07853549718856812, 0.8518432378768921, 0.756530225276947, -0.13298505544662476, -1.2229018211364746, -2.0342257022857666, -1.5097901821136475, -0.4519873857498169, -0.2478959560394287, 1.2413123846054077, -0.1748378574848175, 0.41190916299819946, 0.6819303035736084, 0.12971429526805878, 0.5682324171066284, 0.008773056790232658, 0.7662097811698914, 0.14748163521289825, -0.17711888253688812, -0.6683244705200195, -1.1379045248031616, -0.8442296981811523, -0.2986888587474823, 0.05130220577120781, -0.08064507693052292, 0.19072769582271576, 0.2986851930618286, 0.33697718381881714, -0.4306843876838684, 0.4928727447986603, 0.4204484224319458, 0.7811864614486694, 0.007203885819762945, 0.6918487548828125, -0.1082058846950531, 0.13282693922519684, -0.5934503674507141, 0.3537536859512329, 0.5629479289054871, 0.21499969065189362, 0.5264129042625427, 0.7227090001106262, 0.016135061159729958, -0.29607731103897095, 0.3463010787963867, 0.010355177335441113, -0.08080314844846725, -0.5136368870735168, -0.12153799831867218, -0.5686872601509094, -0.10488631576299667, 0.07370101660490036, 0.13417644798755646, 0.26497921347618103, 0.0478871650993824, 0.6787912845611572, -0.099947489798069, 0.9684664011001587, -0.3889431655406952, -0.4629861116409302, -0.5463235974311829, 1.4447602033615112, 1.0859159231185913, 0.780738890171051, -0.6730843782424927, -0.10947784781455994, -0.3152625858783722, 0.019661039113998413, -0.031170712783932686, 0.782036542892456, 0.09981842339038849, -0.23465751111507416, 0.15248820185661316, 0.3501568138599396, -0.035800300538539886, -0.22402386367321014, -0.8164090514183044, -0.4435204863548279, 0.15145811438560486, 0.3672741651535034, 1.0544908046722412, 1.1067525148391724, 0.8019753098487854, 0.596339762210846, 0.6723492741584778, 0.1153416782617569, 0.4124935269355774, -0.40035873651504517, -0.016529247164726257, 0.7787842750549316, -0.9505690336227417, 0.02063412219285965, 0.018712295219302177, 0.40328189730644226, 0.36983591318130493, 0.4204498827457428, 0.22102858126163483, 0.12302739918231964, 0.006060722284018993, 0.41713398694992065, -0.17928752303123474, 0.26048409938812256, -0.4184825122356415, -1.0421096086502075, -0.8066336512565613, -0.6653240919113159, 0.5610934495925903, 0.47457122802734375, 0.6636233329772949, 0.9585954546928406, 0.23382724821567535, 0.5373096466064453, 0.5056241154670715, -0.09104221314191818, 0.31742438673973083, 0.5148583650588989, 1.8758518695831299, 0.9348171949386597, -1.227521300315857, 1.0892963409423828, 0.3394116759300232, -0.013454736210405827, 0.11456230282783508, -0.10095114260911942, -0.01279527135193348, -0.044600170105695724, 0.3314974308013916, 0.48410287499427795, 0.14350959658622742, -0.5192803144454956, -0.8181574940681458, -1.491836667060852, -0.3306390345096588, 0.19851306080818176, 0.17429673671722412, 1.1851027011871338, 0.8350735902786255, 0.9365584254264832, 0.5132085084915161, 0.37123632431030273, 0.06595367193222046, -0.36095109581947327, -0.2371644675731659, 0.6376808285713196, -0.2187594175338745, 1.1133540868759155, 0.7994116544723511, -0.10989578068256378, 0.7613940834999084, 0.445278137922287, 0.0015135103603824973, 0.2731752097606659, 0.5132545828819275, 0.24771714210510254, 0.2223602533340454, 0.7564575672149658, 0.07832960039377213, -0.32277026772499084, -0.2923555374145508, -1.4686577320098877, -1.0140366554260254, 0.4535970985889435, 0.9195135831832886, 1.0112357139587402, 0.47319459915161133, -0.12682414054870605, 0.45339685678482056, 0.3330388069152832, 0.09926476329565048, 0.19202139973640442, 0.2572377324104309, -0.7428535223007202, -0.3629184067249298, 1.2330851554870605, 0.2658040523529053, -0.028594497591257095, 0.5661627650260925, 0.42964065074920654, 0.23860016465187073, -0.26862168312072754, 0.601080596446991, -0.31797391176223755, 0.0962737575173378, -0.3315318524837494, -0.3695410490036011, -0.5706406235694885, -0.8033925890922546, -0.9326105713844299, -0.7121221423149109, 0.16658568382263184, -0.2127174437046051, 0.3552688658237457, -0.038321275264024734, 0.057431936264038086, -0.08255738765001297, 0.11553078889846802, 0.08520832657814026, -0.6431493163108826, 0.22965915501117706, 0.9188103675842285, 0.40601465106010437, 1.815723180770874, -0.49852681159973145, 0.05881914496421814, 0.1724812090396881, 0.34630197286605835, 1.18142831325531, -0.062072400003671646, 0.9664632678031921, -0.47960248589515686, -0.3237867057323456, -0.04070525988936424, -0.5633249878883362, -0.013695817440748215, -0.4329971671104431, -0.2637600004673004, -0.29798245429992676, 0.07367878407239914, -0.4272858798503876, 0.14264804124832153, 0.14218629896640778, -0.4582214653491974, -0.14631401002407074, -0.11375748366117477, 0.07026709616184235, -0.4032364785671234, -0.08420560508966446, 0.3406839966773987, -0.35034579038619995, -1.2082477807998657, 0.09986940771341324, -0.03435089811682701, -0.0036023964639753103, 0.5845906734466553, 0.6422207951545715, -0.5140994191169739, -0.5563546419143677, 0.051166076213121414, -0.42840489745140076, 0.10804352164268494, -0.2348247617483139, 0.16683970391750336, 0.17044492065906525, -0.06843742728233337, -0.24001054465770721, -0.23997370898723602, -0.08350110799074173, -0.06380512565374374, -0.3375241160392761, -0.6223723292350769, -0.3403138220310211, -0.3898092806339264, -1.0879225730895996, -0.14308583736419678, -0.07969965785741806, -0.29047277569770813, -0.9411518573760986, -1.0562708377838135, 0.070970818400383, 0.04471307247877121, 0.029803313314914703, -1.1084316968917847, -0.45386993885040283, -0.3295139670372009, -0.15214510262012482, -0.19573794305324554, -0.005263590253889561, -0.018947191536426544, -0.18788902461528778, -0.3898346722126007, -0.40926483273506165, -0.4593432545661926, -0.49932998418807983, -0.4708494246006012, 0.4941568374633789, -0.4738280475139618, -0.22123214602470398, -0.2423246055841446, 0.34460893273353577, 0.10026206821203232, -0.7248260378837585, -0.0006722655380144715, -0.42251724004745483, 0.10237740725278854, -0.0006002982845529914, -0.49308180809020996, 0.0348082110285759, -0.07299938052892685, 0.01447797566652298, 0.5065051913261414, -0.8707633018493652, -0.4430522322654724, -0.1719452440738678, -0.6287840008735657, -0.07259120792150497, 0.44560641050338745, 0.4108206033706665, 0.052554525434970856, 0.190230131149292, -0.20562414824962616, -0.21003049612045288, -0.2251727133989334, 0.10294009000062943, -0.020967213436961174, 0.27381256222724915, -0.4313490092754364, -0.2991880178451538, -0.2574303150177002, 0.4155442714691162, -0.27164387702941895, 0.3100821375846863, -1.1771692037582397, -0.015402793884277344, 0.07340028882026672, 0.03470856696367264, -0.07035243511199951, -0.0469876192510128, 0.04741896316409111, -0.704633355140686, -1.2391228675842285, -0.5355180501937866, -0.2991729974746704, -1.4789366722106934, 0.31855279207229614, 0.41277649998664856, -0.23423698544502258, 0.06650087982416153, -0.16242852807044983, 0.0282560046762228, 0.4552108347415924, 0.5250698328018188, 0.7089152932167053, -0.334068238735199, -0.017389962449669838, -0.38345587253570557, 0.4593297243118286, 0.24925482273101807, -0.5528562068939209, -0.6528972387313843, -1.1001211404800415, -0.12764452397823334, -0.01906602270901203, -0.0010445937514305115, -0.020919673144817352, 0.04346052557229996, 0.024698227643966675, 0.009022913873195648, -0.35892170667648315, -0.16558296978473663, -0.1771513968706131, -0.6660454869270325, -0.044935476034879684, 1.0799202919006348, 0.21720142662525177, -0.6008166074752808, -0.6789941191673279, -0.5190984010696411, -0.10360398888587952, -0.024262653663754463, -0.246603861451149, 0.5690467953681946, 0.6558046340942383, 0.04901907593011856, 0.36522865295410156, 0.24191123247146606, 0.24879656732082367, 1.767991542816162, 0.7865664958953857, 0.12985333800315857, 0.0753728374838829, -0.027590889483690262, -0.0227363184094429, 0.039753131568431854, -0.026972632855176926, 0.033875852823257446, 0.44637012481689453, 0.45405787229537964, 0.13276810944080353, 1.39559006690979, 0.8646603226661682, 1.5239354372024536, 0.7005267143249512, -0.6040139198303223, -0.8659987449645996, -0.12152042984962463, 0.526055634021759, 0.3674905002117157, 1.4753926992416382, 1.6477540731430054, -0.6821433901786804, -0.27626025676727295, 0.7227495908737183, 0.9322974681854248, 0.4877356290817261, 0.43238264322280884, -0.031924162060022354, 0.051725976169109344, 0.0324341356754303, -0.0031890198588371277], [0.07741255313158035, 0.06963855773210526, 0.022263750433921814, -0.0629362091422081, 0.0819481834769249, 0.028078265488147736, -0.07339487224817276, 0.032734766602516174, 0.03901512175798416, -0.060083258897066116, -0.08178821206092834, 0.06588048487901688, -0.011411618441343307, -0.04069185256958008, -0.0031363347079604864, 0.02658807672560215, 0.06433688849210739, 0.01301100105047226, -0.06417261809110641, -0.060962848365306854, 0.0815109834074974, -0.042809341102838516, -0.037127669900655746, -0.05331716313958168, 0.06459259241819382, 0.055704109370708466, -0.07344743609428406, 0.08266986161470413, 0.07649404555559158, 0.06482597440481186, -0.0024708136916160583, -0.07655445486307144, 0.020077036693692207, 0.007386175449937582, -0.09969670325517654, -0.28141340613365173, -0.7308475375175476, -0.8971783518791199, -0.6858372092247009, -0.8060512542724609, -0.3607301712036133, 0.13303257524967194, 0.8511568307876587, -1.0853111743927002, -0.9453943371772766, -0.901684045791626, 0.3664326071739197, 0.1877036988735199, 0.09056949615478516, 0.16074104607105255, -0.04681279510259628, -0.05420806258916855, -0.08329721540212631, -0.057919733226299286, -0.0529739148914814, -0.04755736142396927, -0.00010553747415542603, -0.07402028888463974, 0.03389783948659897, -0.7730342149734497, -0.7602088451385498, -0.10258886963129044, -1.065909743309021, -0.693385899066925, -1.4123804569244385, -3.331742286682129, -2.2105743885040283, -0.22525572776794434, -0.2168561965227127, 0.06018420681357384, -0.20698265731334686, -0.6079733967781067, -0.8136386275291443, -1.5024973154067993, -0.8221439123153687, 1.428432822227478, 1.2102017402648926, 0.9824793934822083, 0.22197721898555756, -0.08788666874170303, 0.07359696924686432, -0.020524149760603905, 0.01786629855632782, 0.03493540734052658, 0.044676102697849274, -0.0017955079674720764, 0.025172114372253418, -0.9512963891029358, -0.4547750651836395, 0.6105393171310425, 0.7511851787567139, 0.4028656780719757, 0.7571481466293335, 0.4908764660358429, -0.42420321702957153, -1.0837669372558594, -0.5221053957939148, -0.39445751905441284, -0.27746522426605225, 0.10100438445806503, -0.9658014178276062, -1.217485785484314, -0.941256582736969, -0.6896503567695618, -1.09613835811615, -1.2923238277435303, -0.4749557375907898, -0.8174281716346741, -0.1948176920413971, -0.8331370949745178, -0.2231982946395874, -0.010052569210529327, 0.0437721386551857, 0.04590047895908356, 0.14338988065719604, 0.46812015771865845, -0.26158231496810913, 0.25186991691589355, -0.6531165838241577, 0.14648796617984772, -0.25523945689201355, -0.17532171308994293, -0.9297094941139221, -1.789090633392334, -1.4512311220169067, -1.0208860635757446, -0.3357039988040924, -0.10168387740850449, 0.46362102031707764, 0.17065344750881195, -0.5117168426513672, 0.18576398491859436, 0.40541839599609375, -0.5887877345085144, -0.5457774996757507, 0.7571821808815002, 0.5073188543319702, 0.39263319969177246, -0.9483875632286072, 0.14182941615581512, 0.021122805774211884, 0.07879611104726791, 0.4136681854724884, -0.8868629336357117, -0.20982269942760468, 1.4817417860031128, 0.39887624979019165, -0.829032838344574, 0.5517281889915466, 0.7834528684616089, -0.3647274971008301, -0.15293267369270325, 0.02973998337984085, 0.19539529085159302, -0.24582138657569885, -0.3794471025466919, 0.011299675330519676, -0.06307267397642136, -0.5303029417991638, 0.015344643965363503, -0.44500529766082764, -0.48926255106925964, -0.7711902260780334, -0.5822172164916992, -0.22334404289722443, -1.7965399026870728, -0.9921877384185791, -0.5392378568649292, -0.07670557498931885, 0.018550697714090347, 0.903190016746521, 0.1540718972682953, 0.23759259283542633, 0.8456970453262329, -0.22432221472263336, 0.13738742470741272, 0.22120532393455505, 0.2753654718399048, -0.23664124310016632, -0.07109475880861282, 0.3199370205402374, 0.25450244545936584, -0.7092512249946594, -0.6140592694282532, -0.35624998807907104, -0.13046596944332123, -0.46749693155288696, 0.6275656819343567, 0.25027334690093994, 0.847154438495636, 0.37172919511795044, -0.026160135865211487, -0.1485218107700348, 0.11642277240753174, -1.9694297313690186, -1.1648322343826294, 0.10960690677165985, 1.3522419929504395, 0.8830490708351135, 0.7049173712730408, 0.08920199424028397, -0.6190771460533142, 0.14721651375293732, 0.062034789472818375, 0.7219868302345276, 0.28244197368621826, 0.09168196469545364, -0.13407878577709198, 0.019955411553382874, -0.19749245047569275, -0.5076532363891602, -0.7746173143386841, -0.27888473868370056, -0.036421071738004684, 0.2848840355873108, 0.5091968178749084, 0.01162775605916977, 0.3505271375179291, -0.06874775886535645, 0.1305406242609024, -0.74466472864151, 0.09089966863393784, -1.8350193500518799, -1.2454744577407837, -0.8645734786987305, 1.7454235553741455, 1.1314804553985596, 1.1975350379943848, 0.01487165130674839, 0.06562490016222, 0.26347461342811584, 0.20363762974739075, 0.2860391139984131, 0.5518971085548401, -0.026331385597586632, 0.07637326419353485, 0.09551278501749039, -0.2655133008956909, -0.4550113081932068, -0.35096776485443115, 0.01788955181837082, 0.33224502205848694, 0.18106502294540405, 0.21031832695007324, 0.4028407633304596, -0.20636482536792755, 0.277604341506958, -0.04938185587525368, 0.286206990480423, 0.2757536470890045, -2.788543224334717, -0.9107838869094849, 0.36055028438568115, 1.5546517372131348, 0.9029102325439453, 0.23322699964046478, 0.17930729687213898, -0.44558292627334595, 0.424844354391098, -0.27651533484458923, 0.10054833441972733, 0.5525140166282654, -0.18653300404548645, -0.16683654487133026, 0.10771418362855911, -0.22241592407226562, 0.04677030071616173, 0.18881340324878693, 0.33330342173576355, 0.6011925339698792, 0.1527201235294342, 0.19355301558971405, 0.08110511302947998, 0.31476491689682007, 0.9705278277397156, -0.5470466017723083, 0.04974398761987686, -0.33228638768196106, -2.8329789638519287, -1.0322667360305786, 0.4162178039550781, 1.641261339187622, 1.0278429985046387, 0.8006994724273682, 0.24324394762516022, -0.10174912959337234, 0.12527552247047424, -0.02508755959570408, -0.3479247987270355, 0.1980552077293396, 0.16442489624023438, -0.03696220740675926, -0.3408660292625427, -0.10654935240745544, -0.5595440864562988, -0.23408359289169312, 0.33716899156570435, 0.20179630815982819, 0.10890208184719086, 0.13013751804828644, 0.13909168541431427, 0.3454184830188751, -0.048122335225343704, 0.31458866596221924, 0.26505422592163086, 0.40235069394111633, -3.5894904136657715, -0.7220276594161987, 0.8311677575111389, -0.814289927482605, 0.3872734308242798, 0.6940410733222961, -0.2161908745765686, 0.051967497915029526, -0.15117615461349487, -0.34454545378685, -0.25953513383865356, 0.6725186705589294, 0.31011003255844116, 0.46501684188842773, 0.04669056460261345, -0.9469648003578186, -1.040866732597351, -0.8536621332168579, 0.03711596503853798, 0.1171773374080658, 0.2602604627609253, 0.397065132856369, 0.4874650537967682, 0.22420917451381683, -0.06505777686834335, 0.5951125621795654, 0.3261256814002991, 0.08637426048517227, -2.083635091781616, -0.5504868030548096, 0.7641198039054871, 2.522029399871826, 0.8190434575080872, -0.11518527567386627, 0.22841134667396545, -0.3201046288013458, 0.11542387306690216, -0.022839410230517387, -0.0674288347363472, 0.17697057127952576, 0.31056588888168335, 0.29853546619415283, -0.2619439959526062, -1.3026586771011353, -1.4235540628433228, -0.627721905708313, 0.04051971808075905, -0.08513723313808441, 0.39265233278274536, -0.014744083397090435, 0.4257800579071045, 0.502374529838562, -0.1478985995054245, 0.35249388217926025, 0.23662704229354858, -0.6114893555641174, -1.1354801654815674, 0.48711061477661133, -0.11430519074201584, 0.30508285760879517, 1.2988076210021973, 0.11668050289154053, 0.24219101667404175, 0.08570539951324463, 0.33002176880836487, 0.4365103244781494, 0.23190242052078247, 0.4157622456550598, 0.26167672872543335, 0.1312069445848465, -0.9602307677268982, -2.652474880218506, -1.4567182064056396, -0.5396046042442322, -0.08127686381340027, 0.05317815765738487, -0.10986168682575226, -0.5062758326530457, -0.23021899163722992, 0.05269826203584671, 0.23433934152126312, -0.5396959185600281, -0.6072356104850769, -1.6001181602478027, -0.9062201380729675, -0.007398136891424656, 0.19702370464801788, 0.8178991675376892, 0.9362668395042419, 0.11044986546039581, -0.1386903077363968, 0.03383154049515724, 0.10964270681142807, 0.09412677586078644, 0.18431389331817627, 0.35668161511421204, 0.7115108966827393, 0.5816089510917664, -1.6792632341384888, -3.8781116008758545, -1.0289934873580933, -0.07529701292514801, -0.07177001982927322, 0.057601869106292725, -0.24143074452877045, -0.022292928770184517, -0.15630017220973969, -0.38160955905914307, -0.08562479168176651, 0.43072810769081116, -0.21673351526260376, -0.5830482840538025, -0.07611998170614243, 0.13506242632865906, 0.789551317691803, -0.35260093212127686, 0.5032665133476257, 0.5543950200080872, 0.4224768280982971, 0.11462825536727905, 0.0488494448363781, 0.09620815515518188, -0.14504419267177582, -0.22252701222896576, -0.043419770896434784, -1.204509973526001, -3.6290664672851562, -1.5016957521438599, -0.4093213677406311, 0.06074104085564613, -0.04692927375435829, 0.008555889129638672, -0.1474340409040451, -0.3547489047050476, 0.23018188774585724, -0.7302159667015076, -0.48362794518470764, -0.6022704839706421, -1.7418551445007324, -0.18573379516601562, -0.2283933460712433, -0.2360292375087738, 1.014404058456421, -0.06370632350444794, 0.8103827238082886, 0.06324747949838638, -0.09586238116025925, -0.07453527301549911, 0.825711727142334, 0.2945723533630371, 0.3716321885585785, -0.5963162183761597, -0.6479111909866333, -2.2482492923736572, -1.3734089136123657, -0.9126483201980591, -0.283611536026001, 0.12049772590398788, 0.19354431331157684, 0.33611929416656494, 0.2913983166217804, 0.05370656028389931, -0.15170226991176605, 0.24965552985668182, -0.7065299153327942, -1.3808542490005493, -1.488425374031067, -0.8934165835380554, -1.174574851989746, -0.6988910436630249, -0.046269454061985016, 0.23610591888427734, 1.9201308488845825, 0.13167160749435425, -0.4716462790966034, -0.0658072829246521, -0.5524582266807556, -1.0161126852035522, -1.0951356887817383, -2.002023458480835, -0.8852217793464661, -0.5061067342758179, -1.241721749305725, -0.7446706891059875, 0.013404066674411297, 0.24169102311134338, 0.427449107170105, -0.1720862090587616, 0.689692497253418, -0.10503075271844864, 0.3634691834449768, -0.23692075908184052, -1.0312565565109253, -0.715431272983551, -1.1227829456329346, -0.6309686899185181, -1.6182130575180054, -0.6779120564460754, 1.024735689163208, 0.25675347447395325, 1.4827208518981934, -0.34103652834892273, -0.6331161260604858, -0.5206623673439026, -0.9780073165893555, -0.8692328333854675, -0.6946424245834351, -0.8485697507858276, -0.18896779417991638, -0.2656605541706085, -0.6267895102500916, 0.0020907295402139425, 0.39799293875694275, -0.5001569390296936, 0.024595344439148903, -0.4187859296798706, 0.2109464854001999, -0.26115715503692627, 0.3035212457180023, 0.04275036230683327, 0.10705087333917618, 0.10960370302200317, -0.11702075600624084, -1.0794317722320557, -1.384517788887024, 0.49460819363594055, 0.025426601991057396, 1.2547119855880737, 1.5154032707214355, -0.6943219304084778, -0.8467696309089661, -1.7513047456741333, -2.065094470977783, -1.1129181385040283, 0.11315558105707169, -0.03349997103214264, -0.17256245017051697, -0.13484172523021698, -0.4462207853794098, -0.08391325920820236, 0.014482267200946808, -0.04539588466286659, 0.13829405605793, 0.035965513437986374, -0.11811541020870209, -0.24714846909046173, 0.45966580510139465, 0.025506826117634773, -0.3626888394355774, 0.2866545617580414, 1.1387897729873657, 1.2188085317611694, 0.056810542941093445, 0.009066185913980007, -0.07888052612543106, 0.8955757021903992, 1.289458990097046, -0.46918541193008423, -2.5881128311157227, -1.32994544506073, -0.4084556996822357, 0.2541919946670532, -0.3038237988948822, -0.06462770700454712, 0.433682382106781, 0.23638173937797546, 0.036602683365345, -0.5864179134368896, 0.4427410364151001, 0.049431826919317245, -0.13900044560432434, 0.17904987931251526, 0.08875612914562225, -0.47213467955589294, -0.34771621227264404, -1.2542084455490112, -0.9828129410743713, 0.1844758838415146, 0.06525205075740814, -0.3964278995990753, 0.9771408438682556, -0.26319628953933716, 0.1652483195066452, -0.01132888998836279, -0.43902966380119324, -2.2426154613494873, -0.32251185178756714, -0.1841500997543335, -0.06248489022254944, -0.2733820080757141, -0.10376081615686417, -0.13437820971012115, 0.35576000809669495, 0.20682775974273682, 0.1223488301038742, -0.04386889934539795, -0.14241908490657806, -0.47173213958740234, 0.06131958216428757, 0.13249100744724274, 0.3928065598011017, -0.02234073355793953, -0.03126442804932594, 0.7988952398300171, 0.37282103300094604, 0.8829468488693237, 1.1959363222122192, 0.9252995848655701, -0.5013437867164612, -0.16802158951759338, 0.15745903551578522, 0.020999571308493614, 0.26974770426750183, -1.749503254890442, 0.8163626194000244, 0.2026498019695282, 0.08677710592746735, 0.6118847131729126, 0.4434909522533417, 0.3189120292663574, 0.35429811477661133, 0.23193508386611938, 0.1134238988161087, 0.2118680775165558, 0.04879114404320717, -0.1798580437898636, 0.08616674691438675, 0.19917206466197968, 0.5178853273391724, -0.15055212378501892, -0.29960575699806213, -0.9146115183830261, -0.9028872847557068, 0.8537150621414185, 0.9334394931793213, 0.3868885338306427, -1.276394009590149, -0.2873680889606476, -0.08544766157865524, -0.01776520162820816, -0.4709979295730591, -0.6287766098976135, -0.43519848585128784, 0.2640707194805145, 0.001359276589937508, 0.07899265736341476, -0.1464376151561737, 0.3343164920806885, -0.1749105304479599, -0.4381917417049408, -0.6705880165100098, -0.22066403925418854, -0.48173952102661133, -0.32168033719062805, -0.628743588924408, -0.8029307723045349, 0.1530858278274536, 0.025011146441102028, -0.31901782751083374, -0.39892953634262085, -0.26623743772506714, 0.4644618034362793, -0.41710761189460754, -0.7111612558364868, -0.558017373085022, -0.08254551887512207, 0.018364794552326202, 0.025950148701667786, 0.04898814857006073, 0.3334861695766449, -0.2099856287240982, 0.6061206459999084, 0.1753115952014923, -0.09744063764810562, 0.3991183936595917, 0.307535320520401, -0.32651302218437195, -0.15008039772510529, -0.3958688974380493, -0.11868199706077576, -0.39112719893455505, -0.5430955290794373, 0.10143332928419113, -0.6391887068748474, -0.06584660708904266, -0.10474202781915665, -0.7439918518066406, -0.12786363065242767, -0.3679051101207733, 0.05080844461917877, 0.33188173174858093, -0.23395031690597534, 0.07632140815258026, 0.0551777258515358, 0.005412086844444275, 0.04423638433218002, -1.0525659322738647, 2.2361607551574707, -1.3777669668197632, -0.19259825348854065, -0.460318386554718, -0.2122214287519455, -0.5063176155090332, 0.42637524008750916, -0.0895647332072258, 0.39688149094581604, 0.6031875610351562, 0.2589784264564514, 0.09495187550783157, 0.44330230355262756, 0.7058971524238586, 0.22263213992118835, -0.01830756478011608, 0.029415061697363853, 0.33298882842063904, 0.28765031695365906, -0.1169271171092987, 0.5789908170700073, -0.1164737269282341, -0.13067825138568878, -0.09367009252309799, -0.05919092148542404, -0.07117889821529388, 0.07783692330121994, 0.060773082077503204, -0.3143365681171417, -1.1597768068313599, -0.10049112141132355, -0.30547958612442017, 0.08212872594594955, 0.2177264392375946, -0.19336488842964172, -0.26348674297332764, -0.4442135691642761, -0.6257108449935913, 0.4358104169368744, -0.01267306786030531, 0.11655867099761963, 0.6097595691680908, 0.7014269828796387, 1.8823521137237549, 1.526726245880127, 0.46377378702163696, -0.177715465426445, 1.3067677021026611, -0.34533217549324036, -1.132328748703003, 0.24411720037460327, 0.08010468631982803, 0.048309750854969025, -0.01019306480884552, -0.08300010114908218, 0.0707363560795784, 0.07804343849420547, 0.6803820133209229, 1.2630592584609985, 0.24844272434711456, 1.2340317964553833, 0.9795785546302795, 1.613303303718567, -0.022067243233323097, -0.9693602323532104, -0.6698357462882996, 0.4029267728328705, 1.1276296377182007, 0.28964555263519287, 0.5650906562805176, 2.398463010787964, 0.6527785062789917, 1.2447192668914795, 0.7082152366638184, -0.27020180225372314, 0.5707055330276489, 1.161650538444519, 0.08545508235692978, 0.02708078920841217, 0.02314857393503189, 0.02926485240459442], [-0.015146397054195404, 0.047925256192684174, -0.0652514174580574, -0.07390084862709045, 0.06671997159719467, 0.08247586339712143, -0.07271696627140045, -0.04377291351556778, -0.0216895192861557, -0.04529257491230965, -0.08315026015043259, -0.07970619946718216, 0.00859688688069582, -0.33168119192123413, -0.4898846745491028, -0.0240667462348938, 0.03127384930849075, -0.034105025231838226, 6.70403242111206e-05, -0.004702292382717133, -0.00316736102104187, -0.0647883415222168, 0.05044057220220566, 0.052101410925388336, -0.008455589413642883, -0.028718605637550354, 0.023496821522712708, -0.03285222128033638, -0.011900268495082855, 0.0641130581498146, -0.023339636623859406, 0.0434136763215065, 0.18434405326843262, 0.19894807040691376, 0.49569976329803467, 0.9744136929512024, 1.247255563735962, 2.239091634750366, 0.7030265927314758, 0.7612361907958984, 0.9874747395515442, 0.20902548730373383, 0.299255907535553, -0.37496432662010193, -0.18269866704940796, 0.26396945118904114, 1.0237683057785034, 0.8186471462249756, 1.0256633758544922, 0.4837557077407837, 0.10431302338838577, -0.045580752193927765, -0.05731762945652008, -0.028650034219026566, -0.059846244752407074, -0.06724774837493896, -0.030597034841775894, 0.033458709716796875, -0.034925658255815506, 0.1506156325340271, 0.2356565147638321, 1.0236139297485352, 0.35482221841812134, 1.0003166198730469, 0.5504863262176514, -0.1624000370502472, 0.38593852519989014, 0.3833897113800049, -0.05027861148118973, 0.11675157397985458, 0.3527126610279083, -0.5957698822021484, 0.22512151300907135, 0.8760219812393188, 0.8717801570892334, 1.0519764423370361, -0.11497955024242401, 1.1022803783416748, 1.2132092714309692, -0.5867666602134705, -0.9837988018989563, -1.1746420860290527, 0.018875785171985626, -0.08389198780059814, 0.01393590122461319, -0.060131363570690155, -0.8200653791427612, -0.7118922472000122, -0.45683524012565613, 0.47958365082740784, -0.3695443570613861, -0.46459418535232544, -0.8773082494735718, -0.7120717167854309, 0.4778035879135132, 0.6000772714614868, 0.380332887172699, -0.2619436979293823, 0.43808239698410034, 0.807107150554657, 0.191877543926239, 0.1344929188489914, -0.3443947732448578, 0.7838554978370667, 0.7801265120506287, 0.7999462485313416, 0.9957721829414368, -0.20871120691299438, 0.7044055461883545, -1.316409945487976, -0.6011717915534973, -0.06868162751197815, -0.07836324721574783, 0.09349891543388367, -0.8922303318977356, -0.2677977383136749, 0.10254877060651779, -0.521783173084259, 0.18102510273456573, -0.7486265301704407, -0.2529415786266327, 0.1056261882185936, 0.3650784194469452, -0.02611367590725422, 0.3206007778644562, -0.6651713848114014, 0.14080370962619781, 0.19714273512363434, 0.5700308680534363, 1.0353182554244995, 0.6371054649353027, -0.14847825467586517, 0.7688696980476379, 0.49436792731285095, 0.3271121382713318, 0.17683933675289154, 0.704926073551178, 0.3792647421360016, -0.1315520703792572, 0.40910616517066956, -0.07011957466602325, 0.03705862909555435, -0.6642987132072449, -1.2111064195632935, -1.010039210319519, -0.8993918895721436, -0.19825458526611328, -0.035540852695703506, -0.3647759258747101, 0.00833973754197359, -0.2210288792848587, 0.39872944355010986, 0.7647836208343506, -0.09851182997226715, 0.3083963096141815, -0.018021997064352036, -0.04137662053108215, 0.5372442007064819, 0.9082934856414795, -0.2216261625289917, 0.3448788821697235, 0.04932321608066559, -0.9505053758621216, -0.426800400018692, 0.4624404013156891, -0.6041934490203857, -0.5632466077804565, 0.07552490383386612, -0.029163464903831482, -0.15938884019851685, 0.4958832263946533, 0.2891218662261963, 0.07593356817960739, 0.0015336137730628252, -0.40717613697052, -0.3534955382347107, 0.1035953238606453, -0.29617297649383545, -0.18635189533233643, 0.31518957018852234, 0.4924042522907257, 0.5271742343902588, 0.399736613035202, 0.02734883688390255, -0.3691916763782501, 0.01038158219307661, 0.7181779742240906, 0.16018272936344147, 0.6551205515861511, 0.8001066446304321, -0.13617172837257385, 0.25362151861190796, 1.2120578289031982, 0.6302608847618103, -1.1274999380111694, -0.45895394682884216, 0.05804084986448288, -0.603859007358551, 0.6084847450256348, -0.6583510637283325, -0.3917804956436157, 0.24523499608039856, -0.13575929403305054, -0.5324922204017639, 1.1411097049713135, 0.004207198973745108, -0.13461652398109436, 0.0517602376639843, 0.29531970620155334, 0.2884524464607239, -0.06343172490596771, 0.37052661180496216, 0.7993850708007812, 0.16869641840457916, 0.10027804225683212, -0.03694409877061844, -0.050124187022447586, -0.12529504299163818, -0.05640427768230438, 0.08964051306247711, 0.4277198612689972, 0.7849988341331482, -0.6939976215362549, -0.6872811913490295, 0.7511005997657776, -0.3827434182167053, 0.6652542948722839, -0.5798360109329224, -0.2270275056362152, 0.6806443333625793, 0.2552146017551422, 0.06175430864095688, 0.09650535136461258, -0.27327901124954224, -0.218022882938385, 0.20517459511756897, 0.2531270682811737, -0.2220938801765442, -0.8468834757804871, -0.27276739478111267, 0.049381330609321594, 0.12656138837337494, -0.4889305830001831, -0.08874676376581192, -0.5437464118003845, -0.02133466862142086, -0.3453037142753601, -0.08140992373228073, 0.0488116592168808, 0.26636651158332825, 0.635911762714386, 0.35159459710121155, -0.2380206137895584, 0.09279719740152359, -0.12574703991413116, -0.20935769379138947, 0.05542264133691788, -0.07779697328805923, -0.18262898921966553, 0.36890462040901184, -0.2139945924282074, -0.36275458335876465, 0.29246681928634644, -0.2750188410282135, -0.5935490727424622, -0.682335376739502, -0.47896724939346313, -0.26406431198120117, 0.08834229409694672, 0.20466357469558716, 0.4532668888568878, 0.26920557022094727, 0.012393437325954437, 0.6242430806159973, -0.2588213086128235, -0.8078765869140625, 0.27517861127853394, 1.2129133939743042, -0.7317028045654297, -0.4397229254245758, -0.22631244361400604, 1.432337760925293, -0.14609988033771515, 0.21055082976818085, 0.09832663834095001, -0.25148501992225647, -0.06617432832717896, 0.0432351790368557, -0.6871487498283386, -0.5496395826339722, -0.357997864484787, -0.6597409844398499, -0.20343707501888275, -0.2669277489185333, 0.5904803276062012, 0.5497798323631287, 0.102086141705513, -0.18262609839439392, -0.11964748799800873, -0.43519335985183716, 0.2021753340959549, -0.08145665377378464, -0.366726279258728, -0.020233947783708572, 1.5386403799057007, -0.44499483704566956, -0.4702554941177368, -0.7429789900779724, 0.13187669217586517, 0.8790991902351379, 0.4040188789367676, -0.36213818192481995, 0.14167550206184387, -1.048554539680481, -0.026960251852869987, -0.054458532482385635, -1.0262601375579834, -0.4868350625038147, -0.27551642060279846, -0.3827967047691345, 0.4297081530094147, 0.8806514739990234, 0.542413592338562, 0.34139272570610046, 0.6776244044303894, 0.41421589255332947, 0.1492237150669098, -0.035452473908662796, -0.23143331706523895, 0.2303706556558609, -0.5568109750747681, 0.26381778717041016, 0.7441295385360718, -0.8651460409164429, 0.4315057396888733, 0.16550084948539734, 0.14551942050457, -0.7024745345115662, -0.5564797520637512, 0.5847291946411133, 0.955589771270752, -0.2289978265762329, -1.1215306520462036, -0.9395909309387207, 0.010694130323827267, 0.29509881138801575, 1.0129281282424927, 2.19273042678833, 1.550780177116394, 1.6580877304077148, 0.7606066465377808, -0.3182082176208496, -0.004841637797653675, 0.2588437795639038, 0.10059661418199539, 0.1762329339981079, 0.6880587339401245, -0.6240227818489075, 0.8247942924499512, 1.6697190999984741, 1.2004417181015015, -0.7535814046859741, -0.7310020327568054, -0.1696479767560959, -0.1484242081642151, -0.4254818558692932, -1.0519211292266846, 1.1295067071914673, 2.937382221221924, 0.41461777687072754, 0.026511698961257935, 0.9750712513923645, 0.7342602014541626, 1.8109387159347534, 2.824824810028076, 1.7566367387771606, 1.2290503978729248, 0.653689444065094, 0.0041754660196602345, 0.2486049234867096, 0.13682794570922852, -0.2383318543434143, 0.04979643598198891, 0.7579072713851929, 1.647623896598816, -0.11362741142511368, 0.2538085877895355, 0.4524773061275482, -0.13087929785251617, -1.0710735321044922, -1.0196608304977417, 0.1478157639503479, 0.21185147762298584, -0.18856802582740784, -0.9273360967636108, 0.990609347820282, 2.8518686294555664, 3.275768518447876, 1.957149624824524, 3.0414202213287354, 2.8462419509887695, 2.8304412364959717, 0.657138466835022, 0.6361563205718994, 0.14067047834396362, 0.15332485735416412, -0.2681078612804413, 0.3019125163555145, 0.3812837302684784, 0.04600568860769272, -0.2683386504650116, -0.3405863642692566, -0.000975819188170135, -0.0832124650478363, -0.492788165807724, 0.7441113591194153, 0.040132854133844376, 0.004899237304925919, -0.6618627309799194, -0.9659090042114258, 0.03909700736403465, 0.2853299081325531, -1.099085807800293, 0.7695863842964172, 1.4834245443344116, 2.3949084281921387, 1.154227614402771, 1.967747449874878, 0.5706870555877686, -0.03538442403078079, 0.09357170760631561, 0.17883791029453278, -0.43476325273513794, -0.7495173811912537, -0.6561774015426636, -0.36211201548576355, 0.14791874587535858, -0.04729742184281349, -0.19869983196258545, -0.04211454465985298, -0.43298107385635376, -0.16748124361038208, -0.48193359375, -0.348050981760025, -0.4858957827091217, 0.3566467761993408, 0.2704038918018341, 0.1811123937368393, -0.2684858441352844, -0.3323354423046112, -0.4480911195278168, 0.26743730902671814, 0.7842301726341248, 0.5138390064239502, 0.0623333640396595, -0.015584366396069527, -0.22950628399848938, -0.5353522300720215, 0.06671469658613205, 0.5019888281822205, -0.1288372427225113, -0.618742823600769, -0.7133156657218933, 0.28793853521347046, -0.10148466378450394, -0.10432706028223038, -0.4059029221534729, 0.17136326432228088, 0.12270233035087585, -0.2936840355396271, -0.4617370367050171, -0.36206498742103577, 0.2572008967399597, 1.0750732421875, 0.04202955588698387, -0.17733356356620789, -0.08206184953451157, -0.24168632924556732, 0.6167238354682922, -0.3050048053264618, -1.1083145141601562, -0.10677812993526459, -0.827610433101654, 0.20919691026210785, 0.10511990636587143, -0.4395124316215515, 0.1996515989303589, 0.26698747277259827, -0.003786459332332015, -0.281259685754776, -0.794730544090271, -0.03543958440423012, -0.11271360516548157, 0.20116326212882996, -0.1550641506910324, -0.35303986072540283, -0.4149128496646881, -0.04869833216071129, 0.9390977621078491, 0.03766458109021187, 0.09531395137310028, -1.1265192031860352, -0.6544128656387329, -0.5361093282699585, -0.11531969159841537, 0.08479280024766922, 0.0648651197552681, -0.23734132945537567, -0.3558062016963959, 0.20916099846363068, -0.057372067123651505, 0.012601569294929504, 0.07664775848388672, 0.21918024122714996, 0.009689594618976116, 0.07713136076927185, -0.18621289730072021, -0.6090381145477295, -0.7052638530731201, -0.20762094855308533, -0.44837966561317444, -0.41616249084472656, -0.41716644167900085, -0.39125651121139526, -0.0932876467704773, 0.6612553000450134, 0.9560926556587219, 0.06628258526325226, -0.6195631623268127, -0.5399864912033081, 0.3043930232524872, -0.4333098232746124, 0.13657744228839874, 0.33377066254615784, 0.9032224416732788, 0.4678066074848175, -0.5461423993110657, -0.3083842992782593, -0.20710192620754242, 0.1658557504415512, -0.737305223941803, -0.2806191146373749, 0.020130770280957222, 0.4036978781223297, 0.15159280598163605, -0.7102799415588379, -0.571276843547821, -0.6973651647567749, -0.5526310801506042, -0.039219774305820465, 0.5726251602172852, -0.18105408549308777, -0.07871910184621811, 0.5146348476409912, 1.0899039506912231, 0.18253695964813232, -1.0293763875961304, -0.47083431482315063, -1.063294768333435, -0.2748537063598633, -0.04543299600481987, 0.286237895488739, 0.634093701839447, -0.11019746214151382, 0.052569322288036346, 0.30302751064300537, -0.28098636865615845, -0.7554774880409241, -0.15665507316589355, -0.2605935037136078, 0.047896772623062134, -0.38170066475868225, -0.511150062084198, -0.35815784335136414, -0.5116475224494934, -0.0018143898341804743, 0.03185514360666275, 0.013921321369707584, 0.605147659778595, -0.3949262797832489, -0.3859504759311676, 0.06595330685377121, 0.8184813857078552, -0.3458908796310425, -1.1147522926330566, 0.2283867746591568, -0.7439493536949158, 0.5949833393096924, -0.22229252755641937, -0.30494940280914307, 0.2989632785320282, -0.6731433868408203, -0.5202220678329468, 0.060841746628284454, -0.47428202629089355, -0.3454197645187378, 0.20801199972629547, 0.059841226786375046, 0.034956008195877075, -0.02861209586262703, -0.46783411502838135, 0.02233700267970562, -0.4318336546421051, -0.31622713804244995, 0.07929442822933197, 0.5687143802642822, 0.20733380317687988, -0.4415092468261719, -0.05973617732524872, 0.026810992509126663, -0.6781036853790283, -0.07805165648460388, 0.12543265521526337, -0.20732972025871277, 0.5270488262176514, 0.052008990198373795, -0.2510680854320526, -0.10508663207292557, -0.30464836955070496, 0.6165698170661926, -0.7984158396720886, -0.23355157673358917, 0.1629503071308136, -0.4371066093444824, 0.18150703608989716, -0.038513556122779846, 0.054869502782821655, -0.26707178354263306, 0.0730464980006218, 0.3246670365333557, 0.0654648095369339, -0.12590168416500092, -0.05755436047911644, 0.052907947450876236, -0.2570883333683014, -0.4746302664279938, -0.29580792784690857, -0.430477112531662, -0.5539746880531311, -0.1803552210330963, -0.19475027918815613, -0.14252053201198578, 0.4551078677177429, 0.027326175943017006, -0.03191648796200752, -0.06170283257961273, -0.07208941131830215, 1.6719356775283813, -0.10394971072673798, -0.6496186852455139, -0.38813313841819763, 0.14769069850444794, 0.2911778390407562, -0.1423754096031189, 0.2973308265209198, 0.052817706018686295, 0.0643431544303894, -0.07290837168693542, -0.0032784240320324898, -0.3729846477508545, -0.01892879046499729, -0.31665876507759094, 0.3071841597557068, 0.6173737645149231, 0.6855774521827698, -0.015333347022533417, 0.08732860535383224, -0.7818358540534973, 0.5814339518547058, -0.2740638256072998, -0.32452625036239624, -0.017016537487506866, 0.044116221368312836, 0.034440189599990845, 0.7470062971115112, -0.058832455426454544, -0.501114547252655, -0.4948023855686188, -0.48502466082572937, -0.0940391793847084, -0.10842343419790268, 0.0711962878704071, 0.48265060782432556, -0.1715608686208725, 0.24508409202098846, -0.08766424655914307, -0.7093786597251892, -0.1257713884115219, 0.13059014081954956, 0.1342974454164505, 0.22870872914791107, 0.06464342027902603, -0.4016556739807129, -0.2252887338399887, 0.6810587048530579, -0.18616250157356262, -0.7082371115684509, -1.5865787267684937, -0.5611148476600647, -0.04211115092039108, -0.060826726257801056, -0.06701622158288956, 0.7132667899131775, -0.31197690963745117, -0.7812461853027344, 0.3247630000114441, 0.242911696434021, 0.1593669056892395, -0.49067628383636475, -0.024860020726919174, 1.0178427696228027, 0.6475189924240112, 0.1448088139295578, 0.7482198476791382, -0.20402996242046356, -0.7530774474143982, -0.7965033054351807, 0.5080650448799133, 0.5504746437072754, 0.3212425708770752, 0.24951431155204773, 0.21687684953212738, 0.4989309012889862, 0.37020769715309143, 0.6557908654212952, 0.08741281181573868, -0.2286691814661026, -0.004171505570411682, 0.07776046544313431, -0.003802746534347534, -0.061640337109565735, 0.37253934144973755, 1.4519011974334717, 0.7797061204910278, 0.7439291477203369, 0.1633174866437912, -0.2090812474489212, 0.8669690489768982, 1.3445892333984375, 0.9892857074737549, 0.9035786390304565, -0.5848667621612549, 0.48737832903862, 0.3597148358821869, 0.5620362758636475, 2.2471959590911865, 0.508159339427948, 0.16878104209899902, 1.0593525171279907, 0.8738491535186768, -0.5828893780708313, -0.3749059736728668, 0.999184250831604, -0.12885519862174988, -0.008930400013923645, -0.02002786099910736, 0.015180893242359161, 0.022919438779354095, 0.01283494383096695, -0.04694307968020439, -0.10341597348451614, -0.4126369059085846, -0.35138484835624695, -0.41420117020606995, -0.3152652382850647, -1.6882973909378052, -1.8801556825637817, -1.1827510595321655, -0.9813922643661499, -1.4000592231750488, -0.5354889631271362, -0.3433738052845001, 0.1323515623807907, 0.035911645740270615, -0.019526036456227303, 0.4669595956802368, 1.042132019996643, 1.304587721824646, 0.9502198100090027, -0.7836394309997559, -0.008816339075565338, 0.05201216787099838, -0.038060784339904785, -0.05916827917098999], [0.08032230287790298, 0.03641556203365326, 0.052288882434368134, 0.0052964165806770325, 0.017764121294021606, 0.044352300465106964, 0.0015585720539093018, -0.010736465454101562, -0.06399054825305939, 0.05359681695699692, -0.026204541325569153, 0.014729462563991547, -0.08343654125928879, -0.042063336819410324, 0.34291282296180725, 0.019664449617266655, 0.002349652349948883, 0.0026960372924804688, -0.05997462570667267, 0.06311789900064468, -0.08313751220703125, 0.005973972380161285, -0.013281583786010742, -0.010212905704975128, 0.07705607265233994, -0.02955758199095726, -0.06916672736406326, 0.03161970525979996, -0.011059761047363281, -0.01620955765247345, -0.021542184054851532, 0.001394800841808319, -0.026369702070951462, -0.05452129989862442, 0.5755565762519836, 0.2203139215707779, -0.6827314496040344, -1.578724980354309, -0.35381338000297546, -0.13590861856937408, -0.06769896298646927, 1.1362022161483765, 0.9218894839286804, -0.606350839138031, -0.8179981112480164, -0.837084949016571, 0.4940660893917084, -0.17366646230220795, -0.1872873604297638, -0.2920118272304535, -0.20607008039951324, 0.013761546462774277, 0.008333921432495117, -0.026198647916316986, 0.00564005970954895, -0.07066649198532104, -0.022628404200077057, 0.043894730508327484, 0.0073419297114014626, -0.3495672643184662, -0.7616550326347351, -0.2793912887573242, 0.6495074033737183, 0.43167436122894287, -0.1639680564403534, 0.7761849164962769, 1.9362571239471436, 2.192272186279297, 0.9733869433403015, -0.18477773666381836, -0.43193569779396057, 1.1060675382614136, 0.8483515977859497, 1.7016081809997559, 1.824581265449524, 2.7133219242095947, 2.166086196899414, 2.5820417404174805, 0.8500044941902161, 1.0579617023468018, 0.4439294934272766, 0.3494061231613159, -0.03094286471605301, -0.00998784601688385, 0.06405659765005112, -0.009429991245269775, -0.10852647572755814, 0.5307325720787048, -0.5079022645950317, 0.8951486945152283, 1.7238484621047974, 2.6183571815490723, 1.2770816087722778, 1.5411909818649292, 1.1251332759857178, 0.26717495918273926, 0.8381097912788391, 1.1902403831481934, 0.47533121705055237, 0.9708213210105896, 1.5447951555252075, 0.7070165276527405, 1.2711378335952759, 0.8654337525367737, 0.5400360822677612, 0.05092519521713257, 0.8357133865356445, 0.5646310448646545, 0.7810601592063904, -0.03642019256949425, -0.03398171812295914, 0.04948025196790695, -0.046364184468984604, -0.005178073421120644, -0.0813475102186203, 0.24953477084636688, -1.0566027164459229, 1.9560977220535278, 0.7886539101600647, 0.6472955942153931, -0.38957861065864563, 0.47110432386398315, 1.6947999000549316, 0.09013384580612183, 0.137217715382576, 1.100111722946167, 1.183925986289978, -0.004975096322596073, 0.46604859828948975, 0.4163135290145874, 0.44876816868782043, 0.2557917833328247, 1.2028895616531372, 0.8428141474723816, 0.3585054874420166, -0.20294944941997528, 0.21377167105674744, 1.015394687652588, 0.7056628465652466, 0.007405890617519617, 0.040113694965839386, 0.034413501620292664, 0.5614764094352722, -0.7992825508117676, 0.16359035670757294, -0.06476279348134995, 0.30229851603507996, 1.106446623802185, 0.27890291810035706, -0.11234268546104431, -0.654071033000946, -0.7945143580436707, -0.043836984783411026, 0.9047932624816895, 0.4662286341190338, 0.29725953936576843, 1.23318350315094, 0.7054340243339539, -0.2294161170721054, 0.08541962504386902, 0.7941575646400452, 1.3083161115646362, -0.22176358103752136, 0.5368937253952026, 1.0915040969848633, 1.1148849725723267, -0.4285559058189392, 0.32927536964416504, -0.07477648556232452, 0.2079140841960907, -0.1018921434879303, 0.7276927828788757, -0.7006331086158752, -0.587001621723175, 0.3152143657207489, 0.28677278757095337, -0.4170807898044586, -0.11524371057748795, -0.11793198436498642, -0.40241849422454834, 0.37662094831466675, 0.32844334840774536, 0.8393967747688293, 0.7985526919364929, 0.8962522149085999, 0.6213625073432922, 0.06936142593622208, 0.03042025864124298, 0.22662490606307983, 0.5430971384048462, -0.45913130044937134, -0.22792385518550873, 0.4243306815624237, 0.24622862040996552, 0.03756767883896828, 0.638410747051239, -0.2563919126987457, 0.15661489963531494, 0.4828811287879944, 0.8871957659721375, 0.8593587279319763, -0.2832106947898865, 0.5523591637611389, 0.45924481749534607, 0.43202367424964905, -0.04189130291342735, -0.3808809518814087, -0.4390343725681305, 0.0665498748421669, -0.010947220027446747, 0.5568081140518188, 0.2679467499256134, -0.06294895708560944, -0.6293513178825378, -0.5773285031318665, -0.24569444358348846, 0.19636569917201996, -0.2335202842950821, -0.23783467710018158, 0.06418433040380478, 0.4166971743106842, 0.3846892714500427, 0.1245988979935646, 0.014172802679240704, -1.0518138408660889, 1.1845479011535645, -0.3837908208370209, 0.1315109133720398, -0.07411853224039078, 0.009343739598989487, -0.014131668955087662, -0.03410306200385094, 0.4367899000644684, -0.21157599985599518, 0.02073810249567032, 0.23117147386074066, -0.18549469113349915, -0.33522287011146545, -0.3729977607727051, -0.6851890683174133, -1.0156784057617188, -0.5597161054611206, -0.7427968978881836, -0.011277339421212673, -0.17774172127246857, -0.3612700402736664, 0.3502066433429718, -0.3735203146934509, 0.013803564012050629, 0.003993824124336243, 0.8285244703292847, -1.0383963584899902, -0.3990260064601898, -0.7152064442634583, 0.35384291410446167, 0.7317091226577759, 0.693895161151886, 0.263839453458786, 0.42433980107307434, -0.15957896411418915, 0.429997056722641, -0.06430887430906296, -0.2780078053474426, -0.15373454988002777, 0.17351576685905457, 0.18885713815689087, 0.30507519841194153, 0.00534407701343298, -0.5016080737113953, -0.2503299117088318, -0.49792519211769104, -0.13763852417469025, -0.40585413575172424, -0.07152820378541946, -0.4720500409603119, -0.8051101565361023, 0.4982834756374359, 0.8604110479354858, 0.16304197907447815, 0.593772828578949, -0.17669153213500977, -1.1880168914794922, 0.569523811340332, 0.4203101694583893, -0.6823003888130188, -0.08603473752737045, 0.01742909662425518, 0.22587452828884125, 0.028569858521223068, -0.20296595990657806, -0.06255032867193222, 0.010247744619846344, 0.1902123987674713, 0.23966754972934723, 0.27588576078414917, -0.36981576681137085, -0.2754672169685364, -0.21475030481815338, -0.220240518450737, -0.5213931202888489, -0.06825670599937439, 0.3911219835281372, -1.0837606191635132, -0.6976026296615601, -0.22705242037773132, 0.5095875859260559, -0.47275644540786743, -0.13651902973651886, -0.48786526918411255, -0.9936450719833374, 0.5196108222007751, 0.6160021424293518, 0.0037808960769325495, -0.7902575731277466, -0.36145782470703125, -0.1001276969909668, -0.16666501760482788, -0.6821885704994202, -0.4683380424976349, -0.40663111209869385, 0.14079736173152924, 0.1836278885602951, 0.4260514974594116, 0.5088574290275574, 0.20066702365875244, 0.07644162327051163, -0.23649048805236816, -0.20038247108459473, 0.29414498805999756, -0.4148924946784973, -0.5952137112617493, 0.14700861275196075, -0.32877829670906067, 0.018897555768489838, -1.0540266036987305, -0.498970627784729, -0.42465052008628845, -0.24516266584396362, -0.23854617774486542, -0.09054013341665268, 0.1063297688961029, -0.6808866262435913, 0.11196219176054001, -0.07727015018463135, 0.24988943338394165, -0.5566332340240479, -0.38300302624702454, -0.40178626775741577, -0.7081859707832336, -0.1950732171535492, 0.9391398429870605, 0.8514758348464966, 0.6600602865219116, 0.3526434302330017, 0.04170235991477966, -0.08318217843770981, -0.12722234427928925, -0.031760554760694504, -0.6318520903587341, 0.05771249905228615, 0.5890628695487976, 0.6007199287414551, -0.6501277685165405, 0.5250688791275024, -0.004370794631540775, -0.9703918099403381, 0.24602079391479492, 0.0644235610961914, -0.3733925521373749, -0.27367687225341797, 0.32479745149612427, -0.3383156359195709, 0.13817833364009857, -0.5764885544776917, -0.5274354219436646, -0.22246748208999634, -0.4800417125225067, 0.3068752884864807, 1.1568408012390137, 0.6331520676612854, 0.6380169987678528, 0.6927881836891174, 0.11879220604896545, -0.42927223443984985, 0.058586448431015015, -0.06840859353542328, -0.18416738510131836, 0.1721181422472, 0.2476988583803177, -0.4808359742164612, -0.08641441911458969, -0.00923692062497139, 0.2182779610157013, -0.7885310053825378, -0.4039710760116577, 0.7245997190475464, -0.39010316133499146, -0.5249373316764832, -0.2923054099082947, 0.06041640788316727, 0.035903699696063995, -0.4275568425655365, -0.7108997702598572, -0.661368191242218, -0.38780421018600464, 0.08233830332756042, 0.8375706076622009, 0.6011784076690674, 0.6700587272644043, -0.0397457517683506, -0.13732263445854187, -0.14884443581104279, 0.6126260757446289, -0.039198216050863266, -0.35959139466285706, 0.39238110184669495, 0.5770905613899231, -0.35957473516464233, 0.4016319513320923, 0.9626392126083374, 0.07403028011322021, -0.5172666311264038, -0.38203251361846924, 0.5928520560264587, -0.5640051960945129, -0.7311016321182251, 0.2757958173751831, -0.04484468325972557, -0.47421368956565857, -0.38520732522010803, -0.6917848587036133, -0.44829171895980835, 0.04416997730731964, 0.5065391659736633, 0.9912461042404175, 1.1105432510375977, 0.581161379814148, -0.33637329936027527, 0.00038667029002681375, -0.09263356775045395, 0.2590407729148865, -0.6793445348739624, 0.022792981937527657, 0.18580619990825653, 0.23626354336738586, -0.44565147161483765, -0.05507123842835426, 0.686808168888092, 0.021000752225518227, 0.4077734053134918, 0.4347822964191437, 0.7064439058303833, -0.5547931790351868, -0.15751105546951294, -0.7732031941413879, -0.8989455103874207, -0.3724451959133148, -0.5644634366035461, -0.46279793977737427, -0.5879100561141968, 0.2909512221813202, 0.8494234681129456, 1.0301681756973267, 0.6891295313835144, 0.31176337599754333, 0.07052195817232132, 0.4607127904891968, 0.31659314036369324, -0.11458897590637207, 0.15304122865200043, 0.3518734574317932, -0.21275898814201355, 0.42754480242729187, -0.09523319453001022, 0.4326935112476349, 0.28126654028892517, -0.026477418839931488, -0.13565264642238617, 0.02751314826309681, -0.26378196477890015, -0.08422935754060745, -0.037759169936180115, -0.08843614906072617, -0.21820349991321564, -0.05848389491438866, -0.7008352279663086, -0.7976662516593933, -0.26047152280807495, -0.07501831650733948, 0.6505604982376099, 0.06983973830938339, 0.17501221597194672, -0.32337486743927, -0.25018876791000366, 0.31786826252937317, 0.2759503126144409, -0.2718315124511719, 0.2911824882030487, 0.1752510964870453, -0.546502411365509, -0.2209705263376236, 0.5369274020195007, 0.26878008246421814, -0.834297776222229, 0.6415607333183289, -0.07466436177492142, 0.7819519639015198, 0.25865909457206726, 0.029061224311590195, 0.001779230427928269, 0.09560675173997879, 0.007296290248632431, 0.22670359909534454, -0.06105506420135498, -0.10763329267501831, 0.2216208279132843, 0.4168552756309509, 0.4683639109134674, -0.19752882421016693, -0.5103071331977844, -0.14830027520656586, 0.24486085772514343, 0.6461178064346313, 0.24300223588943481, -0.12191496789455414, 0.30776679515838623, 0.38439294695854187, -0.1647546887397766, -0.13045811653137207, 0.5658730864524841, 0.4429534673690796, 0.9238918423652649, 0.06575123220682144, 0.6959719061851501, 1.1755107641220093, 0.3306664228439331, 0.33762893080711365, -0.18379445374011993, -0.24524664878845215, 0.16481448709964752, -0.6007668972015381, 0.30694130063056946, 0.20821921527385712, 0.413086473941803, 0.3734677731990814, 0.705406665802002, 0.13382607698440552, 0.12965169548988342, 0.09228187799453735, -0.18035389482975006, -0.3316938579082489, -0.3129016160964966, -0.1050361916422844, -0.009490090422332287, -0.256998747587204, -0.5902285575866699, -0.10820411145687103, -0.060256943106651306, 0.802211582660675, 0.5913114547729492, 0.05752512067556381, -0.9261215925216675, -0.01583068259060383, 0.9529332518577576, 0.05273869261145592, -0.4475436210632324, 0.042760878801345825, 0.6074231863021851, -0.21728532016277313, 0.3349970281124115, -0.010202187113463879, -0.04904455691576004, -0.327518105506897, -0.4661787450313568, 0.38327860832214355, 0.24289865791797638, -0.15418195724487305, 0.07461828738451004, 0.18720337748527527, -0.036887750029563904, 0.1562233418226242, 0.06889771670103073, 0.029144253581762314, -0.10724367946386337, 0.061316490173339844, -1.5746960639953613, 1.6274113655090332, 0.09730704128742218, 0.09187977761030197, 0.28390204906463623, -0.3133706748485565, 1.2559667825698853, -0.23402099311351776, -0.0934445708990097, -0.4401015043258667, -0.04059242829680443, -0.0671217292547226, -0.14757724106311798, -0.009002603590488434, 0.20037171244621277, 0.17875151336193085, 0.06758150458335876, 0.3655320107936859, 0.02331828884780407, 0.012871427461504936, 0.19301196932792664, 0.42406126856803894, 0.15550866723060608, 0.037833020091056824, 0.031249510124325752, -0.4428154230117798, 0.2912812829017639, -0.5539796948432922, -1.0119719505310059, -0.44528403878211975, -0.4847988188266754, 0.07995941489934921, 0.11903030425310135, 0.022619951516389847, 0.543860137462616, -0.378876268863678, 0.29029619693756104, 0.5461288094520569, -0.10192738473415375, 0.22368499636650085, -0.044195983558893204, 0.4179638922214508, 0.4199099540710449, -0.027986489236354828, 0.1341550499200821, -0.2073086053133011, -0.0777302086353302, -0.2603783905506134, -0.30456557869911194, 0.0647866278886795, -0.006993832066655159, 0.3130716383457184, -0.2326277643442154, 0.02391844615340233, -0.11758244037628174, -0.0421452671289444, -0.5917885303497314, -1.3342686891555786, -0.6065308451652527, 0.022807106375694275, -0.06016116589307785, -0.5144036412239075, -0.08110568672418594, 0.36745259165763855, 0.23660267889499664, 0.3213464617729187, 1.1096775531768799, 0.37084147334098816, 0.43624988198280334, 0.30732133984565735, -0.17001600563526154, -0.3158152997493744, 0.1464805155992508, -0.4188399314880371, 0.17243096232414246, -0.6748982667922974, -0.5242999196052551, -0.1537332534790039, -0.032488565891981125, 0.27006134390830994, 0.3886249363422394, 0.4314233064651489, 0.09829742461442947, -0.23503276705741882, 0.31338736414909363, -0.8502642512321472, -0.07241716980934143, 0.05495452135801315, 0.05758257955312729, -0.23329313099384308, 0.7526825070381165, 0.019894437864422798, 0.7316086292266846, 0.5552511811256409, -0.3639787435531616, -0.508858323097229, 0.04144149273633957, 0.45612573623657227, -0.4839757978916168, -0.11525607109069824, 0.4013615846633911, 0.5204424858093262, 0.302949994802475, -0.008126482367515564, -0.3032837212085724, -0.47637468576431274, -0.607283353805542, -0.17156124114990234, -0.09039591997861862, -0.01651492714881897, 0.2509756088256836, 0.12022318691015244, 1.0543549060821533, 0.5514925718307495, 0.03536546230316162, -0.039770789444446564, -0.06478369235992432, -0.2397996187210083, 0.03261605650186539, 0.9433284997940063, 0.6033288240432739, 0.5096734166145325, 1.1421689987182617, 1.0049165487289429, 0.5401917695999146, 0.3867092430591583, 0.1093282699584961, 0.9488486647605896, 0.7788240313529968, 0.26770225167274475, -0.4197387099266052, -0.3007528781890869, -1.5561777353286743, -1.1287726163864136, 0.02297312207520008, 0.3460943102836609, -0.8495122194290161, -0.21842777729034424, -0.6395020484924316, -1.1900804042816162, -0.19683226943016052, 0.14385099709033966, -0.024744320660829544, -0.0232972651720047, 0.039819829165935516, 0.05298345535993576, -0.16793428361415863, -1.6358473300933838, -0.16781318187713623, -0.16302868723869324, -0.03496614843606949, 0.8436650633811951, 0.5606932640075684, 0.28766825795173645, 0.47966355085372925, 0.16538210213184357, 1.4690167903900146, -0.4311882555484772, -0.07867095619440079, 0.4223519265651703, -0.8987442255020142, -0.6382206678390503, 0.1872549206018448, 0.880467414855957, -0.30883654952049255, 0.7733844518661499, -0.034025367349386215, -0.42839315533638, 0.13297778367996216, -0.07735738158226013, 0.07288581877946854, 0.021830305457115173, 0.030396781861782074, 0.0014641731977462769, -0.05083020403981209, 0.21378853917121887, 0.6296428442001343, -0.2973395586013794, 0.07095006853342056, 0.12923851609230042, 0.41761040687561035, 0.7925205826759338, -0.2623600959777832, 0.25617295503616333, 1.1734619140625, 0.5221373438835144, 0.02963216044008732, 0.8086122274398804, 0.7771292924880981, 0.08546963334083557, 0.8175088167190552, 0.18012697994709015, -0.4604387879371643, 0.6846705079078674, 0.794918417930603, -0.04914037883281708, 0.019687741994857788, 0.028645344078540802, 0.05389808863401413], [0.0612884983420372, 0.032597482204437256, -0.04334258660674095, 0.022245921194553375, -0.011277228593826294, -0.016165360808372498, 0.06743112951517105, 0.06724614650011063, 0.0611431822180748, -0.007464773952960968, -0.05465551093220711, -0.05714212357997894, -0.4040805995464325, -0.024499353021383286, 0.662278950214386, 0.19161778688430786, 0.01388385146856308, -0.008627571165561676, 0.02181638777256012, 0.07511390000581741, -0.07801444828510284, 0.07900864630937576, 0.019580692052841187, 0.00891907513141632, 0.0673261508345604, -0.01740332692861557, 0.019385330379009247, 0.0770673081278801, 0.07014761120080948, -0.07771250605583191, -0.050528302788734436, 0.04388461261987686, 0.08362019062042236, 0.14988575875759125, 1.1940468549728394, 0.6156737208366394, 0.5159759521484375, -0.967065155506134, -0.5926028490066528, -1.106528401374817, -1.1700795888900757, 0.25153639912605286, -0.8774731755256653, -0.29527854919433594, 0.49116307497024536, 0.525641918182373, -0.46892717480659485, -0.8908007740974426, -1.0054984092712402, -1.2158591747283936, -0.014379449188709259, 0.3475733995437622, 0.010493084788322449, 0.04773622006177902, 0.01269444078207016, -0.05179549381136894, 0.03199760615825653, 0.011881113052368164, -0.20344462990760803, 0.44160196185112, -0.015587462112307549, -0.6129615902900696, 0.45599818229675293, 0.5181416273117065, 0.014883182011544704, 0.5235664248466492, -0.06895970553159714, 0.10216616839170456, 0.416329562664032, 0.8646203279495239, 0.8647456765174866, 1.277727723121643, 1.2204054594039917, 0.7766013145446777, -0.22062698006629944, -1.3930071592330933, -0.1601646989583969, -0.5784122347831726, -1.2581894397735596, 0.03504152595996857, 0.48576536774635315, 1.2388274669647217, -0.01480361819267273, -0.0810595452785492, -0.0251476913690567, -0.05693691968917847, 0.4645417630672455, 0.5279853940010071, -0.44205281138420105, 0.9319444298744202, 0.8546103239059448, -0.39910486340522766, 0.7370509505271912, 0.8133461475372314, -0.39157789945602417, 0.1733732670545578, 0.5760118365287781, -0.00312194530852139, -0.19827008247375488, 0.4840703308582306, 0.7770598530769348, 0.5955100059509277, 0.14326375722885132, -0.6414173245429993, -0.41151532530784607, -0.005474146455526352, -0.675485372543335, -0.5263155698776245, -0.0833771675825119, 0.14564630389213562, 0.274865061044693, 0.03801219165325165, -0.04678376764059067, -0.01154106855392456, 1.2210297584533691, -0.20132596790790558, 1.212162733078003, 0.06101258099079132, 0.07397764921188354, -0.4196634888648987, 0.008037102408707142, 0.6471382975578308, -0.17204757034778595, -0.03300342336297035, -0.3857029378414154, -0.9337913393974304, -0.2547961473464966, 0.4122040569782257, 0.485930472612381, -0.07196774333715439, 0.05627758428454399, 0.008812883868813515, 0.14175549149513245, -0.02257927507162094, 0.44156554341316223, -0.6933935284614563, -0.3118354380130768, -1.1266340017318726, -0.4120508134365082, -0.6999998092651367, -0.06277436017990112, -0.07882563024759293, -0.23821468651294708, -0.29254812002182007, -0.7930686473846436, 0.37874090671539307, 0.09116903692483902, -0.3167566657066345, 0.46378859877586365, 0.1652955561876297, 0.4621447026729584, 0.38003140687942505, -0.0988910123705864, -0.01632295735180378, -0.0430007241666317, 0.38361024856567383, 0.19444207847118378, 0.07119191437959671, 0.008506042882800102, 0.09252971410751343, 0.029493045061826706, 0.5891443490982056, -0.3814849555492401, 0.7550795674324036, 0.009269967675209045, -1.1492769718170166, -0.6598861813545227, -0.7208428382873535, 0.035411134362220764, 0.43754443526268005, 0.07702769339084625, -0.8985013961791992, -0.8549802899360657, -0.577804684638977, -0.2308937907218933, 0.03317347541451454, -0.36298710107803345, -0.3184047341346741, 0.702300488948822, 0.3332427740097046, -0.05467647314071655, -0.022550608962774277, -0.23112548887729645, -0.20149576663970947, -0.38234055042266846, 0.03651060536503792, -0.14022918045520782, -0.0022679236717522144, 0.3938392698764801, -0.4293995499610901, -0.3351737856864929, 0.25130924582481384, 0.14637979865074158, -1.0005793571472168, -0.3108136057853699, -0.07261531054973602, 0.06060187518596649, 1.236638069152832, -0.3710508942604065, -0.9104148149490356, -0.7842794060707092, -0.3330272436141968, -0.4244241714477539, 0.641288697719574, 0.32017645239830017, 0.4705381691455841, 0.06459160894155502, 0.16357721388339996, 0.3392474055290222, 0.19787074625492096, 0.27861061692237854, 0.011260192841291428, -0.046999651938676834, 0.1325959861278534, -0.10516060888767242, 0.3336694538593292, 0.35965514183044434, -0.027917785570025444, 0.23097023367881775, 0.42586103081703186, -0.17064131796360016, -0.23781317472457886, 0.2949717044830322, 0.014568119309842587, 0.03221607580780983, 0.14955748617649078, -0.7170115113258362, 0.6806174516677856, 0.024995919317007065, -0.18526141345500946, -0.15775996446609497, 0.07029861211776733, 0.0269487202167511, -0.3203330636024475, 0.25469791889190674, 0.5895422101020813, 0.6253541111946106, 0.025196751579642296, 0.062273118644952774, -0.29638049006462097, -0.24035675823688507, 0.44942864775657654, 0.6619523167610168, -0.06906356662511826, 0.2078399658203125, 0.26621854305267334, 0.391728937625885, 0.16705241799354553, -0.5635995864868164, -0.4002517759799957, -0.03116576187312603, 0.253216952085495, 0.1422165483236313, -0.4003896713256836, 1.245289921760559, -0.19974486529827118, -0.2690662741661072, -0.3477056920528412, 0.173822283744812, 0.5891280174255371, 0.22729116678237915, -0.6077322959899902, 0.34686699509620667, 0.29968973994255066, -0.6014589071273804, -1.863798975944519, -1.6428922414779663, -0.8222712278366089, -0.05869835987687111, 0.17439372837543488, 0.3431341052055359, -0.5394203662872314, 0.23717744648456573, 0.15615321695804596, -0.6008090972900391, 0.37229904532432556, -1.0999785661697388, 0.27367112040519714, 0.001370514859445393, -0.2724262475967407, 0.03218356892466545, -0.6495329737663269, 0.49640384316444397, -0.6736901998519897, -1.2346816062927246, -0.3977990746498108, -0.21286343038082123, -1.5019280910491943, -1.2242883443832397, -2.49613356590271, -2.7460784912109375, -3.094132423400879, -3.2717792987823486, -2.6173388957977295, -1.6391936540603638, -0.9204183220863342, -0.14846636354923248, 0.24565741419792175, 0.22625532746315002, -0.40860286355018616, -0.13395355641841888, -0.17390649020671844, 0.030162880197167397, -0.23235958814620972, -0.6533113718032837, 0.8579000234603882, 0.7534180283546448, 0.18041670322418213, 0.13129539787769318, 0.5190887451171875, -1.2348918914794922, -1.6805119514465332, -3.0234498977661133, -3.4555776119232178, -2.5166571140289307, -2.9271039962768555, -4.41501522064209, -4.605280876159668, -2.9822967052459717, -2.9457783699035645, -1.6978260278701782, -0.43031421303749084, -0.10010683536529541, 0.6114588379859924, 0.16115702688694, 0.5562750697135925, -0.12031378597021103, -0.31776928901672363, 0.3047328591346741, -0.0013802318135276437, -0.10532218962907791, -0.8112394213676453, -0.5390146970748901, -0.413921594619751, -0.3597510755062103, -0.23097844421863556, 0.006031799595803022, -0.6776703596115112, -0.7914894223213196, -1.4355820417404175, -2.661992073059082, -2.915745735168457, -2.5961101055145264, -2.3031668663024902, -1.4789783954620361, -0.20573213696479797, 0.31805622577667236, -0.16398760676383972, 0.17447642982006073, -0.04541102424263954, 0.37399670481681824, 0.2709410786628723, 0.03984592854976654, -0.055879656225442886, 0.15251632034778595, -0.31941014528274536, -0.15970483422279358, -0.02989339455962181, -0.6599754095077515, -0.9244328141212463, 0.12649330496788025, 1.1846494674682617, 0.3200570344924927, -1.1355578899383545, 0.12146341055631638, -0.8467127680778503, 0.7612502574920654, -0.4538154602050781, -0.25982075929641724, -0.5040522813796997, 0.25934886932373047, 0.7790882587432861, 0.7299351692199707, 0.35778772830963135, 0.40203049778938293, 0.4059930443763733, 0.07723017781972885, 0.21631520986557007, -0.06006985902786255, -0.42217522859573364, -0.21606896817684174, 0.5370015501976013, 0.4092960059642792, -0.43730852007865906, -0.1016509160399437, 0.2228282392024994, -0.09383714199066162, 0.3404662311077118, -0.37703773379325867, 0.013870800845324993, 0.30534955859184265, -1.1834758520126343, -0.19662772119045258, -0.6296666860580444, -0.002285305643454194, -0.5747793316841125, 1.5239835977554321, 0.5728626251220703, 1.9066039323806763, 1.098821997642517, 0.21697376668453217, 0.7240324020385742, 0.07462863624095917, -0.021948734298348427, 0.3408593237400055, 0.027665168046951294, 0.2557499408721924, 0.06443699449300766, 0.029248060658574104, -0.04779209569096565, 0.6939557790756226, 0.13046135008335114, 0.027689678594470024, 0.2246798872947693, 0.0793990045785904, -0.5342015027999878, -0.6401434540748596, 0.15800540149211884, -0.9157344698905945, 0.1295643299818039, -0.11138628423213959, 0.41970425844192505, 0.11688362807035446, -0.07103422284126282, 1.157954454421997, 1.432242751121521, 1.2552605867385864, -0.395486444234848, 0.1635015606880188, 0.0015635148156434298, 0.13993647694587708, -0.12996913492679596, -0.2539660930633545, 0.1300506591796875, -0.2585616707801819, -0.05714692547917366, 0.25414565205574036, -0.3806234300136566, 0.20328152179718018, 0.09208539873361588, 0.011198682710528374, 0.2663052976131439, -0.8060882091522217, -0.5523974895477295, -0.7117698788642883, 0.42924588918685913, 0.3321673274040222, 0.8335590362548828, 0.06781382858753204, 0.8928692936897278, -0.15932777523994446, 0.6245566606521606, 1.07162606716156, 0.6637985706329346, 0.08930842578411102, -0.19436359405517578, -0.14553701877593994, -0.20462869107723236, 0.027935627847909927, 0.23487791419029236, -0.21205557882785797, 0.25933244824409485, 0.21653306484222412, 0.23132379353046417, 0.014952673576772213, -0.22817443311214447, 0.32129645347595215, -0.3265817165374756, -0.31066522002220154, 0.11010114848613739, -0.3636140525341034, -0.36667823791503906, -0.0034924212377518415, 0.0002221326867584139, -0.4973413944244385, 0.6049845814704895, 0.07592757791280746, 0.17378993332386017, -0.2384381741285324, -0.0576874315738678, 0.24111288785934448, 0.004501914139837027, 0.13011592626571655, -0.3022676110267639, 0.12074753642082214, -0.07314907759428024, 0.2743307948112488, 0.3091038465499878, 0.17782558500766754, 0.09643720090389252, 0.40841764211654663, -0.08494625240564346, -0.37625473737716675, -0.0831729844212532, 0.1888108104467392, 0.09103064984083176, -0.08426745980978012, -0.19068409502506256, -0.000872073695063591, -0.7884421944618225, -0.25123271346092224, -0.03253629431128502, -0.9624298214912415, 0.16690044105052948, 0.7724573016166687, 0.10205826163291931, 0.22248204052448273, 0.8551529049873352, -0.001398261170834303, -0.33977022767066956, 0.25731050968170166, 0.008864540606737137, 0.2505761981010437, 0.32417961955070496, -0.33756357431411743, -0.13446144759655, -0.06561781466007233, 0.5386147499084473, 0.24779891967773438, -0.11963694542646408, 0.04132578521966934, 0.17262914776802063, 0.039123110473155975, 0.47823554277420044, 0.6544589996337891, -0.062360070645809174, 0.6684820652008057, -1.1788973808288574, 0.522666335105896, 0.4047432839870453, -0.36972010135650635, 0.8182618021965027, -0.28420335054397583, -0.25324687361717224, -0.39730754494667053, 0.39863309264183044, 0.3357485830783844, 0.2753385007381439, 0.2915295362472534, 0.14806261658668518, -0.26731693744659424, -0.23069235682487488, -0.6089744567871094, -0.04375584051012993, 0.0900561511516571, 0.6612203121185303, 0.2684008777141571, 0.2865019142627716, 0.016978556290268898, 0.490810751914978, -0.07195809483528137, 0.06459970772266388, 0.13128429651260376, 0.12304991483688354, 0.2118997871875763, 0.18611201643943787, 0.9929240942001343, -0.36195310950279236, 1.5952770709991455, -0.3061334788799286, 0.0003500059247016907, 0.0351075641810894, -0.20197530090808868, 0.2498755306005478, 0.6999929547309875, -0.4431407153606415, -0.08795864135026932, -0.055036649107933044, 0.12068402767181396, -0.03942686319351196, 0.08731061965227127, 0.117615707218647, 0.15943673253059387, 0.293039470911026, 0.8741719126701355, 0.13069497048854828, 0.03771570324897766, 0.07127987593412399, -0.0076806736178696156, 0.038829684257507324, 0.05224139615893364, -0.20035062730312347, -0.6379359364509583, -0.7131602764129639, 0.4576261043548584, -0.48814621567726135, 0.4890345335006714, -1.0391840934753418, 0.013945396989583969, 0.997797966003418, 1.7080398797988892, -0.13552525639533997, 0.21094410121440887, 0.14759644865989685, 0.1366201788187027, -0.04692457243800163, 0.02727525308728218, 0.3698727786540985, 0.4626040458679199, -0.492766410112381, -0.6304014325141907, -0.28419986367225647, 0.0425153449177742, 0.0047383964993059635, 0.053984254598617554, -0.1836710274219513, 0.31459829211235046, 0.10661264508962631, 0.1816362589597702, -1.0202945470809937, -0.8739649653434753, 0.7024496793746948, 0.7890698313713074, -0.8314006328582764, 0.15188634395599365, -0.09800499677658081, 0.08662626147270203, -0.04138070344924927, 1.7417603731155396, -0.3349478542804718, -0.11036389321088791, -0.18291398882865906, -0.04460867866873741, -0.42433279752731323, 0.15363375842571259, 0.047859713435173035, -0.3362064063549042, -0.5649353861808777, -0.9750092625617981, -0.446302592754364, 0.0916864350438118, 0.27024370431900024, 0.18745911121368408, 0.4182288646697998, -0.026843270286917686, -0.01581021212041378, 0.005663704127073288, -1.0864031314849854, -0.7509834170341492, 0.16976121068000793, 0.18430200219154358, -0.3147180676460266, 0.5983974933624268, 0.028327427804470062, -0.007425941526889801, 0.015804223716259003, 1.6733813285827637, -0.35251861810684204, -0.688784658908844, 0.4543458819389343, 0.15368564426898956, 0.26861339807510376, 0.368160218000412, 0.1461135745048523, -0.2649264931678772, -0.24631209671497345, -0.2737957239151001, 0.17725218832492828, -0.0754060372710228, -0.1345563530921936, 0.3554185926914215, -0.2893957495689392, -0.38730230927467346, 0.23014689981937408, 0.7135241031646729, -0.13492976129055023, 0.6677444577217102, 0.5883463025093079, -0.23297829926013947, 0.03341624513268471, 0.8896434307098389, 0.058649323880672455, 0.027173683047294617, 0.0455208495259285, -0.6308587789535522, 1.2814867496490479, -0.5060698390007019, -0.5699395537376404, -0.02937711402773857, 0.028110183775424957, 0.3282843828201294, 0.12448357045650482, 0.1301567703485489, -0.007405709940940142, -0.4687221348285675, -0.29956305027008057, -0.34040069580078125, -0.43223950266838074, 0.06752223521471024, 1.3358038663864136, 0.7123504281044006, -0.06794679909944534, 0.958450436592102, -0.7497029900550842, 0.13490056991577148, -0.1910855919122696, -0.7455728054046631, 0.16954873502254486, 0.23696500062942505, -0.05585349723696709, -0.03138035535812378, 0.041162483394145966, -0.7118044495582581, -0.47512802481651306, 1.4450180530548096, 0.22559022903442383, 0.5390011668205261, -0.06986957043409348, 0.015906626358628273, 0.7449814677238464, 0.9155671000480652, -0.04121720418334007, 1.253814935684204, 0.2586895525455475, -0.5086975693702698, -0.6552507877349854, -0.30083727836608887, 0.07241428643465042, 0.585268497467041, -0.3872717320919037, -0.03628469631075859, -0.44163134694099426, 0.5167471170425415, -0.745769202709198, -1.0931565761566162, 0.0021056600380688906, 0.24595560133457184, 0.0749233290553093, -0.04453836381435394, 0.04771905392408371, 0.07554271072149277, -0.34013041853904724, -0.46241575479507446, -0.6422445774078369, -0.6821288466453552, -0.2446218729019165, 1.036845088005066, 0.6232962012290955, 1.1422457695007324, -0.1319761425256729, -0.10252118110656738, 0.9169515371322632, 0.09096600115299225, -0.32908281683921814, 0.34519749879837036, 0.47366347908973694, 0.43963080644607544, -0.7232439517974854, 0.013515888713300228, -0.4370870292186737, 0.050498250871896744, -0.925724446773529, -0.730414092540741, 0.1107538640499115, -0.05841529369354248, -0.05499865859746933, -0.0019046515226364136, -0.03702511638402939, 0.06851137429475784, 0.05394405871629715, 0.09063339233398438, -0.01042027585208416, 0.09373164176940918, 0.09170404076576233, -0.228677436709404, 0.1027834415435791, 1.2495404481887817, 0.9736906886100769, -1.8651809692382812, -1.4022988080978394, -0.6201009750366211, -0.9316666126251221, -0.22775286436080933, 0.04318182170391083, -0.41049784421920776, -0.6688541769981384, -0.4090432822704315, -0.46360042691230774, -0.6083613634109497, 0.026154661551117897, -0.05949900299310684, -0.06019481644034386, -0.02994959056377411, 0.06687083095312119], [0.07894017547369003, -0.06070505455136299, -0.06782618910074234, -0.019685938954353333, -0.04376732558012009, 0.0714026466012001, 0.08179124444723129, -0.011759914457798004, 0.05677277594804764, 0.050686247646808624, -0.056059688329696655, -0.06445454061031342, -0.09543264657258987, 0.0034716224763542414, -0.017882991582155228, -0.008850764483213425, 0.06838532537221909, -0.03224346414208412, -0.04992897808551788, 0.04553406685590744, 0.034852705895900726, 0.032523319125175476, 0.05536153167486191, 0.08483272045850754, 0.055097080767154694, 0.06481926888227463, -0.006700165569782257, -0.022715747356414795, -0.022984489798545837, 0.08242688328027725, -0.02052333950996399, 0.035166315734386444, -0.14571300148963928, -0.11743006110191345, -0.09677319973707199, -0.1385754942893982, 0.04486545920372009, -0.17670083045959473, -0.3035504221916199, -0.43634146451950073, -0.2378615438938141, -0.5382225513458252, -0.32464832067489624, 0.056419387459754944, -0.038839008659124374, -0.18145672976970673, -0.27716952562332153, 0.05377887934446335, 0.0986904501914978, 0.053809769451618195, 0.028350869193673134, 0.10300643742084503, -0.07365746796131134, 0.0777280256152153, -0.024188928306102753, 0.01997341215610504, 0.07102412730455399, -0.011233977973461151, 0.03793333098292351, 