{"sizes": [784, 30, 30, 10, 10], "weights": [[[0.010851372761856548, 0.012875048421002531, 0.0011008586834088722, 0.0007803994901593477, -0.0034278092417972116, -0.0012648201514375032, 0.005749738749344018, 0.007555360684372764, 0.0021457876478981576, -0.0021176761225821794, -0.00019387613546079715, 0.0074703725151550856, -0.007484803649156317, 0.0009257531793315487, -0.0035252443874398023, 0.0033215927806589897, -0.00579778216906845, 0.007395341566451875, 0.0003871732596116796, -0.01680459050677015, -0.0016946569880142027, -0.011420661264478858, -0.017178622273921258, -0.001440006269478558, -0.0059426823704143905, -0.0031776351138561062, -0.0013726193734463648, -0.005911623333228292, 0.0007853480184458103, -0.00945758237987567, -0.0057843376058551044, -0.013110908641865327, -0.004175278102156639, -0.017578403280566413, 0.015536509129678843, 0.03495649143302713, 0.024475188694934712, -0.006409650811676081, -0.0005154615385924743, 0.017493491577025604, 0.008576955059625415, 0.009434262563186422, -0.009930078783690528, 0.018553913522546765, 0.07902431837350041, 0.021088401572916797, 0.013356845576611931, -0.001547197024617123, -0.02007329491953737, -0.0204748854711928, 0.019678072686795004, 0.006352376256185426, -0.0019127717812426398, -0.015374316900018172, 0.004492645703658948, 0.0003163114682040062, -0.0032579844845938436, 0.00545129994113797, 0.003636409529450481, 0.006662835047096321, 0.006736930513452837, -0.008953222424879104, 0.017636738688643357, 0.04333531761013361, 0.06657195744703294, 0.054624930060810546, 0.11159142741658738, 0.1937355625710625, 0.19814769596891374, 0.10666506567015978, 0.02829486653133895, -0.021721463257711786, 0.07352477611322664, -0.056726020724835194, -0.07593497092300158, -0.09085098028211579, 0.004602341753531019, -0.043366541757515184, -0.0591969877410289, 0.020460531089473356, 0.044466802961394894, 0.008287789690146407, 0.004159136249555621, -0.009644628312474172, -0.009633791204776792, -0.0038105819703080465, -0.011766200723196672, -0.002342590982033999, -0.012023192599363514, -0.0019508349181370439, 0.1615646059566996, 0.1525709557481918, 0.24028648745302228, 0.4055430555413467, 0.23171140325683176, 0.16858894054880583, 0.17918181662546728, 0.50259994811341, 0.2669767083054911, -0.1626327006697893, -0.0008172776506225095, 0.11055816107292774, -0.10380013180713543, -0.14643522759294425, -0.05587649757168678, -0.1161475592400987, -0.11218621149111256, -0.04565829887901972, 0.007229440773881118, 3.505609017117395e-05, 0.009770643917594517, 0.001361287054185502, -0.008235160982990515, -0.018300527599486225, 0.009657267853306903, 0.004457052194683153, -0.005054216639036524, 0.0016740043858266029, 0.15090853506516444, 0.004421706764643404, 0.10522398660645882, 0.21965261151054447, 0.25692678408787833, 0.008467965463614576, -0.04874104086804206, -0.2752341266691489, -0.12956423958013769, -0.1233843531895665, -0.034421324260980574, 0.0040572118588342206, -0.0020062026303640903, 0.01387352090201787, -0.16586600669047322, -0.2876992079960882, -0.2355194383402615, -0.1931918849760282, -0.09220236235845379, 0.010698508565536132, -0.0121361786933775, -0.004014404094454098, -0.002876476006366561, -0.011886202892027417, 0.0068613705065029024, -0.02971423156008748, -0.009818625739298984, 0.015245079024378178, 0.16542661454241436, 0.09973565979331464, -0.09767554691253405, -0.09427164002867007, -0.034362851618612765, -0.08502608114426893, 0.02382621802849454, 0.09788083562405887, -0.43694434903002377, -0.3585514298944917, -0.057897499507050774, 0.06000936485824911, 0.26564982019304123, 0.32627609688428744, 0.10262421227897182, -0.054697116307305955, -0.09219627774588973, -0.05301042819424337, 0.08970249552295653, 0.0561170385350051, 0.007689171222146981, 0.001984032545540395, -0.001069239086335772, -0.003682592348467254, 0.013937393083291429, -0.013022379615926298, 0.015031142237125452, 0.03972167404994868, 0.08005095434883626, 0.1480805988910847, -0.24312035552561007, -0.19725651462740665, -0.014640400499713161, 0.11655269549944984, -0.1917802639455068, -0.05092632624129981, -0.41635097913085606, -0.1440058227686007, 0.37515362041784917, 0.10324848749485448, 0.06556967143352596, -0.03548512244336826, 0.0050337673864609325, -0.06808370245115172, -0.08494541308892728, -0.14011804199635117, -0.024027762221345454, 0.02645243340718436, -0.025247549269009226, -0.010706041315304164, 0.009315980872045312, 0.004419993292209757, 0.008917432164669902, -0.0550416528478787, -0.006974792357328569, -0.16477705121325165, -0.04908741575844788, -0.03369395220394776, -0.14534921043023355, -0.20348245087608666, 0.11846855608611306, 0.2749500944984406, 0.11145137326216227, -0.1946317530147403, -0.17427762216866607, -0.001944264874244421, -0.019294625084280256, -0.1413787607010658, -0.1654143954805214, -0.13340164143742583, -0.094934339221965, -0.15429446256103563, -0.020745809831548685, -0.2880919254299038, -0.0145194614983396, 0.12436386060845875, -0.03650363797157487, -0.020962738067105895, -0.002103416274788359, -0.008817987072544484, 0.023834887473447114, -0.08304860202340272, -0.11581296752665624, -0.3542807287366736, -0.31262808474123965, -0.2509605990347748, -0.28378226443819327, -0.3294529816343265, 0.19748590452761935, -0.0772659544394028, -0.08662254002928428, -0.10450852969686086, -0.24189555525355835, -0.08722305762986524, -0.09181512677457876, -0.14477822704285417, -0.11329198552288947, 0.04377114741509458, 0.03905847845070515, -0.11297760113363486, -0.017376266021611426, -0.15997223587348475, -0.28066276168679494, -0.1303344218663185, -0.03620169170082364, -0.03236973477145598, -0.003906261809755952, 0.006636041024059255, 0.014551877794332743, -0.029227060759540947, 0.016793844603869904, -0.21269737977355455, -0.2030503908299389, -0.13182206867341484, -0.17614010978287487, -0.22684113957735494, -0.008573916134019597, -0.034921392766396844, 0.033398897703742256, -0.12445038402877767, 0.16058514552891798, -0.32188818029156263, -0.37807264209677655, -0.20514392512074514, -0.22296433972579066, -0.186274668744571, 0.007938732911406904, 0.01457202860803061, 0.024927814721385774, -0.3492216889759846, -0.2365534317563723, -0.1859100051492906, -0.03520046332089369, -0.01576542357227791, 0.015642225585371636, -0.008960955183598709, 0.0008302235622372316, -0.04312288008939373, -0.009854411298706298, 0.20547889375320755, 0.05366976900281524, 0.016308027644807502, 0.02225904771265858, -0.051771313708448, 0.1719983600783005, 0.2278931508300045, -0.04712604179837683, -0.08840685166564227, -0.06343873606973822, -0.09519200104139083, -0.12445804369501216, 0.09044020248277661, -0.21545964209684068, -0.2362614729521481, -0.2576058857430862, 0.046292678799339466, -0.26240879035828474, -0.3167009553535187, -0.27875919820410383, -0.16228228406794, 0.025296975455308804, -0.01467274163124416, -0.011493913644520074, -0.016166983750302632, -0.048473580253618705, -0.07066802498289146, -0.01715223203457447, 0.08749516897920974, -0.021005495461453014, 0.19956720622957247, 0.21447508444808647, -0.17260434827943352, -0.07961126034661169, 0.20106959119851575, -0.2814688637990458, -0.3413815313894956, -0.17870697021906795, -0.3017999401237575, -0.24704610271251146, -0.17166680863029973, -0.10339242799574862, 0.16266170495899746, 0.1352572405216201, -0.035099274570207506, -0.1584610974036604, -0.1505504606101774, -0.3583688134732728, 0.06834732706628868, 0.023088038749492088, 0.00368190277253882, 0.0038588406686426357, -0.03429454299923617, -0.032772420906730694, -0.08857767720754278, 0.06309528199397121, 0.1422982827176199, -0.05297621921084143, -0.1258891532905727, -0.02597694231946407, -0.38115592902947265, -0.10036100930607064, 0.07297701398621283, -0.27085540395634067, -0.45318211192801605, 0.15745955245373705, -0.015323238739961229, 0.046980784803671294, -0.1988691597126349, -0.022819407542976376, 0.20403053329184587, 0.25751936862371394, -2.44593490883012e-05, 0.021727582750409053, -0.16070168636778986, -0.16558531146341426, 0.09583752239477289, -0.012407935296168675, 0.01338200327356198, 0.014503934483407145, -0.009889064012206818, -0.02652644248463684, -0.11108251937663546, 0.05842353927156904, 0.13854463160444835, -0.17149878896693807, -0.4406922586008986, -0.31808802547576365, -0.49226856808514685, -0.26672375286536126, 0.10548226379209462, 0.15766914723005673, 0.3769615026533199, -0.000901621111517669, 0.21768509317470894, 0.29652710411607647, 0.05213288545980909, 0.2153669534077801, -0.03681471722017125, 0.02947185904724109, 0.1573411121109865, -0.1312571301869917, 0.032269486695739626, 0.1273020193441548, 0.044336915645877155, 0.07661211678439885, 0.08809200175464162, 0.012395087974255507, -0.029833283046287254, -0.037451521891593016, -0.05470568480259369, -0.06456664359728685, 0.042145576531751335, -0.08209810217061071, -0.002875645414200879, -0.17809396248098974, -0.27711849565675145, -0.30335987882486276, -0.13015715878863843, 0.12839255201472205, 0.48330634431797725, 0.3059377100950179, 0.28298038448745033, 0.4547657419519761, -0.21153973129140735, 0.30159476047805145, -0.012255617513647335, -0.12414941761005717, -0.25100629528137425, 0.32920114942791384, 0.5066989900774478, 0.21958065240991925, 0.10378476421458227, 0.11863008707839501, 0.009615037511417889, 0.01733637027069443, -0.02610605083460376, 0.0022887830406950298, -0.0382704632249366, 0.04520453678586547, 0.08004640205239436, -0.12669994473682283, -0.4117512349884568, -0.3215403287954274, 0.12898599027373964, 0.03477905567836179, 0.006408894006672936, 0.17175309980125658, 0.7454832222247825, 0.47331036271344723, 0.20883085109837177, 0.20627198792584772, -0.4195417366738347, 0.11408040841350925, 0.12692371823747242, -0.2350602597270981, -0.2814996681877026, 0.025439105400752286, 0.19560668939138043, 0.11205728312692265, 0.28224110624774423, 0.16506023247287893, 0.0036760553580331727, 0.009248035777763473, -0.018330097542427443, 0.020732346266143772, 0.08660664867045836, 0.1185118707326444, -0.1496701853982093, -0.2012565983925156, 0.033427688706649535, -0.16521435972926307, 0.08977099263279674, -0.05208933034482624, 0.10107659168460816, 0.070131661274193, -0.08106064931693494, 0.404691306112641, 0.5364983904808907, 0.29040969491867324, 0.23246631524761327, 0.1542723711143404, -0.1870288682787631, -0.36849914717621074, 0.05890385127343823, 0.12076254309442151, 0.17104559975746259, 0.20047961931603397, 0.3738842001521011, 0.22184536263711974, 0.009632543328057052, 0.0019326547691671254, 0.003964076516301952, 0.03616199869902943, 0.06625074943366613, 0.21754844118657002, -0.2613820154371157, -0.09002211870072332, 0.1048661167159572, 0.21724791817009692, -0.1446619403329507, -0.26567823660153406, 0.203639317593519, 0.17227508441058034, 0.020620992747415898, 0.015898410681842345, 0.272394557749157, 0.257849190370064, 0.14438763326071352, -0.01726866772269705, -0.13945813610531546, -0.2385915489943042, 0.32645500147112605, -0.0957970292850227, -0.09158580464283675, 0.08893403782385632, 0.20882700003626342, 0.06600296794830067, 0.03281166414184359, -0.002384963182331318, -0.005099973867015086, 0.017983449073169618, 0.11057185173257035, 0.2529880244618237, -0.013251023752814403, 0.2335170994895332, 0.5271467903587476, 0.1126152124671452, -0.2644490353354895, -0.14687944412692172, 0.25084169411411333, 0.3778759064123082, 0.13434008346780993, 0.25456569703991117, 0.18225132143071973, 0.21853376914692396, -0.03249198008984584, -0.11317373486724416, 0.1465770902345238, -0.2376689369735246, -0.07888413804311863, 0.051744256740394394, 0.22526214353573043, 0.2895671785006827, 0.3233331970608837, 0.08106487257089988, 0.0245780715367493, 0.00804363776130966, -0.001610125247731112, 0.019483769871028428, 0.09235809631548085, 0.49850939450412196, 0.1702021424439048, 0.13607814293741333, 0.05308953719758587, 0.09246918224209036, 0.06844867039777125, -0.15965703144006577, 0.07580352880137609, 0.07805166394811294, 0.16749933398148315, 0.5603525093248152, 0.7021441821543415, 0.3317810206927819, -0.1133819512828313, 0.04822353671751565, 0.1613757390458464, -0.0010352187954746738, -0.03512898090038519, 0.0941505043843851, 0.22751644950474448, 0.2444537272072537, 0.15997109772100268, 0.043670042702956095, -0.017942259401355087, -0.006296478045637314, 0.016964658091392852, -0.0037875926803010405, 0.1187767776634601, 0.4061996411088396, 0.15468329698012087, 0.14924836581369277, 0.23675946733504402, -0.010565199982648484, -0.274600345450106, -0.05020829058708892, 0.21784860479852325, -0.23902997995545214, 0.04139360423279881, -0.1670334306638727, -0.16488987675220265, -0.002733482589355042, -0.06104172663158018, 0.277826478013283, 0.06226917062917301, 0.18074117136122145, -0.10618257656103325, -0.12306603376235761, 0.007028815153920247, -0.021531016914722916, -0.033643564189234046, 0.022872012074878767, 0.002558346325287829, 0.0013152499557316053, 0.006546653519087797, 0.011148881142086259, 0.009922165818437427, 0.1967775947209745, 0.15461742831773448, 0.14486085088428702, 0.060628088113399925, -0.3272580102171724, -0.17268219920753966, -0.18261433178044476, -0.3578494652333528, -0.5976496679452798, -0.5538752489551751, -0.7598397698657947, -0.580800859726503, -0.1174037703420335, 0.08814260434613393, 0.05414559370273379, -0.15433313143616303, -0.10353383016328463, -0.16050671922608747, -0.2838547353202272, -0.11350724005728748, -0.12571349116026548, -0.001321825460667871, 0.045349313053703884, -0.0021188852693267536, -0.001872384664384014, 0.0011890013652458217, 0.012199874266900777, -0.031000670244010917, 0.05964629516272155, 0.1184348622931746, -0.11700651749031711, -0.14609023918149197, -0.41863621380968646, -0.3915764429253538, -0.3720943016505275, -0.688268493943333, -0.878817085025464, -0.6663479989131408, -0.6240287095778857, -0.30052538395303524, -0.45659093758687164, -0.2532069837488303, -0.10929461018363816, -0.18335698355251528, -0.2883926067737385, -0.251064168719138, -0.25199759773851416, -0.21420132618838106, -0.15942483712901226, 0.013175032037665388, 0.0038954513889851027, -0.009198721148357018, -0.012728539865188543, -0.0027063549850610672, 0.008086892741082312, -0.007487044755914329, -0.030388408220606216, -0.05189040181504184, -0.22672636606328925, -0.4155677644037327, -0.5284727207154685, -0.6519727976977111, -0.6327889811649987, -0.6713680582391569, -0.6801710248727793, -0.7312087302685791, -0.7914805708083766, -0.7274302979856005, -0.5518691943422295, -0.5551301102651899, -0.36223346355089553, -0.31999306716813314, -0.16486716828986372, 0.10879454266920134, -0.14839437727461316, -0.2008389063299013, -0.09823190790152497, -0.0006766968785105077, 0.010932975391534911, 0.0036190781810302645, 0.00695577669489606, 0.009429641643089261, -0.00458259763354021, -0.017408607108974537, -0.08123813960354913, -0.1282459925024832, -0.3049095447811074, -0.5185488623238166, -0.596076506834087, -0.5397089347823102, -0.45159870444265443, -0.42056077556546084, -0.32669585849503, -0.5499877730512848, -0.6060472602030573, -0.3567797458512863, -0.16209949714151753, -0.2360839658388715, -0.39052867884488013, -0.2086372011643978, -0.0935105052430135, 0.1293917983338661, -0.07530235671062877, -0.12706171533489594, -0.013984492461171739, 0.030797780084492524, 0.020077227923027696, 0.007863551016560189, 0.010816615408585794, 0.006841631112372426, -0.0035163716525230954, -0.018344816336480836, -0.025563314562654968, -0.09041861506313018, -0.13889856910841572, -0.19839676473732912, -0.13681030559973556, -0.2483093774181575, -0.09438621736363072, -0.11704672581157353, -0.13721944723442436, -0.2253954239749789, -0.1787057042980042, -0.10421492955893115, -0.011499921693031715, -0.1298179434601563, -0.34488697700262116, -0.28040435035052125, -0.11541609772338768, -0.1004647992328864, -0.10189443275117904, -0.047202846282742815, 0.00011368596384888541, 0.011675323940909803, 0.001873778418313185, -0.0044942096327741, 0.008525769426258104, -0.00013602187689386268, 0.020745851380586065, -0.005144603053593273, -0.0174419756093015, -0.1755776887775514, -0.17329205680679158, -0.04417158368818642, -0.034089288111880695, -0.09757259340437256, -0.041981067276124266, -0.014262660782640218, -0.015476822516745937, -0.02365769176591181, -0.01594162969661811, -0.018955729603803723, -0.024605333212681556, -0.06908102798374159, -0.08066411089769498, -0.0767975865612208, -0.09549272173980511, -0.06679610926775371, -0.019535975581304266, 0.008917417219547202, 0.02193931758894024, -0.01688644934892565, -0.0008891365703781393, 0.006462116853259592, 0.002565106467867802, 0.010118052145895102, 0.009647412776441176, -0.0021288351160328495, -0.0027386873949858596, 0.017669893180027832, 0.006355270766120622, -0.005398730098878048, 0.0006394749493289522, 0.0048641802693664546, -0.012628257621967679, 0.0137622810025044, 0.00675408509307304, -0.0010507210590940243, -0.01477308754076668, -0.013420266752623845, -0.005791180162395709, -0.006118007287094766, -0.01931788866615321, -0.012183114890809026, -0.0037128477662058813, -0.012113955494223104, -0.01796177410410691, -0.007230812374727548, -0.019994228547927508, -0.0018481669622728298, -0.01651696433446323, 0.0025759934238140277], [0.013804820534254823, 0.0024994148433009036, 0.01069351630769164, -0.0028384498209850424, -0.0049613192862129245, 0.0053708234847994136, 0.0071591089445356484, -0.018988301014630473, -0.002987253258620177, -0.00451206490959227, 0.0015067136423466425, -0.00014952949045001952, -0.009473196640767664, -0.01044562477653323, -0.005167521818178953, 0.002585213139923909, 0.005961605225065765, 0.007288017291542204, 0.0021906533628914455, -0.0078237170961751, 0.0016583805353718578, -0.003116250066158454, -0.005649388737834482, 0.003419723203137645, -0.005909868820993262, -0.0018745628930349903, -0.010892659501732216, 0.020458502940159256, -0.015251517644577063, -0.001435354916729819, -0.005495584743251957, -0.006736922884437603, 0.0033632592482191743, -0.004367065300959576, -0.0032078373047098475, -0.007862164703239012, -0.014515327073029107, -0.012080189613977456, -0.0009783276001040706, -0.009287195449534422, -0.006434172841134762, -0.0199880567553632, -0.022878686054034546, -0.0019419022447221882, 0.007513220542728853, -0.009464564431883458, -0.0088343481281186, -0.007673469896570426, -0.0001631017822457902, -0.005540054617765103, -0.005964404974587909, 0.0004030430638366809, -0.0022406581370619945, 0.009815239337646792, 0.007188907587406344, 0.0002562648867672576, 0.0036210128675017448, -0.000481577789384245, -0.010311944981696462, -0.0029094290998649807, -0.004416544020640107, 0.0040245903342308546, 0.0015215126350657982, -0.027991945094536622, -0.06106616126715763, -0.06440611830232602, -0.09243266723034826, -0.143761502089148, -0.19515948806999636, -0.14798097536218346, -0.11799382890368487, -0.0289067982253208, 0.06155342090284377, 0.048004240720106534, 0.02622177203471837, -0.022259810784633946, 0.00029863912899083685, 0.001099249257315392, -0.013006926338000074, -0.011213497508538395, 0.005724622259204275, 0.00399455873490518, 0.0035671033228946583, 0.00972356839895555, 0.0066948550161210745, 0.0011632325958254063, 0.010242303429649994, -0.0029825901974951767, -0.01634218630927379, -0.008637905346470354, -0.0936980309007124, -0.14509173434926365, -0.1761343970120183, -0.23873532766314481, -0.09603279150238199, -0.14156368916931367, -0.0018340784988706597, -0.14433874408453948, -0.21888233850285146, -0.1632751486313553, -0.07777167885448946, 0.11892618266363915, 0.3285737538087352, 0.1715176357326985, 0.20780297966949327, 0.1416537527263314, 0.03025312653866514, 0.02315525155202909, -0.00784010004605606, -0.006600555908631317, -0.006702190523073377, 0.008062267052813578, 0.0034906399888650474, 0.0023910385857051184, 0.0007430603585383675, 0.002898819027639113, -0.019642050287101486, 0.06946190464718673, 0.03770397360435709, -0.12290147156856744, -0.13022709390657033, -0.08322258181416775, -0.040038407679629504, 0.29702654797518707, 0.2182838861898926, -0.15724989076067752, -0.5175751047979802, -0.2514477085234622, -0.14350881027547904, -0.19476036761480908, 0.3058685897617509, 0.5553133671136055, 0.5321793167251152, 0.38419566349132656, 0.23771759281306537, 0.09412692234774415, 0.01780243814498407, -0.014273864104218034, -0.0034995236415825623, 0.001238894360368461, -0.008525328920228347, -0.001448706145510189, -0.0028221821329080417, 0.03875021890395961, -0.03350200855971429, 0.09603403324185543, -0.07901365131214533, -0.12077830861421052, -0.13980570645206641, -0.019696052102958002, -0.02920218481296912, 0.1693772996018068, 0.0713268603347274, -0.26247056037869815, -0.2608252140622414, -0.027919665000548897, 0.444511596526743, 0.7469584744678232, 0.7326809664569902, 0.6180210762800543, 0.32735149163602034, 0.33989033193145296, 0.1635339868688365, 0.015804945893857628, -0.023592884331071602, -0.031336430567009, -0.020981029769863057, -0.0042459268068736145, 0.005766665752208432, 0.014599559761586218, -0.00383377622039011, 0.07556194647089196, -0.025302484055973996, -0.04898762685398586, -0.13860190112468013, -0.10455585899108615, 0.06473678271298802, -0.09677470790543358, -0.055182475769785126, -0.18808340549819286, -0.17125321472697635, 0.0734378586113209, 0.0885708968566887, 0.792110116649244, 0.8651190189691222, 0.6882299229369632, 0.5409267680799784, -0.13039108811729774, 0.07130752424373356, 0.17420043921979161, 0.0005625640428760131, -0.09531923898959432, 0.050906715883135396, 0.09711285222808759, 0.04962942066939929, 0.009025809427981334, -0.013802740683567842, -0.0035493233806574514, -0.02079198880500033, -0.04362264078895573, -0.11212155009278495, -0.043922037579732336, -0.06612577174110176, -0.10820699285069758, -0.1344730592927184, -0.15348886268335757, -0.5174598846620344, -0.3682902772056444, -0.04500517777841875, -0.020722569832719875, 0.5833457970187353, 0.7686384668380666, 0.917704129637129, 0.33367808835107204, -0.38524458060929256, -0.15033020734627364, 0.1335865004065134, 0.01184821416562572, -0.20392546948180687, -0.13701324818394228, -0.02438294431887435, 0.07960756277101795, 0.0059280909407882654, -0.0016757302171954702, 5.0998384245551686e-05, -0.007166715216597616, -0.05371614244261099, -0.07594330433016969, -0.08184820815565279, 0.09271484751629148, -0.006425057773739189, -0.3146609918910783, -0.2635529992112586, -0.27642456226195167, -0.34121838240116814, -0.11976041432633129, -0.5670790926050956, 0.16273091576306348, 0.26285287865914564, 0.4661323365059989, 0.6241109090223971, 0.2305511790748695, 0.31286441762849937, 0.012863814468625152, -0.12555356375555154, 0.053686968401392234, -0.0609341978017046, -0.17506389760633118, -0.005339078176314138, 0.03729803449817289, 0.0749444106839096, 0.010172920834415422, -0.011308618596486587, -0.004374567204559104, -0.028622073101829078, 0.017279218241142046, -0.05192846023959404, 0.04879339278542426, 0.2091666154215271, -0.01369959660409884, -0.07430239445242875, -0.3154890185831376, 0.007487831702001483, -0.13353646684688777, -0.45047624634606004, 0.4494053582252328, 0.360060695948837, 0.5441437268304237, 0.044676570580833304, -0.2262450886048471, 0.20758946371594236, -0.02344219244793658, 0.12599855042937513, 0.09269062604697179, 0.043422695705346855, -0.14708225962164154, -0.04732104358860068, 0.11969809913304884, 0.11030310576086341, 0.022862150306573254, 0.005909978884329614, -0.018486847991099724, -0.044594856049359234, 0.08083610905180243, -0.023400042474231608, 0.013611709786157777, 0.20836953062632851, -0.06024297654803092, 0.22387247200368746, -0.08394613094096129, -0.30304425997301526, -0.10202197626105365, -0.16533123345179512, -0.09955903043225844, 0.1956535506676697, 0.09951158574549701, 0.34167351539800983, 0.06678355476678814, 0.00630616924021157, 0.04157314051077133, 0.16426142425495352, -0.01989197514160659, 0.17368005589341293, -0.12148392667025656, -0.1252962395053716, 0.07723875784126889, 0.07262924135982643, 0.010525914803153251, -0.008308408008734558, -0.020563233827600946, -0.043197366216197526, 0.03546516475881425, -0.1205697339344144, 0.05616920137469756, 0.2829426254479899, 0.1661350702174797, 0.3160187491617625, -0.010933527160512475, 0.3028423937715393, -0.09034412859935412, -0.053330832652254245, 0.23251736226266195, -0.29464821121329887, -0.1793424797587011, -0.059114625570226016, -0.0033224961137945596, -0.14787609202015523, -0.16172053362597247, 0.06303988995796019, -0.08849565392862979, 0.11373811706856282, -0.0058067251231713685, 0.0016370820529675763, -0.020758066599352136, 0.07322031078962013, 0.015507095164859971, 0.014900135774745452, -0.009881722690515744, -0.019904867806594007, 0.014723459881368051, -0.09046187226845606, 0.32022101559710464, 0.32712826809188783, 0.19467942312891498, -0.0226946159919874, 0.35616251879310457, 0.6578771020540316, 0.18698519745529735, 0.22664775509077834, 0.4283791229303989, -0.11567629860228965, -0.306466978022537, -0.08159417368517241, -0.03277811152562829, -0.02605864860030843, 0.3466378900481656, 0.0874231021453825, -0.10825891525716158, 0.14743813191951757, 0.11010240219915327, -0.24743003683271636, -0.03375772281821449, 0.02512286313647379, 0.00854134018076069, 0.0021008300675672237, -0.007704027326992219, -0.02561000355362273, 0.014534419775928176, 0.05698286233740292, 0.15862486223933966, 0.10365422064382084, 0.29330559596896727, 0.17499880065849682, -0.02570687916545009, 0.22327936647613095, 0.5003220256077794, 0.5322269919827429, 0.38941947324291787, 0.21527969523975943, -0.0792899671419273, -0.2654631216523049, -0.022941352725901892, 0.09928893563875475, -0.042673513401008355, -0.04884550653874259, 0.0054991533684505, 0.09960074192480951, -0.15340297481203816, -0.2066899918992544, 0.0018882683803752008, -0.03572617029688819, -0.029359776567743308, -0.008084557836689264, 0.011914869402185144, -0.017620878863948218, 0.02402537540424758, 0.1792283774549871, -0.019946518889032636, 0.06097800174484994, 0.21527721692651713, 0.09593077915720372, 0.05742883975424813, 0.10361149182092169, 0.2362410625036291, 0.28263943485126586, 0.05820116619739326, -0.11358363690182051, -0.014482981150932678, -0.14748729752135725, 0.15665783328184907, -0.27669812681898726, -0.11000725509027987, -0.06509582577202215, -0.04540177474742914, -0.4217133107842817, -0.4618472481370028, -0.20100746715047008, -0.04348415432530794, -0.031879312888040794, 0.004044226958449877, 0.011407493165364376, 0.02594759370747915, 0.007262704367621657, -0.002844026695262656, 0.3228238563221832, 0.1713204286315932, -0.024082426775273724, 0.0265563844068875, 0.13015455611365265, 0.3776897486752613, 0.43794673076467105, 0.15942765806288037, 0.143535469487149, -0.0503937756663215, -0.09609380903190758, 0.2270812169066598, 0.34370831784987865, 0.37210291825315733, -0.06556357383148892, 0.15507507151017513, 0.00786704344449727, -0.06784280896336722, -0.14569804234327707, -0.41535147680904044, -0.2642620962158983, -0.12906897044037077, -0.017193429494023114, -0.003316375667970775, -0.004233784366375765, 0.015344076644964854, 0.032088155486995895, -0.001138278061591344, 0.19174334096372558, 0.2006373325611768, -0.0046301454189075, 0.06581267051835307, -0.11108650881083243, 0.14524631671059476, 0.37286659515417875, 0.06803655724933574, -0.40946887497155265, -0.35104935160707074, -0.082136380856684, 0.20681235886290666, -0.06419850513197513, -0.17432319892990117, 0.21697967631887308, -0.03665755757971599, 0.2266625640558205, -0.17113725434131058, 0.09020639867874615, -0.22087113735738303, -0.23046165573435973, -0.202682672518875, -0.036794373748309836, 0.016248427197061967, -0.00862502107387957, 0.001176897706944771, 0.021462198660326882, 0.04628575828562465, 0.0704418098795715, 0.1497583505395903, 0.12619248641525582, 0.17016645046384696, -0.021715923101839736, 0.21168495888508398, 0.42727732120330364, -0.28864527377506066, -0.14761567806790946, -0.2552876483527643, -0.095940262499634, 0.06146266884173023, -0.174626169910231, -0.041924205717292155, -0.21379110796714762, -0.1093890019704181, -0.030380514116728385, 0.05435764272519674, -0.0394724177238412, -0.13871094562611108, -0.35260419030308526, -0.19230658938590522, -0.04286986001478514, 0.005924015228119365, 0.008952387514933453, 0.00890321108215945, 0.014008138127052063, 0.04523969601520442, 0.06748385172963078, 0.030607226750440246, 0.13635866934721477, -0.0013052073192466385, 0.1582096729816895, 0.26664200193663784, 0.29484066506831447, -0.22171563817468562, -0.717940295850422, -0.45741656936965597, -0.23167023503789044, -0.022151050024641364, 0.4548683833875457, 0.05403233533629368, -0.12774184546841577, 0.0586955454545397, 0.05826450787877535, 0.1262710367406188, 0.18604267603995892, -0.2024534070734706, -0.3114962521093619, -0.19249598509850044, -0.04867156618739299, -0.03187718463148935, -0.010072213988844067, 0.0003161745366339038, -0.01235925666458349, -0.00850572357909238, 0.010176156251065783, 0.12968781447451277, 0.021230562328796575, 0.11518437804346618, 0.3882585680671992, 0.2564675458650633, 0.21341309220757454, -0.3764185274135734, -0.19843943479922949, -0.3066332899711011, -0.2314520786719364, -0.09548985711299905, 0.26889896629031695, -0.012526925537129596, 0.26953636974675477, 0.17116804883030273, 0.05478550264210345, 0.0626074830677537, 0.3258820776294867, -0.06410885330676469, -0.046226417670742884, -0.054994759617660774, -0.03947285182557029, -0.0033382625189085817, 0.016290953115153606, -0.007508280792113584, -0.015008966468030582, -0.05503746196698409, -0.05759851688362962, 0.14041699045112702, 0.17031506369160346, 0.3583204906212458, 0.3841301034096905, 0.05684626017281322, -0.16666918840765255, -0.2752171208107873, -0.5280065927117599, -0.3766379909939949, -0.5238171852335802, -0.4304011603915562, 0.13358134105443592, 0.13493747471074125, 0.47224178348688234, 0.2448243915027691, 0.13242474212399818, 0.23278320325920254, 0.4003589018028338, 0.12497199175875613, 0.16459484618386835, 0.03253237025931237, -0.012239386637553194, 0.0004054398298080913, 0.0020721108267533514, 0.0017941240242653625, 0.015305201904655983, 0.019094581626594324, 0.10835976399301116, 0.18515358453823413, 0.3961639864869052, 0.6239120138282641, 0.10805566409620715, -0.2794310263304541, -0.22398096355044586, -0.23422246830727675, -0.19904653500465389, -0.45633505236606386, -0.5758191535698907, -0.12633677748752387, 0.2037588688439743, 0.056530210561782576, 0.19849080597895274, 0.21436455724797615, 0.19034235940413813, 0.17934594797214679, 0.21605256945954673, 0.15564130391843173, 0.17223469555976748, -0.013244197558279741, -0.029927742701323465, 0.003439553705008946, 0.011627660275981036, -0.00866238240377467, -0.005684867322735793, 0.06529004058467743, 0.18483055384990765, 0.20637963251432148, 0.4417745555254677, 0.4376350067989913, 0.03070021823211557, -0.02266092251548028, 0.09735503579588303, 0.14595983031313425, 0.07203421910179253, 0.03939547312421463, -0.4659899978609964, -0.3979691387595275, -0.24404581541697, -0.07695641083120898, 0.16744681142516285, -0.09457692116114803, 0.24413699439196848, 0.20881596747218514, 0.05927507057584121, 0.12108279442889815, 0.16373826214333406, -0.006200804265058348, -0.0038001028318834914, 0.009692668160011839, 0.002258565466332194, -0.005118199536071613, 0.024865929089320504, 0.16215775491167106, 0.24918631986240772, 0.16854359396420382, 0.11703747209349293, 0.20579975980085666, 0.15018013329537594, -0.27580961597042675, 0.015119017594027836, -0.0027598993108554582, -0.029767634292559166, -0.03672741391897792, -0.4077999985664487, -0.2687479946365984, -0.24464057850530588, 0.0039384167751418475, 0.08409270606733074, 0.02872377863703926, 0.26131836029912286, 0.1172372645229991, 0.037772093339069814, 0.10018686004246721, 0.2063370692659154, 0.010778397623510396, -0.0005045991340986783, 0.003139734178829961, -0.00874821590827937, -2.566059172835973e-05, 0.023671054198345146, 0.12057304247544537, 0.10876959964235228, 0.10136316433639238, 0.1330058491628985, 0.19037831282408751, 0.21428694345353033, -0.12851746486160076, -0.1318585655063082, -0.2692967473714567, -0.3976695239535979, -0.5237608401587623, -0.398711841352019, -0.07227885881602655, -0.21424349717602953, -0.07333025334850757, -0.08658682641620709, -0.0031827753902845834, 0.22528325821754516, 0.183623161839176, 0.03376241869681394, 0.09334116156139796, 0.02385623471105109, -0.006498953038523622, 0.0052936766205936665, 0.010554922255652271, -0.008337369328204206, -0.01640701554903329, 0.008933105654430066, 0.0030628525112883, 0.010752445705248253, 0.11697711728497592, 0.2378848000753977, 0.19771325660276073, 0.223631883903328, 0.17423229770998158, 0.27072716165128974, -0.05876892027279717, -0.13294755803817107, 0.04244682088802871, -0.05388096452659868, -0.0352814617486175, -0.12072096642509494, -0.16900788164829206, -0.061466668874674196, 0.16128716844357482, 0.1358299284682979, 0.03855700959942018, 0.03547856322555655, 0.022803317592026525, 0.00565443634927032, -0.005884977910293555, -0.0016565007115135358, 0.0007429769011054035, -0.004861945579549969, 0.007484590683470888, 0.0005903749340768127, 0.001612372795616764, 0.03423282664787356, 0.06290243940462295, 0.1481681799172087, 0.13778581178292545, 0.055488135555596986, 0.11266800099515961, 0.1996799848157061, 0.17586335038084847, 0.256590339312347, 0.265251865319213, 0.23243836719867564, 0.0762775802028749, 0.011540198517686005, -0.07281399692440532, 0.08018329849913003, 0.07332659034115363, 0.005519265394826146, 0.013244626321041128, 0.025743822742708193, 0.0046467482193766636, 0.003553898175088769, 0.00652183794167511, 0.01541322534126068, 0.0015855883172927077, 0.010160047094781459, 0.01702152343708149, -0.0024861769008172096, -0.00092030228052377, 7.916480405007927e-05, -0.008116602066117777, -0.0002992511493059614, 0.008762538337643084, 0.0020623996769904853, -0.0038412625572312067, -0.021530103541274225, 0.039142760953875984, 0.09989836020422373, 0.004750503391198716, 0.008039744620265205, -0.03149655357809485, -0.016382734518089786, 0.00014082838318419126, 0.0763983203434194, -0.025484450536787173, -0.016002444503710682, 0.001278312454484075, -0.0005761665626381293, 0.0039041275742704358, -0.008423671545183389, 0.0005794093439621655, -0.01039920169061116, 0.004893431800316147], [-0.01364924778083045, 0.0033918585088618777, -0.0015834658351229305, 0.0036084518567548146, 0.0016009997042342088, -0.0008466589654951134, -0.006902900132266943, 0.004940583423836055, 0.0008278476534498895, -0.019024922942159874, -0.018205692151535672, -0.00454163896077163, 0.013474166283195846, -0.013132388137029634, -0.0009521967510739609, 0.003657982474784664, -0.001529208776940763, -0.004166792706117047, 0.011829867295770886, -0.006384155417280154, -0.004146736803650926, -0.011519817924646477, 0.0004988177617336793, -0.005337588797777946, 0.003236308908164346, -0.011470633555071103, -0.0009031953636565103, -0.012708151057722057, 0.014848789861517142, 0.0036650589873674752, -0.006851262608300587, -0.001264547674282015, -0.0026692570955033786, 0.006338623267125131, -0.0055863861314163574, -0.01045403590620756, -0.02229202810659944, -0.00670388912154334, 0.011904632979070072, -0.003133430412571111, 0.010204091160556199, 0.0018562190973177726, 0.02684534711323086, 0.05427497530851885, 0.052288925433573934, -0.01747277933667925, -0.0048747415750254285, -0.017272862637719617, -0.027454273513448372, -0.013726117014964354, -0.004140211059439278, -0.0006424662793713394, 0.0020103704025928237, -0.008133776136164873, -0.005209070761330491, 0.004227587506306838, 0.01112038505960742, 0.0036643650226822065, 0.0039643150182685424, -0.00063935139308041, 0.01142554297546801, 0.0009245705802624389, 0.008087780436160779, -0.001540033815839217, 0.0026731830495149004, 0.05946951713353935, 0.03735435612533603, -0.027128475839624747, 0.0280269933472901, 0.0928107498521576, 0.15977619325146405, 0.19281707520524788, 0.20194725266693583, -0.025912895854435732, -0.09692897237210632, -0.12536599622168562, -0.09154283243386807, -0.053973032138805214, -0.02179652390064948, -0.0065875740976068424, -0.0074001735972154675, -0.003347559729763771, -0.004330056794163418, 0.015629183751393598, -0.013605819416989535, -0.004721330073144605, 0.004674887453535013, -0.0033791704595952867, -0.009178102577206804, 0.011253461687836235, 0.01706310688142247, 0.01246526231404819, 0.08238682636313409, 0.13624039862215573, 0.25937209562942826, 0.286577705214015, 0.3203354246903613, 0.1957770937226924, 0.2544661495456409, 0.27543849008658794, 0.5005927917035654, 0.5611493559110378, 0.09601416204368729, -0.11606081586920637, 0.07102501236926195, -0.3169583659978454, -0.19441514398538567, -0.123865645748384, -0.06509605494817573, -0.0023156515349375675, -0.007787656089747404, 0.0035146902212529084, -0.005670429283719848, 0.0006063159711339686, 0.009209197403990498, 0.007174648374473259, -0.017734301747258353, 0.028569687639124396, 0.07169207562277094, 0.09145692892649383, 0.3923601733572907, 0.4414924183057152, 0.4079100008125125, 0.1329478812515356, 0.2359994763679462, 0.26929969274901433, 0.23446003189388034, 0.15740510865065943, 0.40962424045194257, 0.2593341123623116, 0.13587931168013234, 0.07091938195636208, 0.29557791011833146, -0.03138767913451839, -0.35146076299440565, -0.5200241343439765, -0.18722320769824455, -0.030724482508711126, 0.0017884842131562992, -0.006270626475460573, -0.011820634645899643, -0.013469195238396363, 0.009202448717869237, 0.014735160805768643, -0.010163406381679207, -0.05385554828109971, 0.010577562340243905, 0.1684955783956445, 0.21261817387191523, 0.1567921451795142, 0.4745454111015425, 0.3138026330091598, 0.43370084098176176, 0.2286655849731485, 0.14084024599995534, -0.023088831473528065, 0.22522597314131745, 0.20866359732616274, 0.05974227594209391, 0.07142805079176429, 0.19427199704797282, 0.054520632363709645, -0.22872718731984243, -0.4070155003206615, -0.17135650746045367, -0.05041658568399555, -0.01357475081327204, -0.012834354950193225, -0.002463573411766925, 0.0060491441706916685, 0.005762057804049962, 0.01204910685373456, 0.05994704176354717, -0.19504929279925645, -0.16819772516663414, 0.03709485661485871, -0.1678530575795217, -0.09559319670654305, 0.28478039942682676, 0.3891170087807962, 0.33372289862614996, 0.660575481457874, 0.30261031147657164, 0.07534581980460599, -0.32865634996066445, 0.029057004448742797, 0.29386957659727514, -0.001375605449345503, 0.002536953279452668, -0.10580983949960289, 0.019272779245783852, -0.3064684572204839, -0.07736554536681714, -0.043861042313020154, -0.007550897681452314, -0.0194482323038728, -0.0064571663585535925, 0.019684515375983393, -0.002289899899519554, 0.037725430491519114, 0.15987259998237704, 0.0553210222485943, 0.022778816529770395, 0.025202547382305106, -0.3649855147942007, -0.2886831604271286, -0.010880838878013492, 0.5173854652220746, 0.3467395666843231, 0.07539346193565921, 0.31440652110437817, 0.08331626028965369, -0.099120966440343, -0.0846902335442171, 0.23044489013375247, 0.2406736787730363, -0.1257576688267076, -0.046404404293785485, -0.07747375463559592, -0.04765752224954885, -0.08788411254541326, -0.034143710474577524, -0.022833532274350647, 0.01086190525446472, 0.0014607023631572288, 0.021252267243062336, -0.00038072042307550364, 0.08863210328119743, 0.23525833399104842, 0.034467986960212214, -0.15288571438848628, -0.06223295167701678, -0.018361293108673005, -0.0016832555176084097, 0.3251541538445533, -0.009296885980916101, -0.014683348117346277, -0.31318877068473566, -0.35636332589881, -0.03795460124875697, 0.3131540784615474, 0.22491866052458537, -0.07035460926723545, 0.2483827657713645, -0.018726904745064735, 0.14347990045960962, -0.1601072633530041, -0.11710380428968455, -0.24704917159066464, -0.0592282297102574, 0.014457794201227846, 0.0020063145504847987, 0.000336774296942369, 0.025895401227415245, 0.05740318892185419, 0.017840138434308015, 0.07437406868492741, -0.2167691404484967, -0.39188920232289676, -0.3071679111324673, -0.32358770341886817, -0.609307386296327, -0.8927470171748119, -1.2252498113543127, -1.2077812221388176, -0.9721367689341227, -0.40752325846095827, 0.10898491646314441, 0.21576507255500443, 0.16472198516017508, 0.36300360299828477, 0.18587781668358674, 0.06593001610519529, -0.06516115526156462, -0.04353173867819068, -0.05225633671448764, -0.26242744857814193, -0.014487757668313641, -0.009724901908208058, -0.006546477443370276, -0.005732313563926136, 0.014844128673670047, 0.07039200513154689, -0.03964406251955433, -0.40592401777566034, -0.784525294308614, -0.9175754749369331, -1.2184244663676491, -1.5550038360602565, -1.7356746365963056, -1.5974826063952794, -0.910331034188093, -0.6745821071240826, -0.4136749920697967, 0.028302114851886266, -0.23228332550088376, 0.48649228927780275, 0.49512973981164987, 0.009668697946144859, -0.06284485680712575, 0.15922025850627172, -0.015717998834240986, -0.1742216510057318, -0.2911759523219122, -0.45178735052018365, -0.0823950719307941, 0.00365569090827887, -5.5716049796620244e-05, -0.0136418945353009, -0.0034437790447796523, 0.13583552541177588, -0.056602089444074424, -0.3935932876300852, -0.909731148904147, -1.0159475011450607, -0.9736900963970867, -0.9524353149502818, -0.8236592846482497, -0.399417872959996, 0.10062064068945778, 0.27238169354294156, -0.05447996764509565, 0.3178014528650157, -0.0012819287483667612, -0.1664370921757604, 0.3072623306614594, 0.03686831910695752, 0.1559325397978744, -0.06628519789620067, -0.14827957033481995, -0.026250299341565385, -0.06416793808710687, -0.17286300663076543, -0.035872551296008234, 0.0028319633104341895, -0.006717563009401051, 0.014385516069379697, -0.00550087388977181, 0.13310946600301876, 0.0018117053144057426, -0.23491746363412003, -0.5491589858240458, -0.7163769631782497, -0.2209690263364208, 0.2946772993387227, 0.43259725405845945, 0.6794248005051268, 0.4088350380620864, 0.3033369056519027, 0.18419166318022495, 0.3989646389983506, -0.09983935717217465, -0.015708007766674373, -0.040968435478909916, -0.03082862092884769, 0.1255347825605763, -0.10755446409777569, -0.16885320308483792, 0.018830076478983892, -0.19986487843874512, -0.09652519165663141, 0.04895894303755824, 0.00942024033881439, 0.006042687850526151, 0.007554913376633515, -0.0034426922003604156, 0.09898922395641922, 0.225492949254284, -0.04882646248321357, -0.001070428525842878, 0.13211957034845162, 0.28750445117824575, 0.5318473246949948, 0.17127190787012012, 0.6823938035644334, 0.061248583341134144, 0.0032217450707252393, 0.30765112876243833, 0.06636898169453011, -0.07468588541335129, 0.15897908841898994, 0.18315811035457116, 0.02252403536069301, 0.18014701233063685, 0.061771526070938415, -0.007259496702648689, -0.2784104089530587, -0.19478251010291714, -0.20178778135867687, 0.05094712794226777, -0.0008749943940930968, -0.0005104671841729838, 0.008814793419448247, -0.0028851708925346684, 0.03047626561057867, 0.28712791035152585, 0.19375493651186068, 0.2991278974646961, 0.7734983340943152, 0.5417971760099423, 0.32715508543245314, 0.19820427846064978, 0.1738565371109569, -0.05565666607283527, -0.21229053316889224, 0.016414705459582207, 0.18653164654722518, 0.06702437668061986, 0.08019615558277099, 0.03039293929544782, -0.04110053224880219, -0.1920463112945712, 0.031189193916779774, 0.1598924656029464, -0.34081609649398886, -0.2785854181871197, -0.12460830921963818, 0.05644379386641187, 0.03419453598179314, -0.015364332303350875, 0.0022883812503471856, 0.020988478497806596, 0.019335995086226316, 0.09915378551315225, 0.30824855409468155, 0.32684253952074394, 0.2125525342112676, -0.05373180514808929, -0.4462240367261877, -0.06649974513111981, -0.49945499925573916, -0.10269088634755062, -0.33182816343162097, 0.0012007971357591816, -0.07752114930350344, 0.038382039301702336, 0.4055519705691858, -0.6868612490243905, -0.22958601760842556, -0.21827353898182011, -0.3210414661587671, -0.3024079460415353, -0.5170609215320617, -0.08486910859589851, -0.009588330579820446, 0.04309527887077311, 0.03452620026026667, 0.0033620061608670765, 0.01054830142873912, -0.009228775742024466, 0.05240815985966299, 0.06485910128988277, 0.07101394998679135, 0.04247000074406222, -0.005700614608146434, 0.1286234983642216, -0.10819368136170056, -0.05952537208666623, -0.04633917803625406, -0.2463525478678733, -0.07883434299153079, -0.11548380987575563, 0.34130876467041393, -0.197968026563923, -0.09472600246856712, 0.05902212890270646, -0.029607305119886688, 0.06306163356871312, -0.3352966065618043, -0.052527181345973326, -0.2789928078157462, 0.003795089214161753, -0.04809917171163992, 0.10511552347606601, 0.13123351514052103, 0.005709335084885434, -0.0032745455350356623, 0.008356588735416047, 0.0733554282735198, 0.0958112024619044, -0.17820810512280796, 0.07630331630130177, 0.20017878478394743, -0.09688214560266067, 0.0196243637758035, -0.4107577975018163, -0.15003988000549107, -0.213790395361985, -0.22016243731024115, -0.07002295855828013, 0.0869270032199796, -0.03961659499809147, -0.3271274209466997, -0.22344933381287196, -0.18683964354768146, -0.03141124133603992, -0.0857803959237768, -0.0547058364847954, 0.22194253182165405, 0.010233240372906122, -0.13048783618765397, 0.17669505638825364, 0.05785308147043227, 0.0380540905756079, -0.0005338193941218005, 0.011585180738080096, 0.039418020949396636, 0.2106218127196214, -0.14560230734036592, 0.22040691355131994, 0.10083483336828643, -0.05792023484502204, 0.09495958906413844, 0.13441957341493316, 0.03672697685315938, -0.036087765957351005, -0.2572980347128357, -0.2639159897597908, -0.20998444045182363, 0.07933101754188582, 0.076306400374826, 0.2764559496793009, 0.13565587089177286, 0.16842485788365605, 0.16952312163597927, 0.28663926539194146, 0.40126140505062946, -0.02914084048024123, 0.11087716984940854, 0.24547240609998625, 0.13776764041441933, 0.06787020140701457, -0.01320395086650368, 0.009648757571321004, -0.11949865662537554, 0.13465027213031483, -0.1093422010357089, -0.11122481624412311, -0.053588850773332, 0.01044426559130601, -0.3816252803828646, -0.04490666369066451, -0.14257232295515626, -0.23460193996541656, -0.06004031483318601, 0.28011868724832095, -0.07462567431066658, 0.1281993396949721, 0.13640742834336828, 0.24203253924755455, 0.10281457741102118, 0.21024778566146185, 0.27053232939700267, 0.42079694209119806, 0.19392020432344498, -0.05331512972886026, 0.14083005527005413, 0.07740477304688348, 0.007740031856660533, 0.0037919462722247562, 0.001928540530613395, 0.0112981985225387, -0.1075064403168262, -0.0036341329148454563, 0.051457035506489786, -0.25755040862705925, -0.1352778848573437, -0.22961802541405746, -0.021379055089033417, -0.06352528142609222, -0.22528000891800604, 0.21423626112692204, 0.09641482536980964, 0.08031044490773773, 0.029446343052127292, -0.008792983660985612, 0.04026307942314971, -0.0566908532018045, 0.25706119049103027, 0.29378733214158687, 0.07848761771310847, 0.09261481107120702, 0.11112745616832229, 0.06315732255812323, 0.19829373255835997, 0.03253171837031203, -0.005127678405087542, 0.0008029226877672338, -0.012655585003583204, 0.013424929790504733, 0.05803760448418725, 0.003177580703753336, -0.0140511819440707, -0.15344270833900706, -0.16851131902230454, 0.10005166294898639, -0.1389984386055882, -0.28670623696191627, -0.024599313829935566, -0.343707098542176, -0.20445298558099978, -0.07597525343976669, 0.00941430100236411, -0.1647187729875228, 0.19462483122567592, 0.08551457215962475, -0.1291886356111708, 0.2122803994798263, -0.0314617817979915, -0.21393566651657347, 0.2252414527182656, 0.4191524970699867, 0.3073358066984894, 0.11650180600807905, 0.01053509140692952, -0.007199885766473199, 0.0002055826388665682, -0.0017191855892458583, 0.023258580545133384, 0.1159358268065902, 0.1765085687106749, 0.09117260942651043, 0.23592852401243092, 0.1908355905160411, -0.020270460210040076, -0.17289004282443673, -0.16748289055778, -0.3515336893494761, 0.036847297953663836, 0.07590448771723803, -0.12608107372007257, 0.14862831610822846, -0.1662058737061436, 0.12164233904485572, -0.15514017370622318, 0.0015212422196183935, 0.2176057937945458, 0.10670086942761363, 0.08375083278369397, 0.056766897986286945, 0.061396499684209384, 0.013589081350414263, 0.006638372592158204, 0.006396468185441543, 0.001878564215506851, 0.004750705587810263, 0.018568036221396373, 0.1279291490038998, 0.13996716813704366, 0.02102345535506533, -0.2753839885903785, -0.11037754894299884, -0.25248986675938423, 0.05871447371291494, -0.07780109905046369, -0.2516043461425518, -0.3053598668705739, 0.059439846824325585, -0.15954111258544684, -0.09351518589352176, -0.4227334072072092, -0.09164497497413648, -0.1295594383517157, -0.10302415916953468, -0.1617729503111635, -0.13109920977029507, -0.03617139119522052, 0.07445669845159492, 0.03627049722041683, 0.01851657541895467, 0.0013190424442500962, 0.008971990382976677, -0.0076815209446272495, 0.0017868654276575696, -0.0006411141877577155, 0.06364297526918483, 0.1292757847269178, 0.006390008867437422, -0.0237973178317786, -0.03572595331980584, -0.047273828967050825, 0.14494030141524464, 0.2040191677827245, -0.021743527341630407, -0.059738105821972566, 0.24149007352662716, 0.3636511668902303, -0.06921136511083602, 0.03484675632921045, 0.237760221310708, 0.18590828981508803, -0.06514265010047535, -0.0022760070465047784, 0.09624339120209646, 0.0014372545148035965, 0.007197419613953712, 0.02849430425858503, 0.009790472585454162, 0.002713979082246244, 0.0038318136894883417, 0.008335588567622712, 0.0027170524115000616, 0.0019341864052647075, -0.0009211462429636498, 0.04992306702685571, 0.07173966950682237, 0.05669506792817273, 0.024400933729939466, 0.2307655818754186, 0.3864203681610298, 0.39686174096033305, 0.20317787080637895, 0.14268120092909659, 0.24116847737154248, 0.00404143569592965, -0.21204178011624594, 0.02202019919750081, 0.1777668622565591, 0.16846760862331997, 0.1722742224455234, 0.014999842188607412, -0.149500988252476, -0.07359507116479368, -0.012618666491083152, 0.009486819920867643, -0.0013816648932334283, 0.004556326746025347, 0.018004389210538648, -0.0222108975563585, -0.01605331611624948, 0.009804592924105224, -0.00215183687307825, -0.0003883552460862164, -0.011092838491897994, -0.045895256351625086, -0.06304281877563611, 0.0523866052709971, 0.11775471671866272, 0.219062635473248, 0.08912730558646859, 0.11631407389323954, 0.23591242063887324, -0.019369056819374182, -0.02624825273005589, 0.024424402980794374, 0.04827909621360994, -0.016734379182887817, -0.0057988438574025185, -0.036856244839528, -0.06713308248977952, -0.0054221391982812875, -0.006110067798006097, 0.005308466298783218, -0.009120819671036569, -0.003574939639797887, -0.000888797089542028, 0.002904868006584058, 0.013807651549019043, -0.0010115693392751268, -0.012438780004187515, 0.004336481670463789, -0.0016716975084643114, -0.009114834189301877, 0.018866367105079516, 0.0017254301078855265, 0.01140615920611638, -0.03673517024564953, -0.037562420707875584, -0.004118498702463776, -0.0003611560514848178, -0.004526307845281241, -0.01501626172195584, 0.028613371649231, -0.009867196014837711, -0.011552683623325512, 0.004614788060875015, -0.006543610873145842, -0.008793801706362733, -0.00020473681486250572, -0.00813648119014198, 0.001537695155173528, -0.006986304285305934, -0.009109119244576039, -0.013754250777037324], [0.004614990897525088, -0.006537152792529863, 0.010194644245731826, 0.00361680676738838, -0.004131440906140374, -0.0025865568544659596, 0.0005574010128560614, 0.006146437441710258, -0.0008407825810001522, -0.0006509035187256512, -0.0012530838681178165, -0.009598811134886524, -0.006544878926715242, 0.0024927766389215293, 0.003313143025764918, -0.0010589444933009552, -0.0036101506733103453, -0.0013043481438361035, -0.014949834122325532, 0.002357875286201757, 0.010273185831657839, 0.001430060934354343, -0.005283496942262971, 0.009505511882429298, 0.003464795887844872, -0.001910169093608717, 0.01389951930228552, 0.004000928725838374, 0.005023580406482934, 0.004957498361423479, 0.004504429071664909, -0.013968853126582094, 0.0013100680377564732, -0.00204303786851276, 0.0021447723054990923, -0.00597086038411065, -0.010374000806853537, 0.0012498845035764405, 0.0046412724555805395, -0.002847171722556909, -0.001683507648445285, -0.01661617211921462, -0.020886170995044154, -0.00031026857034631064, 0.004758503214977746, -0.002032535439794225, -0.0028386108784894375, 0.012784593091709472, 0.009061759519487289, 0.012508486931430158, 0.009364187052126464, -0.008241610771393366, 0.008068344152381855, -0.008767469462538858, 0.0026905186830910614, 0.002317568186341953, -0.00994989999444019, 0.02205178348507719, 0.005466616308003624, -0.004566504693098925, 0.0033222742450932127, 0.004748298106993045, -0.010655093470498915, -0.035812255267574096, -0.04522486246322997, -0.03618621547543312, -0.04854132599871714, -0.10592233812488852, -0.13572613241940115, -0.1001105961223883, -0.07875815997372639, -0.046931861580715134, -0.006086466258069196, -0.010584089269469209, 0.005425747795888078, 0.008802287643361517, 0.0208978649534019, -0.012267053833622005, 0.0058082523961649, -0.005095338556789596, 1.7140851469060917e-05, 0.00398868932396669, -0.002666078859906099, 0.003443618255020727, -0.011459979459432754, 0.0008237271396547445, 0.007688064769258532, -0.002753704351260398, -0.01769927696259483, 0.00283568773036002, -0.015618366377059278, -0.0037012782478561207, 0.04322763642480796, -0.05916056641748846, -0.025402167866394355, -0.10775972449954573, -0.19532815721274535, -0.2397767302650293, -0.3561206936161949, -0.2190950276142649, -0.16589602675694837, -0.01767469562202152, 0.07872451254564024, 0.08546490687852144, 0.028509188241891848, -0.027922092767552642, -0.041157801782243285, -0.004754887411893499, -0.010977784094188687, 0.002570863579507047, -0.0024955488644446493, -0.011115710086723383, 0.012936053824547801, 0.009020392568683934, 0.003544899150947023, 0.010282951540877668, 0.01476075511029396, 0.07869312179246785, 0.11570589588497664, 0.09070815249906612, 0.02241717904833635, 0.048821924192503155, 0.04041513647093692, -0.04976089567052605, -0.4253292375979518, -0.6553582290213107, -0.5782221276843336, -0.4700453360869541, -0.3976762138534654, -0.26438780076264085, -0.02718802680489467, -0.057385906813406884, -0.07361475290361154, -0.02664444047103118, 0.054026123668218885, 0.09533942775266196, 0.03239297465688304, -0.0016622621309479982, -0.0004515221436411913, -0.004522021323962536, 0.0005552569009461891, -0.001776031336283676, 0.019580120911892433, 0.04309960362326284, 0.10011132074994084, 0.1689267221386682, 0.13025367726210427, 0.09388186529263762, -0.047838504736739756, -0.06490733741862835, -0.11551526701540447, 0.06326264348632468, -0.14255540840241143, -0.182087695797346, -0.17929939739320938, -0.08037476977042582, -0.15667193183012534, -0.08704741324182097, 0.07763024389603153, 0.27201328227887644, 0.27849450646720314, 0.10980429754771485, 0.11219648729254911, 0.08208803650213013, 0.0509015551818842, 0.0007567327388069541, -0.006892268162810648, 0.011632420618313214, -0.00279792052560551, -0.006083405542210352, -0.011801366671084152, 0.08045351649973484, 0.10518858632987027, -0.06183611339343893, 0.10577177363707066, 0.2781042014964524, 0.2177789886140227, 0.12120373376645026, 0.21119420522170607, 0.3598372964770689, 0.06136458151844269, 0.15916521351804172, -0.04157261530778928, 0.3563722956212354, 0.22470538310430258, 0.2517236459645913, -0.12073712706229765, -0.24644928641493327, -0.14745289099881875, -0.07474707270261222, -0.041429847163164765, -0.08624752077711889, 0.03842079374201735, -0.009948214076469569, 0.0015339413033988217, 9.420219618329731e-05, -0.00896416038253567, 0.003023469897995333, 0.003540802891850871, 0.0531568780828313, 0.09989098322777346, -0.13051118308603318, 0.10826151340662353, 0.18894323838897417, 0.3140217069152617, 0.038151441071189396, 0.14857610954997452, 0.197875841305401, 0.253340357385165, 0.2988237866821132, 0.4350640937978077, 0.2565388165390198, -0.308840318466833, -0.22990350759762884, -0.23695828761426796, -0.3852080463614811, -0.4511488887737223, -0.4439828779351481, -0.3024122012135355, -0.2441871766577513, 0.0268224913748208, -0.0423547347238127, -0.0006842244180851468, 0.014110998616805584, 0.010701016881351404, -0.006616461822693809, -0.028413373454736903, 0.01684977969768763, 0.13159509306125527, -0.0038146421590819113, -0.14959441985805452, -0.106711803103064, 0.08644661314748706, 0.2909169966910364, 0.2365666295172307, 0.4003604584121769, 0.3102071402977701, -0.12570557758731069, 0.24957240486002621, 0.1328815181221415, -0.41772000456587033, -0.3029684759686789, -0.4988144881424887, -0.1862256095792251, -0.49569069950608163, -0.5319556501038515, -0.2958280591700443, -0.24435319909778924, -0.10169693296690635, -0.07306175195506862, 0.01059026823493364, 0.026238752986667804, 0.005486539703917328, 0.0015203183765260385, 0.018922137430453866, 0.010261908577227639, 0.2697503783937126, 0.16491875275358955, 0.20404186416098877, 0.3733985740301959, 0.23528910817193677, 0.334575576175807, 0.49053366229307166, 0.3954179752481371, 0.23408668882654338, 0.3810818295050204, 0.00212767523075782, -0.31713396186857334, -0.2466508442018629, -0.12031793634691237, -0.19518202476778343, -0.3177470682957204, -0.4252046722677588, -0.648548798875194, -0.4140316970836819, -0.368832305034105, -0.14428746072993703, -0.02648684292160244, 0.06944034667775983, 0.05693695391735039, 0.012436165286347193, -0.002096801454948479, 0.019722727732181124, 0.05735412711355461, 0.1524128742230531, 0.13075461655276044, 0.5357603779981479, 0.16703958945107525, 0.2749822256577407, 0.39533902611154687, 0.3124851486297929, 0.3577438641494926, 0.12778413902839028, 0.351723930979653, -0.32818068619510676, -0.42984525494955894, -0.08018113953529261, 0.09051117392231378, 0.026319322616139722, 0.1030913004671551, -0.024356235841287373, -0.7292148808808748, -0.6181757250306003, -0.19326240318206525, -0.023943883867864117, 0.06298592672066888, 0.10790797052498256, 0.04415697811596004, -0.018701435577213568, -0.015857149684428945, 0.015274751782422654, 0.005377503527578456, 0.045116858120349844, 0.16545561541888926, 0.040805493802012247, -0.2757910745878212, 0.008144185930725292, -0.08042908118252344, -0.19432402151803596, 0.11306070711206803, -0.45273716028613437, -0.24641646909245912, -0.7004400874976365, -0.5613382287582716, -0.2179473451059012, 0.1620285708906114, -0.026091307234890164, 0.13474208125078285, -0.28752132526584845, -0.36433722017212444, -0.15777508960194325, 0.008369250694735916, 0.2701505880798471, 0.12279057965469767, 0.11852712878654152, -0.00385406228645026, -0.007235614165681651, -0.0036167044476849205, 0.0046948361367339375, -0.011603136915520965, 0.08127956379266703, 0.17890911947479, 0.010321311045245047, -0.24099153757844693, -0.1816756928565453, -0.40258748001583067, -0.6360992958816232, -0.328096846470011, -0.3128439177817506, 0.07230134618017749, 0.104206612279193, -0.09246735515048143, 0.19615230439417067, 0.15672772557395093, 0.05734272210814494, 0.2952554897964393, 0.1234210647192242, -0.0036036502925884855, 0.09007709998133191, -0.03910063554922971, -0.004616699456777729, 0.1430282389285381, 0.03390669277114391, -0.006307032679771097, -0.003537125733832017, -0.001892571488252968, 0.0012168034142359977, 0.004067743389911553, -0.08455090985365966, -0.2704214906411491, -0.1104311353418041, -0.12707099746243258, -0.09592474750304594, -0.26301788202900817, -0.2714198591946167, -0.05517945471189502, -0.2633473004761179, 0.3612788557237322, 0.3914657483068635, -0.18296111790559974, 0.05295243752768924, 0.12425735530725206, -0.12741175985001746, -0.13948231478221162, 0.16349138785375697, -0.22458864513216853, -0.35731859289523643, -0.09817411296648146, -0.027429211078301152, -0.0006627171672462096, -0.02369612670100472, -0.0421374168258076, -0.00855338143793725, -0.016998177130482343, -0.0034154657375725177, -0.020745386329312217, -0.09468189574306472, -0.5575014837593342, -0.1541863553145821, -0.021944045291013653, -0.06355373090193048, 0.12420858941528713, 0.23327694525246073, -0.03377983812349541, -0.061442509610521764, 0.21949638192229615, 0.08322185243899495, 0.4834852388475746, 0.46152081786200233, 0.006659474836644424, -0.1049661816389607, -0.4481466781930209, 0.10184868062665675, 0.03996984863962289, -0.23096516375981832, 0.07719792105968738, 0.07750637878375623, -0.029545638101231862, -0.016455416822769048, -0.0019395595165193661, -0.001689690380359503, 0.000495948424806951, -0.0038568469556665387, -0.08217378453674272, -0.04998431611648331, -0.2778145357785386, -0.18735530938264694, -0.15419912435490676, 0.027419095512349778, -0.04088603628675391, 0.21121016121821654, 0.15165656358225155, -0.09947058492029959, -0.3159184388446939, 0.06846326251394301, 0.10441214030614088, 0.45615695263661543, 0.0512069354168984, -0.06551414425005218, -0.33911794546869006, 0.16942398304925094, 0.29299009129715275, -0.011193969219331941, 0.05036649734909698, 0.10166286741897161, -0.14057021827713598, -0.07160108676257838, -0.0004997734607998177, -0.009676725987898803, 0.0057838191737122294, 0.0017785494881856678, -0.06861426038471925, -0.0491085285923258, -0.23616354317688015, -0.12512187925193344, 0.17073488380528828, 0.017470652183207907, 0.12253031606334769, 0.013560793695498351, 0.02448750492783846, 0.22087236417349984, -0.038253350460204665, -0.1769476430583679, -0.09349709394356398, -0.3833965506371793, -0.46354444463784317, -0.0033579933399638406, 0.026475340038417765, 0.07536085500953288, 0.23902311024321532, 0.1410032903000799, 0.21898602862358985, 0.11469945037622643, -0.15294550939405188, 0.009521405402312317, -0.012664193418869226, 0.010523619837058969, -0.001941080931498598, -0.013795483243571638, -0.032865750782583726, -0.09947587058758645, -0.12237750902652156, -0.11847344233081021, -0.07467450952986202, 0.1147202019920925, 0.04658661327659846, 0.018907856593110915, 0.27185235054825035, 0.674818568470895, 0.4880099546460932, 0.20102811372526563, 0.041676941682498504, -0.44137835674469333, -0.13135572582152721, -0.12032605626625414, -0.12557150094447342, 0.07243261805440375, 0.28167533713319437, 0.2226569698191785, 0.12978159982859172, -0.10012931055861404, -0.09460415164998594, -0.011111017349940596, -0.007219166733126507, -0.0027526878792387406, -0.013120069038779549, 0.018049306772956193, 0.01162460410156184, -0.05692306314824926, -0.17167198892441043, -0.2588425829573025, -0.16471238570924615, 0.03073382716822846, -0.12014101544458804, -0.06270506116044854, 0.25947865140401144, 0.12711694030685533, -0.1554591117282788, -0.14991131682968573, -0.17732194832584322, -0.4146158196475301, -0.23205155154985949, -0.09385908925168954, -0.08691923647097144, -0.07773603667313987, 0.2624211042980196, 0.35082049214742084, 0.06777831121160635, -0.2529960875912723, -0.05918677672541532, -0.04145681829732427, -0.025908787481065388, 0.005460105721589916, -0.006862187174304844, 0.0065229611878025815, -0.01141655161679768, -0.10696903181022227, -0.15692673802066026, -0.22422996086061955, -0.19888110528197428, -0.42697106539526003, -0.3727198077475731, -0.29260645132453855, -0.270656870216741, -0.3152631422476572, -0.9591343683109299, -0.3318648606878083, -0.4923500937197494, -0.004322026938044887, -0.154689177641453, 0.12388632055743368, 0.10182297031211542, 0.04903794216853596, 0.11224620644255057, 0.2007796769650911, -0.032724567562044934, -0.18082639156148725, -0.0010285098899734204, -0.020628129982571745, 0.009026589473925867, -0.008180868586078987, -0.002662826330118936, -0.0048489481975682105, -0.010141360037754074, -0.14291881117994062, -0.14346616022176045, -0.14591199851207054, -0.2684931342501961, -0.5091517477037704, -0.5891283501210162, -0.770248943371516, -0.6808796653636029, -0.7489075770382948, -0.9222640367928434, -0.04986240240425813, -0.0014521816633995485, 0.454029791930631, 0.3531418908263947, 0.20371543564753844, 0.28867829661661953, 0.066394455720504, 0.030758975801777184, 0.11001751197647638, 0.005240823896216553, -0.043880802142632035, 0.022818914776078333, -0.008023841213618068, -0.009357046817915701, 0.0016590938508340043, 0.0020656888424389432, 0.010562466974493381, -0.0033546817435213577, -0.07544791263668808, -0.07470936587463332, -0.04627806907917641, -0.2817259647820969, -0.6413701577800479, -0.9011648417406091, -0.6882854237854528, -0.5009235893759348, -0.11629274843508867, -0.12624534589261907, 0.17832628607606923, 0.34360746630803024, 0.6448457967864532, -0.10707432413651397, -0.004656962378046296, -0.056099691067349765, 0.07731594552202994, -0.07920130715469845, 0.05349213038327193, 0.015514530906820789, -0.01295462335633285, -0.009409978052661317, -0.019749571932931836, 0.005071689750639862, -5.647184035054378e-05, -0.0037222689359960493, 0.00895631678267626, 0.0038311250244352888, -0.022125516200173282, -0.007078482381854507, 0.055545966811505657, -0.06242100836777638, -0.3653960135327796, -0.6285619297251274, -0.5206774107068929, -0.052094777266181856, -0.04633624900262754, -0.03155677223375818, 0.08552168456867634, -0.09524516575917064, -0.2367125569414562, -0.1361944946792282, -0.1313970751908612, -0.5245579394449364, -0.10200068393002554, -0.2678618609516193, 0.1222235095119235, 0.06032931137373524, -0.0032923179763584506, 0.025690637421174393, -0.007289809889227281, 0.010889607915048135, 0.0010139596526114113, -0.005180665392090471, 0.009766795601322062, 0.03174921480169023, 0.0206474174500114, -0.019748466911529962, 0.1002353987478514, 0.09106050208100773, -0.11487815597585638, -0.10793359835625721, -0.12776346298508579, 0.15753086364811972, -0.15184112880667439, 0.08838148719465959, 0.05751878007424548, -0.21072292773144127, -0.46082496601869727, -0.162901479186317, -0.12225031354300137, -0.2242187245139118, -0.1263526009673068, -0.2725121109049246, 0.12491967280563582, -0.01830113819840746, 0.039151325552839185, 0.004039760945362204, -0.015261446396897117, 0.0011492266460655463, -0.008122361259762366, 0.005218281503647185, 0.022057677337437583, 0.03936848215666725, 0.04442799116614234, 0.001359746076371382, 0.10914758332598436, 0.2012036412059995, 0.17202773861717965, 0.4136300992803477, 0.6678148852004192, 0.589895152538269, 0.08571005114945482, 0.08461963423649912, 0.17648829437097016, -0.10978882750535718, -0.15498599086049478, -0.04555616503490125, -0.0248119857043675, -0.05183104797150394, 0.17514643377665326, -0.012974720873251742, -0.029149201915815836, 0.005116895848485196, -0.01701904893221866, -0.002110583678130959, -0.00524888019574806, -0.0029548508456216974, 0.007032387091828311, 0.009012328094329666, 0.001009612110476892, -0.016507589706142623, 0.03017462569645513, 0.06599064421453665, 0.09085890263532963, 0.20716129930860108, 0.2928922425946899, 0.41380740512311226, 0.3506573018736874, 0.14198582561691667, 0.07374861009368523, -0.005610622072098885, -0.11400124507703495, 0.003286914347166732, 0.056849806353229095, 0.1460463425068628, 0.15835658012073833, 0.5669100381175795, 0.17878623685378575, -0.004907317828701715, -0.05790619627761313, -0.0039447027452687205, 0.013570153675667851, 0.01461156097582553, 0.0018382211441775218, -0.007753233517971093, -0.00631392404320762, 0.0038480216041340697, 0.00014145348305516175, -0.000339447957527476, 0.013840855458482012, -0.009872367603054119, -0.0024824239858867547, 0.01983396486455862, 0.03774719986432866, 0.034915886607273, 0.12729210344978514, 0.18846228215824526, 0.09124494292572019, 0.17220758762698604, 0.32018005440513353, 0.23744695804998983, 0.30265941298823695, 0.2874581835845357, 0.27820863110031807, 0.3113016338398234, 0.20689035581566623, 0.064788259697405, 0.005342433548707969, 0.013772909267931665, -0.007324472023594493, 0.005810496347874758, 0.01796632072650446, 0.0107821893450621, -0.005453012146009653, -0.011725767998012535, 0.009055590431544976, 0.010165173540373688, -0.011323810536243662, 0.001522921267689141, -0.004621080095685192, 0.022286389001602395, 0.014351066797373569, -0.011646257278611528, -0.000871441023806271, -0.009518255545946434, 0.011481510650965384, -0.004295756510486641, 0.014914270737860023, -0.03312901279766259, -0.027976649217443562, -0.008008792017216146, 0.009487824428160574, 0.06948082543074668, 0.00039612355073423764, -0.0030843776375932665, -0.004837872186593497, 0.009087055919065987, -0.023377988718215344, -0.0029489532655395507, 0.004512641220861073, 0.014605761512758648], [-0.0034501241561309404, -0.008800142210531815, -0.0028957640164052516, -0.00846019004634132, 0.008106881672321818, 0.002841672935430484, -0.0034644643737165395, 0.006786354699335343, -0.0013867503303960829, 0.0042559122151350805, -0.0015270534018397635, 0.013111205285159066, 0.013492965341660066, -0.013587492601652642, 0.005180469376707948, -0.0009710258983287918, -0.003715672171502727, -0.010843717576961249, -0.007117075665929113, 0.005002700324728389, -0.00614522789046706, -0.010454145014946145, -0.014435848535598038, 0.009044931912123735, -0.0010984640656574061, 0.01084083053826375, 0.0006651947245150906, -0.0012037993062232232, -0.0020620563004259294, -0.016184824665384203, -0.01530634076135574, 0.0003226022048418062, 0.004780367262735027, 0.010193906397393976, -0.013289074282703674, 0.014184661002377379, -0.012818327737448267, 0.003107287264658228, -0.002803278208149967, 0.005658499636516085, -0.0073960177487122185, 0.0023326346142451557, -0.01734028386319084, -0.037334726880619874, -0.0025174412215646365, -0.0019778509179985645, -0.0015632734862631806, -0.0007724805269425598, -0.008569781453680153, 0.006270577312263487, -0.017841578917690875, -0.005776414988816311, 0.0067923578582745475, 0.012469407797002908, -0.012911761904588677, -0.0023383780665846895, -0.008599533775713193, -0.015284503938875696, 0.005316923994109333, 0.011230491428307445, 0.002779658399432812, -0.00047868773911387085, 0.014371665183189563, -0.009306473012008544, 0.022348565973890597, 0.06257856939431192, 0.0501454266524362, 0.046151099914664116, 0.03601330893486114, -0.016082194404390675, 0.0009641003495517047, -0.14316656131657218, -0.07890231048154003, 0.09078062663102543, 0.04681043941329677, -0.008320709607210713, 0.03191501267391264, 0.05718654868695117, 0.012701753940852932, 0.004874404211392949, -0.0039953841136580685, -0.0019048546111722655, -0.003018114666388596, -0.0067713494229975765, 0.015939293991855553, 0.0038283840408088713, -0.0005778306240007803, 0.00512300091497924, -0.0013931188722398485, -0.02191737500446542, -0.03488733881259214, -0.044356964181535515, -0.1770554831554264, -0.21485191701613182, -0.41131366539418884, -0.009483626626970281, -0.005059234152356226, -0.071517843113948, -0.1878602398943376, -0.3445448682554297, -0.050835659396383764, -0.023207730782667232, -0.1755109381027641, -0.09927149790129022, -0.22779643767586738, 0.0881447448346246, 0.14584279098400418, 0.09020019857894834, -0.014980626395282028, -0.009645482464825912, -0.008980146057574552, 0.008879040667164462, 0.013574234323010371, -0.00393963161100652, -0.0034171063188995162, -0.0032505762488013886, -0.0025052336440663297, -0.06439989887153796, -0.10809117793363865, -0.27135036318686123, -0.2507502222209654, -0.30716359016347505, -0.048524254006433655, 0.14119608648104465, -0.06740967322376028, -0.25211510180217256, -0.048670971722751505, -0.12032538628899264, -0.17927280492646988, -0.11237883733326945, -0.4254612073941456, -0.021884149313342597, -0.08634560688743824, -0.29694765317487537, -0.11898988921154165, -0.0960943107370837, -0.23383269270765, -0.013017685872305264, 0.0455269029303589, 0.002731100373698817, -0.0031306939094582946, 0.006355007181490968, -0.008676482046325257, -0.10743243025877555, -0.08522803766630972, -0.10256989050423107, -0.14431014693173683, -0.13874500894507497, 0.1730332140583164, 0.004188660895797137, 0.2320106844787589, -0.023588604959099705, 0.17925622469975716, -0.1294068760188656, 0.06361293766712013, -0.15874861443931948, 0.10973687331158533, 0.23612706037797232, -0.3196762145028343, 0.16302016190761903, 0.029947284238980465, -0.18403924497996654, -0.2739574377020449, -0.1265561907443852, -0.06887776900273421, 0.07013814555096878, 0.030968371713049038, 0.009556353781663045, -0.011333852943547633, -0.011199891767632907, 0.021703668339319755, -0.14934571156229887, -0.1995689861513477, -0.2109934599310588, -0.037058275783655746, -0.011346646367501826, -0.2697354475894648, -0.09443203170128057, 0.0896830291644134, 0.07430249592256073, -0.002262280460557928, -0.06685140595411401, 0.2367891051344251, -0.01758624919587877, 0.13568997466696625, -0.22133403650041072, -0.2915918246888304, 0.3058313463154719, 0.07077481491815546, -0.06144023412286167, -0.03611402548038812, -0.00016519393497698993, -0.21246766880386214, -0.13391044665332158, -0.13800960722869668, -0.03368138312946658, 0.0010850830292636429, 0.00606748547437425, 0.050888576720500435, -0.19703447144060887, -0.08910022348755174, -0.09594800973023232, 0.03976873924912529, 0.13593350645865085, 0.054576648191445046, -0.014484463647133537, -0.08335144321779386, 0.21522068213581752, -0.21793609782768195, 0.02684439156875006, -0.32984308956279523, -0.21519533398307483, 0.05474620308386769, -0.07691713676755109, 0.23192992295864037, 0.16165080159901957, -0.039424554001177343, 0.24603924688660606, -0.31055904475260815, -0.14339672566591258, -0.15103192632004236, -0.08338564274534738, -0.141635932439529, -0.005458221722671322, -0.001157320808900313, 0.010139190682192784, 0.05752683775687296, -0.033115722262833866, 0.168661993900438, 0.22145595938997073, 0.23193310951773913, 0.2543765781524986, 0.051153170815083235, -0.09116172309930472, -0.10200109015373103, -0.01896475153592833, 0.14279023860189227, 0.017764046429411495, -0.017192336179326542, 0.06140506962053243, 0.05097187037290739, 0.3742156665457421, 0.08822719046062606, 0.3074888995307175, 0.12916903132412677, -0.10681751579613057, -0.5652973460311753, -0.23801155382760433, -0.50798870323684, -0.4743926481744385, -0.07276194354177552, -0.005873949630503849, 0.013373782899751135, -0.0019019369947688054, 0.09351012881887366, 0.10548921845826588, 0.26280200468081516, 0.3088251983570957, 0.16349349755112344, 0.034086321926187345, 0.06977260166666029, 0.2261241238318524, 0.05610854814901779, -0.245993396385363, -0.22078814430649393, -0.08449637110897432, 0.13726630855764896, -0.03567316491680384, -0.14179110341968112, -0.11032578126955553, 0.3798579553834867, 0.3241410325434329, 0.6322357068961634, 0.3564923029403388, -0.20599702301164569, -0.03009745783857266, -0.41975158902891624, -0.43092946370015095, -0.0340388656315362, -0.0035574962656071425, 0.0038037790803985695, 0.013843203023197274, 0.060849996753737756, 0.09355072659847762, 0.21110989816795933, 0.10868563604670349, -0.015193251384912357, 0.1395992035212922, 0.11529478861736016, -0.2985674123913022, 0.217411301335353, -0.1313633545708802, -0.00940901034564705, -0.47052708662086173, -0.3041671143604186, 0.11680835641330509, 0.0021355993997816828, 0.005054484729372341, 0.33147738963071355, 0.046309508892058086, 0.02919675777265381, 0.22384274027407822, -0.021437576708410334, 0.15488858959351934, -0.22112849408723928, -0.3273889938246177, -0.08827660914319645, -0.005383968346366117, 0.005776693755411835, 0.005849679661656657, 0.025771855143565822, 0.05434818810848683, 0.05725645408227124, 0.04673486703370092, 0.17757348431895686, 0.1426298460904132, -0.10344358097910127, -0.016264677641878094, 0.12616020596280392, -0.4043116778719292, -0.17421415438916482, -0.3221345353024529, -0.07801845786318531, -0.237782551067113, -0.0665744879382851, -0.5512549767915558, -0.257892356719912, 0.11395029931050775, -0.07986222611997792, 0.10757581328502111, 0.4519616563975934, 0.36620787063255916, 0.08468283578058332, -0.11872404260397915, -0.0618750576519132, -0.012630991064000504, -0.011558577758601458, -0.005628931930971984, -0.01696147554208636, -0.008233806105479398, 0.13093484552349027, 0.24423292946646474, 0.46396483634674845, 0.2227853741724329, 0.1290667807012475, 0.33630898294429196, 0.1216284807238978, 0.08696368208605994, -0.0005835870889705885, -0.07440874711730916, -0.21934998691754484, -0.21768652195860766, -0.36123570771332747, 0.03266599165640461, -0.3254927473686015, 0.4687941932601112, 0.24122574874348002, 0.3038707270794177, 0.6731813633778119, 0.7117031427743484, 0.4752454238644754, 0.04273508925031494, -0.029398555240498867, 0.014897084160768488, 0.004836088678273038, 0.009074784644219855, 0.025695512067873037, -0.03277565748849745, 0.2125743369998179, 0.4759832574510801, 0.7363080878758562, 0.6889670854798903, 0.5053031549409888, 0.47321371004870255, 0.5075349819005658, -0.09012221140376223, -0.4677570346375334, -0.14045160140051222, -0.3067173111490776, -0.15421469662460618, -0.5393963348410898, -0.027110397050217172, 0.031958143693348796, 0.10469807619263556, 0.12748656816523832, 0.14294943640476662, 0.3517566072541839, 0.6359833967120384, 0.4434873014009237, 0.06708186061544559, 0.0537974179532149, 0.07095639715120025, -0.00925977462588684, -0.02175913904102096, 0.011767602856632902, -0.0340123070957106, 0.3125383720550277, 0.5208849725201139, 0.8684885408874389, 0.9443082937354376, 0.9962465831029809, 0.8032414134775421, 0.5439686955685771, -0.22048237547697339, -0.2819182164249938, 0.024954804434502258, -0.02404797543388624, 0.003751124057728156, -0.08147114381488832, -0.061827691079637606, 0.01854057575068598, -0.02935126025445771, -0.16609886111554392, -0.15935606279442205, 0.0033713067206854815, 0.11528010967416975, 0.2783806773426766, 0.12733991454688945, 0.03164267512076514, 0.009492653817692024, 0.004052061194218637, -0.00279330897136882, -0.009807015743307905, 0.08895059576910642, 0.12949133484978237, 0.11130634242911433, 0.20125257556689394, 0.5569785631354618, 0.9682562486295494, 1.3389953120330955, 1.4462569957826419, 1.030062918198642, 0.2070634527371264, -0.03564499331422786, 0.20410782257978088, 0.14958595050827853, 0.06567871745907596, 0.11151101665246664, 0.0014835224512688625, -0.29807601590210164, -0.22406565465124814, -0.0797349292237072, -0.18509312075260748, -0.17326273718077426, 0.08379994235377158, 0.10106388929157763, 0.01374437416737347, -0.0056711040033670885, -0.010947276035499205, -0.006071856557575661, -0.03349024573862792, 0.023391547085403062, -0.041919151547735116, -0.16375671831895608, -0.37374196253522074, 0.38249395180821794, 0.35337980517957523, 0.8630898395659949, 1.4312390317318404, 1.59849855247432, 1.0658208870257586, 0.6236892609830353, 0.760654914343026, 0.21374773661877375, 0.246239662612574, -0.18124365182004537, -0.04547648043833308, -0.1424952752949648, -0.33518524179757, 0.019643666424894957, -0.1971685473296318, -0.11163451836412963, 0.15946825948464716, 0.20385610615613015, 0.024499032393679433, -0.0011159254425210136, 0.0020239956429595344, 0.004194401191172247, 0.022952256123642434, -0.05725823761657199, -0.19214321718988783, -0.40525788933446305, -0.26094563070552335, 0.1742994058832022, -0.12132585358943894, 0.12976370145248015, 0.10891318962921577, 0.5684483161909986, 0.822061517056327, 0.6319873471762716, 0.3301831526376172, 0.367034408896281, -0.05151143591388256, -0.08574287337770144, 0.3738569495886462, -0.17288345369864705, 0.08592580203868846, 0.17956508063956284, 0.1578734261119169, -0.209987945160589, 0.13243075752047542, 0.1981623569910016, 0.01660289767016348, 2.460914480399852e-05, -0.006870047549899649, -0.002974047814309462, 0.018674545038043104, -0.20378017080579894, -0.2511011761326907, -0.30622088406450826, -0.3921234239702697, -0.4954505230630113, -0.6926311708119199, -0.5603839647375509, -0.21862953516128944, -0.15869951367091104, 0.14748643114042428, 0.044483291367199244, 0.0018137751788468944, 0.34028665833149163, 0.20893979087980538, -0.21238063131989648, 0.00600454151993996, -0.10094058458631275, -0.18518563709068908, 0.13794979511213856, 0.130372461428829, 0.008695485355986778, -0.007406596238885982, 0.15228498800111284, 0.026375045710444772, 0.0038299087976885996, -0.0012616156315570703, -0.0006547955262690963, -0.020482322333013905, -0.30638240054045923, 0.06105780447811479, -0.4786052868100749, -0.628696974100466, -0.5504782672483756, -0.3099669260054001, -0.10492518657117429, -0.5709194623733507, -0.559634902042447, -0.5687519164566571, -0.2138795647793741, -0.18911780485104987, 0.41662912682251685, 0.14905058470626595, -0.139753287246677, 0.1334000859613899, 0.15607773146780074, -0.13278106431861136, -0.009452032371381418, 0.08364723227981898, -0.18982617560772871, -0.16571887283125575, 0.046352725001030916, 0.023094161085920762, 0.0024604952685064103, 0.0035920835152697737, -0.0008317542256195021, -0.004437401942265977, -0.08225006557798481, 0.23937126439425485, -0.10489705971960916, -0.3080346945742933, -0.1342156354619287, -0.4704172688579908, -0.329401279251738, -0.3006595860204785, 0.13263760728729185, 0.17678668739226075, 0.08091481233784945, -0.17614428255680556, 0.3392041793939281, 0.16934610043121429, 0.2744916897878434, 0.23436869620245862, 0.25651246248758286, -0.09649579322388303, 0.19940156347143304, 0.10353737103649788, 0.09659462967952641, -0.04649814789158724, 0.05918184953275214, 0.01622029957527324, -0.011620630571023874, 0.0021056459295005388, 0.006226218217951179, 0.1234331376544781, 0.17081617258366913, 0.28518099890165166, 0.17598199917715926, 0.37209387039203057, 0.07661744459710136, -0.5607354285922582, 0.094828953372905, -0.40778585384187893, -0.21012514628998036, 0.044586864276307724, -0.01262036080000954, 0.1530242931212683, -0.08931691902330322, 0.30998527919354735, 0.23349576687582715, 0.055123212136785005, 0.2860483591848314, -0.27451460759549406, 0.04758789842993365, 0.18659199351932199, 0.23415027773674638, 0.0564710830675522, 0.02809284023350424, 0.013154518107982884, 0.0010106626018850675, 0.0019577234440004876, 0.0007163471616492336, 0.09106525526908475, 0.1513708599689073, 0.48025436884020223, 0.4311960060495506, 0.42424632035463317, 0.3767236664680148, 0.1576465350828572, 0.27525291138788693, 0.08634546972141265, 0.21441416405899277, 0.08581283657655034, -0.04504857612023075, -0.055998975275143616, -0.1490165021049722, 0.06514202479126806, 0.27555575895609946, 0.45435469625961633, 0.2912444037975085, -0.048278870986357914, -0.001681241700043232, 0.19347827260308734, 0.035772487508091345, 0.02517823921896096, 0.04033833887305421, 0.005565084725606471, -0.0037567827392998954, 9.332829452656859e-05, -0.00676772080202765, 0.002004164165123355, -0.1525365825862848, -0.0949447194379186, -0.07991549578925818, 0.18381030192276357, 0.1760566951880507, 0.13923266291047845, 0.017909214842261018, -0.13922511444415306, -0.08497803212329524, -0.07588775391415256, 0.09261426480895553, -0.06679170371214864, -0.07856438228259474, 0.26900876722651496, -0.04005406985431468, -0.002305084600762735, 0.022950233971686825, -0.00245690228763667, 0.20710663413519936, 0.2506338779076973, 0.07739036134139772, -0.047365600125140885, 0.006770333054526518, 0.00935264580054585, -0.005345970396093272, 0.003928214739787912, 0.0053674738344576135, -0.013234402024021293, -0.09109299591585661, -0.081476035017047, -0.16276787913464247, -0.06524459759801426, -0.1006056957735841, 0.025085915458492074, 0.4239998070129519, 0.40877229643805135, 0.07068767319759216, 0.01647198011117062, 0.006213960183022858, -0.05464224248584038, 0.20955134412291102, 0.01819614552051828, -0.04770234139569238, 0.29498047569812635, 0.3642179459126895, 0.01864389710720505, 0.3069716913269731, 0.21012220563767536, 0.07314898252007528, 0.027344793264798117, 0.0029109139371996714, -0.005669483201835943, 0.002312634427170443, 0.002921745006658729, 0.0006052305145516429, 0.0003810823965999009, 0.006086540592312329, 0.005827623166587824, -0.020845523556050044, -0.026403063044900647, -0.08356722068228524, -0.16298051719668416, 0.20740227614880083, 0.041695701707868245, 0.00706797444679923, -0.11991397504448074, -0.05512951875984587, -0.2623844699607345, -0.031109277641360008, -0.14333219540909337, -0.0329640912019142, 0.294019463438601, 0.0717134121859949, -0.0626298696447252, 0.018983389700703568, 0.03368641315331015, 0.02152984983552004, 0.015674176528422155, -0.011200566773239372, 0.009875762907221768, 0.00026700972484179506, 0.014647541652212003, 0.009330645265424589, 0.016422077777095336, 0.01835230742543056, 0.00410785570996767, -0.0015644420136680865, -0.007179035580277808, -0.022871475007772007, 0.009405940394012295, -0.03283317397176675, -0.07942436607676696, -0.08855507430649438, 0.00011526405864693849, -0.10770454274472185, -0.1122124962678163, -0.18601298783871137, 0.005709583178298378, 0.07455221105271777, 0.13471892507000965, 0.07493338062070398, 0.04835772256429776, 0.0013596120806270823, -0.017001810424099952, 0.010380985440544216, -0.012361106822698342, 0.008859541487340413, 0.0026422176410021325, -0.007916492186875583, -0.014360475771212826, -0.005567629772695792, -0.002051681703586952, -0.010485877772404152, -0.004341198634156955, 0.002704500171370572, -0.0036266404666376703, 4.570101279356352e-05, 0.002518675736473719, -0.001059043603690866, 0.02766728415497026, 0.012898670905746245, 0.00016530115493067866, 0.007354625115745534, 0.028813725805838786, 0.003667208101169195, -0.04837769668774999, 0.015418274522758032, 0.03227660034113904, 0.03621094444307936, 0.028165594458177217, 0.01309795173738953, -0.003375059119451683, -0.017591590534470562, 0.0062699592151725155, 0.008759008992551129, 0.005104952854587686, -0.00936131100892682], [-0.015951911142143144, -0.009310469647387685, -0.016671489924693052, -0.00887569589417819, -0.0019997392576792997, 0.00644352705404081, 0.0010833663573434147, 0.006723859801335221, -0.019995750839146422, -0.0024456162968424337, -0.008227265270993567, 0.0010079443646605415, 0.004847253058171526, -0.009137482217431363, -0.0044616282203377, 0.0020520177452090197, 0.00635513572840149, 0.012476625270131355, -0.00453009370533403, -0.0021255162640039828, 0.008264213574112078, -0.00285795514343967, -0.0015265753589424284, 0.002412304755197433, -0.004169752836529003, 0.010408769524334517, 0.002731024836525334, 0.007115784116539572, 0.00921616439013336, 0.002290155904777808, -0.011425423464959185, -0.011072928835027179, -0.00740340286513926, 0.014025539920501621, -0.010438258848133273, 0.019476372395000337, -0.0026301369072645156, -0.0023274009775637204, 0.00021023173202658026, -0.018984379327294257, -0.018770944512955256, -0.009928571336283344, -0.0045970677935965685, 0.003589665923746163, -0.014053998539662564, 0.014480171052672033, 0.0008055151547452998, 0.009442617194153763, -0.012268847100058586, 0.00016839688260200338, 0.009015976065778003, 0.0005856392197169287, 0.0018996620897574036, 0.005805552550468381, -0.0012845200333830387, 0.004421908534510594, -0.015380312417854756, -8.750539062218115e-05, -0.00409659055180615, -0.008768604513846577, -0.012468975420587497, -0.004150962178631253, -0.011405259822315784, 0.004366319887356537, 0.010336353400752469, 0.03880005483314736, 0.025429435187269648, 0.0353549204449035, 0.03940967426950133, 0.083809148414202, 0.07956355225552002, 0.05782995392502722, -0.013374527414231521, 0.021735697352219564, 0.03518280859717757, 0.014860792260987776, 0.029593020759727345, 0.0098861477441338, -0.002053654303338498, -0.004706886110420666, -0.005430101730739593, 0.010115313463478099, 0.001691582135361039, -0.006613329119633294, 0.01427892137150448, 0.006779601436128072, -0.010027914822469852, -0.005316419450017954, 0.0050390261443354, -0.0001363591603127418, 0.013200916955232832, 0.03354794131060689, 0.09930307849814689, 0.10313389690502674, 0.08593329696798101, 0.08039995832144914, 0.049852553382943865, 0.12513145985323013, 0.20330733101231024, 0.1992382962068646, 0.18404996700473453, 0.1954435738985543, 0.1681276936753006, 0.12152907833035537, 0.08781710255561169, 0.13101752901870184, 0.12435858994830883, 0.026955965382539356, 0.004626200731160078, -0.028647951120458884, -0.013464225801754593, -0.010418343541051228, 0.0020149468302465825, -0.010572651241771267, -0.005201578053660803, -0.015785223793249502, 0.004673052922212901, 0.008544789829157868, 0.04275475915809393, 0.07625443242007778, 0.13914492667193926, 0.16943974101387735, 0.09034729518443553, -0.25677774908741885, -0.24274228310080048, -0.1157859725310199, 0.2829391266604108, 0.14641630415430612, 0.03613387101901814, -0.1885671581690356, -0.16797970519224648, 0.17562664513617923, 0.34862948783486397, 0.14546835577554978, -0.0519075694168008, -0.06568557585266789, -0.15477329202539836, -0.02422025446259174, 0.002545747608403349, -0.00842863362951671, 0.007595130086458877, 0.007510831776175928, -0.003236932883981208, -0.007613452483727968, -0.03700844028017771, -0.03763423387865085, 0.02148801144718429, 0.08052361106071688, 0.11013056037529637, 0.2139616217720496, 0.25651138269426454, -0.02205106577375085, -0.031106835354339033, 0.24282934769497913, 0.3573266429450417, 0.4364927527806967, 0.21294948368709896, -0.027315730709724362, 0.10742072696907938, 0.2919965354675118, 0.2870112447012042, 0.11017661781281476, -0.07887441038630698, -0.05552965690784696, 0.0021683770018979184, 0.03732684369326428, -0.011101161111331243, -0.013263250020460707, 0.0030061378839616178, -0.011671169736598768, -0.04560737175727984, -0.002550543941513799, -0.06229783319932727, -0.04008834491243002, 0.04158575707831288, 0.0667439201278648, 0.10138826245912805, 0.3916155901229801, 0.016942838862428193, 0.009363083630366312, -0.010339522522519781, -0.11958591925189044, -0.006099062204823674, 0.19191303276134195, 0.10683348257125798, 0.06218347593339798, -0.08272041829245923, -0.22242797742700196, -0.020877753828853842, -0.5499048707826106, -0.4220987318801036, -0.13066107216961972, -0.18414317884302228, 0.06216188859395088, -0.09179211481761822, -0.012722261635779174, -0.009316181134678306, -0.008937377908766052, -0.03749134947511052, -0.028336890035278024, 0.03357744068767994, 0.10650484365750683, -0.054678579125590335, -0.1616153896230738, 0.02302192730013949, -0.10180473833573903, -0.444365053076144, -0.3146707885499856, -0.39212808528424586, -0.15245329639330912, 0.11828275534281453, -0.06128905532760961, -0.06539074484122621, -0.10532722757632804, -0.188793938544965, -0.30203431191246954, -0.11229339498129888, -0.19383790147586488, -0.45417700332211725, -0.27084360920842343, -0.3674569987906401, -0.11355858632719888, -0.06229901161475193, -0.002003456584268207, 0.0005895752382777447, -0.012438702903178774, -0.011618297265306145, -0.026608206304164373, 0.15984203432815253, 0.11386681547087138, -0.030679052552393022, -0.026304184496880132, -0.035001852863585085, -0.12406870308496618, -0.00533583564036147, -0.054238986200469, -0.7165497397047916, 0.0159389646598332, -0.2516018069572658, -0.5831403908973684, -0.5648713772387206, -0.07488577626379864, -0.13734497650514788, -0.006261421068773802, -0.36674860370216467, -0.165286489968074, -0.14775283427422914, -0.20171766629513868, -0.3003731703326952, -0.09319932259605512, -0.04395181649067161, -0.0028151372933472563, -0.00989624577008442, -0.013380197687706895, -0.02048638517343212, 0.008120061578446367, 0.13739852933013252, 0.028580461796201183, 0.06051604634064029, 0.15652917728494692, 0.19685621599843858, 0.01797609615441315, 0.0027077549801600392, -0.11007263057462983, -0.03170155782524696, -0.002893687057923452, -0.23287226173448533, -0.4690030456131973, -0.686048408775165, -0.6369528676613914, -0.7566689103992109, -0.1772274125962792, -0.26997388115302645, -0.01709236653423809, 0.041216087221758534, 0.030577894528121284, -0.22322431031723577, -0.1931856787676626, -0.03335305032391017, -0.038866097075288875, -0.0004817438186057466, -0.013886108223452842, -0.016776433199610533, 0.030541111515520004, 0.02417321864945951, -0.03112721771049835, -0.02786597862503593, 0.004987189833231935, -0.03986229217037756, 0.07529939685503964, 0.08106064111619554, -0.01092193642910763, 0.11647533199394017, 0.09657833776038145, -0.004018840387352935, -0.0038976951712155336, -0.3987197496038629, -0.5298676548414945, -0.6867032982559739, 0.004282371011242786, -0.3760278279166135, 0.011959593171981815, 0.05600646531851934, -0.04953109904832481, -0.038556500713646025, -0.2035764049826086, -0.07924038713464501, -0.024488158126868567, 0.0016568010752798456, -0.0010687510256026632, -0.028737202800691596, 0.030717334829541736, 0.037775522341371555, 0.08626749928205656, -0.0335868861405364, -0.11401320397127465, 0.06446570838186491, 0.08127903397008478, 0.1797036472642513, -0.05206834504706659, 0.22572203882979724, 0.21746445505330997, 0.6313077499484183, 0.6455557110007933, 0.698637022550004, 0.5811247950780951, 0.3831423203287651, 0.4451442928112692, 0.00750383611848766, -0.045399886207046346, 0.13585966428374094, 0.2917236153832013, 0.20054583265163833, -0.04975195012324652, -0.10491739658997501, -0.0033889804666101028, -0.004076893575905872, -0.00373414034578186, -0.019127336440623977, 0.07608395231115879, 0.04914123658292236, 0.08803607696818325, 0.0019296165449361991, 0.01378132093601308, 0.016198630917703797, -0.179151324581352, -0.20816907954918926, 0.13379980506888606, -0.1826328920510405, -0.35894596965155917, 0.14479510355875252, 0.27859160044457426, 0.7717251323640985, 0.5514816265865985, 0.4408247148462326, 0.323452336074688, 0.04672865189767186, 0.12583006405246125, -0.09219021787535885, 0.10424438907016953, 0.2289782173422279, 0.0654143650289091, -0.005328018670687486, 0.0005052346946379858, -0.0036189505757511812, -0.011818953874402488, -0.01856290353290098, 0.06279403238543436, 0.08984210217063313, 0.029001359330565534, -0.004852901477631288, -0.24523115202436532, -0.12917017115679466, -0.08568712593941352, -0.11913949760330346, 0.19576304882984774, -0.028618048751944562, -0.09885150579902822, 0.14532748285552322, 0.36799497724213426, 0.20564484683741288, 0.2973768771002311, 0.4316499879808867, 0.21053416182213927, 0.18823573357512227, 0.022053629983237406, -0.17017014120994112, -0.11585292493091404, 0.024670708678145643, 0.06476028194684989, 0.03313800829713501, 0.04364310898233547, 0.0024184229271929495, -0.0015426052266381029, -0.013192693431135955, 0.05280415223362166, 0.05123477420041137, -0.1831568581012884, -0.22213424928342873, -0.11747898007273526, -0.19065286550849198, -0.36522547313390896, 0.11121127304044869, 0.2747516119428924, 0.28109927675897434, 0.3239789772050122, 0.21037712737999414, -0.016025706769720042, 0.07486172667044085, 0.2794096279085348, 0.46917025836775134, 0.6628627831902938, 0.08944401063971259, -0.2608519747187734, -0.24444676647990382, -0.31120925723909104, -0.16979218704874335, 0.15354457848266415, 0.03989521024978453, 0.0034435261092209553, -0.01371243153905807, -0.012523020045490984, -0.018228754072142847, 0.06089226559054823, -0.04096019167794983, -0.15523922805679113, -0.01875858600353539, -0.5334519335473679, -0.38771745908484045, -0.09192125387202767, 0.20512150607745097, 0.37875543061812883, 0.12010328362851302, 0.47570659102801766, 0.4536950257531218, 0.00984165956262027, 0.020124542266991913, 0.4097012161437716, 0.20497974858937998, 0.3332291125288959, 0.3682489212612672, -0.022094923101796306, 0.06908946950224727, -0.328201510035519, -0.03302944801044348, 0.2757430497879066, 0.11187513468159756, -0.002058349337477191, 0.0015950734497300462, -0.020357353700663307, 0.009396426890789492, 0.033655910502905034, -0.011003541133383614, 0.013257485224258049, 0.14454989732499066, -0.4638029315659264, -0.3281790640690462, 0.05637625533120545, 0.3085550586207047, 0.6489135616731931, 0.39898368446697596, 0.42251915669533524, 0.40015269589588215, 0.4974196005153887, 0.34733530324640166, 0.3985611954039657, 0.47183670950308937, -0.0007544839714507963, 0.2467817061703911, -0.004197697696018325, 0.14929670095159014, -0.056316578557137065, 0.23335886078302417, 0.3391122857197135, 0.11796904518249524, -0.0050330112575058695, 0.007366867766585066, -0.007109082085008434, 0.05084250166804742, -0.029160301025630747, -0.11057067922586432, -0.20107876938563593, 0.08695528481651765, -0.26232619926556205, -0.34723322433116094, -0.2081521451189944, 0.03841684856072629, 0.5603880639047699, 0.5694778056632065, 0.24437269914351037, -0.2107514477322938, -0.02638415263141518, 0.06722370924612411, 0.07409939264334428, 0.04402140042123134, 0.03457050284817408, -0.08186994396222083, 0.3350868326815071, 0.16661918482613314, -0.12055974599887286, 0.1830341956570596, 0.20174333847962525, 0.030534738349567755, 0.024419679574904492, -0.003759398536901557, 0.0020617049957578995, 0.031394648831319184, 0.10810065250721689, -0.09129497445163472, 0.16006754657605415, -0.014835456964387006, -0.14176451651388378, -0.13192987341165796, -0.1638644092514616, 0.4118943079259311, 0.5938601875870171, 0.35980561103977365, 0.13977349654867063, -0.25722484194438877, 0.020234050477076534, 0.010761587344628608, 0.02646398837278716, 0.15239599043259375, -0.03248543418963387, -0.04707083367204471, 0.23521995406924898, 0.036297942949628376, -0.05493782670025313, 0.28595671739121825, 0.15937184157583367, 0.09936210304638116, 0.06348409525766824, -0.00905524952719518, -0.005628995127527732, 0.02041447493882953, 0.16028749463707337, -0.05097720384985517, -0.07870079374651161, 0.005844337599100697, -0.0881713307266885, -0.21764491695642182, -0.050652344027383625, -0.09225073971764491, 0.2933309987556344, -0.02023481501708668, 0.20435137982256937, 0.27077391020941927, 0.3746770979126757, 0.08106147583660667, -0.06263984415998859, -0.1364951201991711, 0.019012612578863924, 0.03758166424323937, 0.22919248202889167, -0.13477554667839825, 0.18517649304783967, 0.1627266424283799, 0.10864411465952416, 0.005902216590462141, -0.003130189432640355, -0.0031343191539938285, 0.001558201607300463, 0.055200778672997886, 0.19400726522685474, 0.1318969657747155, -0.15971512928372025, 0.1286689913731217, 0.11230316093473636, -0.06406190855867852, -0.16365534392257128, 0.006307963097945047, -0.052675104525703835, -0.2328240920881648, -0.06976859226300998, 0.4037413222474019, 0.06647039985182415, 0.19688143509031764, 0.17945762907900925, 0.1787696116858701, 0.2776022813517756, 0.19222167323280318, 0.08618516102139828, 0.034812701464257745, 0.13119089529158484, 0.19115089646596303, 0.07711823428920443, -0.0007161785010776097, 0.0058493431904730565, -0.006173097134957839, 0.00418551098696152, 0.0893811323051552, 0.15972334200345892, 0.20795415342419024, -0.1716009638897393, 0.13210100668187505, 0.12893397345071564, -0.3161664656054575, -0.18432895971874377, -0.35259662316595813, -0.22095612416127267, -0.07571410870776607, 0.06714721447502507, 0.40481061936606444, 0.1080530849457224, 0.5594821798314342, 0.329825224425142, 0.29515381229284177, 0.2980341046177711, -0.15040237913251034, -0.00958304748406804, 0.15563591607568603, 0.12282434627922462, 0.14275327867463325, -0.0029905664225499153, -0.00025465707013508414, 0.0017597804739734701, -0.0052772314111869485, 0.010158027189126548, -0.0035987136407397277, 0.07709933183667636, 0.3798010253972371, 0.14540230918733463, 0.023860024547603487, -0.009594544462552089, -0.22878953984708128, -0.27746727992471, -0.2099614175094868, 0.049487591195727085, 0.03907749730539461, -0.058561172799402754, -0.1261465734854922, 0.02338287577808604, 0.09396483248708626, 0.04110817305910648, 0.07796485492361427, 0.22432682104669963, 0.03258962821045797, -0.11719078052191219, -0.063761654898127, 0.02273102090496316, 0.048584570095057594, 0.005863328960222033, -0.010167058358904914, -0.009608586094982908, 0.0079459354735268, -0.00011707943206414341, 0.011390277921371143, -0.01212905632202238, 0.12819957121825767, 0.00031034497908120125, -0.03298696939760347, 0.06765205437476132, 0.04243886719680827, -0.1109947109818832, -0.11581370141405976, -0.28581422111042254, -0.19270081091559937, 0.10117008145584908, -0.1498452207516014, 0.1145987017586241, -0.07947465346308125, 0.17510719085608245, 0.27192914027527954, 0.10469684498792595, -0.1718321276051732, -0.16554415796943597, 0.03665463214055777, 0.11079667884256698, -0.002196643060311741, 0.015827286661752968, -0.011774224398139478, 0.009460830379862648, -0.013031683325091142, 0.018526553072627995, 0.012198186598917108, -0.027707285920493416, 0.015581707216790317, -0.05361103223212353, 0.12524712524487328, 0.29228281284917873, 0.379221128731188, 0.37576566521783417, 0.14844618677855065, 0.20727803712048037, -0.014351503314034276, 